34
66
-58
-65
-78
-14
-36
76
-32
41
46
-78
-35
-21
0
53
-86
-62
3
-45
31
-76
120
-44
50
114
-104
-92
118
-46
52
-34
-30
127
-103
-87
-44
-17
-74
71
85
-106
-127
-21
-97
90
-106
-53
-35
70
33
119
49
-126
-1
105
-5
-125
32
-35
89
127
48
-29
-22
36
118
-78
-40
-119
-4
63
21
101
-16
14
-28
127
74
72
-100
101
-81
15
-88
97
-107
14
-45
-87
-87
84
-61
-42
109
98
-62
-105
38
-126
-59
-89
-11
91
-90
-4
68
-61
-75
66
99
-44
111
-121
115
66
-115
56
-124
-21
65
76
-6
-80
-68
-65
53
-124
-13
66
113
-62
-93
49
-22
-60
-110
-59
68
-79
25
-117
43
-106
-33
20
55
-71
-25
-18
18
42
-51
-44
-36
-102
76
34
-50
112
4
-116
30
26
122
14
35
-95
97
38
-70
-127
24
66
-24
-73
115
116
-63
27
-66
109
-120
-16
-1
-87
23
-70
124
-25
-127
79
125
-36
-9
49
83
40
-24
27
-103
-119
108
-38
-70
79
-29
94
-76
16
-39
17
27
-100
46
104
96
51
115
-73
83
-10
-106
73
-25
-100
-62
-80
53
102
-127
90
-60
85
36
101
8
-102
100
-76
40
78
73
67
5
99
75
-73
119
-37
-72
58
-39
55
85
-123
-55
51
72
62
41
-80
53
-123
105
-14
-88
-54
9
11
-77
-31
89
-105
-40
88
-124
-86
40
8
-52
7
-83
-22
23
-109
6
44
-85
9
81
-124
54
-18
78
-59
17
-56
-64
-80
-59
-117
23
12
-49
84
77
-7
-96
89
14
-127
-24
32
27
112
20
-16
-16
101
21
-122
-91
42
100
8
18
65
67
63
54
-65
69
0
-38
94
16
-21
113
-51
98
89
67
74
82
-113
-54
115
-39
56
92
89
-112
18
11
-41
-69
-25
-54
34
-121
-65
-47
-96
-112
84
66
-2
-90
-58
12
125
-47
-112
15
-116
-110
-69
-126
-100
108
81
-110
48
-93
21
76
51
68
113
-67
-113
101
-80
88
-5
-82
109
-104
20
25
75
-26
-80
-11
-25
-68
111
49
11
11
-109
-41
37
-38
17
-41
-9
48
-25
6
-113
53
-79
102
122
-108
119
-88
53
35
-54
-17
-28
-58
15
-41
70
-111
26
-74
-23
44
-1
34
-102
124
36
-77
32
127
-101
9
42
120
-81
17
-123
77
-67
-123
-110
45
70
-78
-8
117
65
126
-106
-43
-74
-87
-68
-81
-120
83
-102
-65
-109
-65
-8
1
-10
86
40
-49
-78
-17
57
74
117
77
110
-4
-80
-23
-18
-68
-17
-14
-67
-47
106
-109
-21
90
-41
116
12
-19
-125
-125
-24
126
-95
-12
115
-126
-30
-122
-1
85
70
9
-80
-39
49
29
48
97
-63
60
-91
-51
95
-5
-32
-10
-108
-116
-41
76
30
-120
86
-67
68
-21
-15
-39
102
97
61
52
-40
-64
64
12
-15
-43
37
44
94
99
52
16
-68
105
2
74
103
-92
-27
37
-116
85
-85
-121
-122
68
-116
28
103
5
92
-80
-44
122
6
-35
23
-103
53
-25
111
111
84
-28
-86
101
-71
32
-10
-61
29
-65
-11
114
80
-92
15
6
42
-110
12
-4
-59
-111
-30
63
-23
-108
-53
-15
-56
88
-101
105
-20
-113
81
120
109
62
-20
-15
103
100
-128
104
-85
-36
-120
57
-75
-124
126
-51
-33
-97
-87
24
-44
120
55
102
70
73
-117
88
-28
90
-40
41
-122
109
-17
54
-85
90
85
-66
38
-9
-103
-26
20
58
-28
0
17
-94
-46
12
-84
-46
-128
127
24
-128
-25
68
36
-115
104
1
108
117
-89
-101
-47
-22
-99
-4
40
-68
-23
20
47
-4
103
29
-59
97
4
36
90
-22
-47
-59
-92
-59
86
54
-109
112
40
-121
-120
30
-66
39
-62
92
-128
-85
24
-12
33
-53
-18
18
47
-83
98
-91
-24
103
-58
8
80
-65
83
-30
-128
52
27
75
65
67
64
48
-39
-29
100
-8
37
82
96
103
-24
19
57
-61
99
56
80
54
38
-35
-40
116
37
-11
-115
-99
14
73
-93
101
-38
-67
-3
114
-93
-43
-96
6
-75
121
103
-35
-25
-11
-8
89
44
68
-10
-36
101
-114
121
117
121
-17
-69
-64
-88
122
20
7
28
126
40
-83
-63
7
95
-51
87
-88
-107
30
-58
120
19
26
-79
91
-66
95
77
-125
-113
85
116
54
67
17
-11
-47
84
121
47
13
39
-87
-34
-127
-121
-106
52
104
82
-15
44
-91
114
79
27
4
15
-122
-121
-61
3
90
61
81
-113
89
-98
85
76
3
58
-14
100
46
-96
73
1
-87
115
64
6
32
-63
-126
-2
63
-111
-56
81
26
-69
86
-66
-51
-3
-56
5
95
74
14
-28
-19
101
-74
69
4
-81
105
-74
78
62
-71
25
113
46
26
-99
52
60
45
-19
-28
-112
69
-89
-10
-37
36
15
-19
-94
5
5
126
-38
-32
52
-14
-76
-23
-115
-51
-70
89
-12
-83
27
114
56
116
67
-67
73
-87
-81
-105
-91
28
0
-21
20
-55
78
65
-107
-1
-66
-8
-104
-62
87
-49
109
109
17
-85
-3
-100
47
-108
-72
72
-49
0
-50
52
-64
84
-94
-120
-109
-88
124
-68
-11
-54
125
-72
60
-122
-39
58
63
37
64
119
107
52
-99
5
19
-121
3
-8
8
125
-28
76
106
-124
-123
-125
-67
-32
-82
-114
63
-87
-90
-15
121
19
95
35
21
-13
-19
51
-17
126
60
-79
111
83
3
-52
21
-68
-12
-72
85
48
54
83
-90
29
20
7
-42
-27
-9
-14
-96
38
-111
68
-128
63
92
-23
-58
16
67
105
-22
1
-98
12
31
69
100
65
42
96
-100
64
117
-26
21
-17
95
-122
87
2
-41
72
-39
103
41
19
117
-31
23
114
24
-13
44
-105
-66
-1
77
-95
-98
-81
-111
26
-95
-108
83
-60
25
13
-123
-107
-80
107
70
0
-98
82
-73
118
32
98
11
45
37
23
-34
32
74
-18
-56
87
8
-54
49
104
44
-107
103
62
-120
42
-19
25
-23
115
23
-42
73
-50
-45
113
69
-74
-54
-56
-47
-97
-88
-95
42
33
-73
-17
12
89
-77
81
38
-115
-38
-36
-53
14
66
26
-22
99
111
82
64
-93
37
10
-52
35
123
-53
-125
81
49
36
70
-32
67
-15
17
38
-66
-34
117
-62
-45
38
72
-127
42
-95
-101
-125
121
-3
-20
-103
84
75
-99
-14
71
-66
-91
-9
34
-80
-122
115
-108
-26
127
-9
-5
21
2
125
123
-91
104
75
77
-76
-28
26
90
94
-75
120
9
60
-96
107
85
42
-98
87
34
78
-46
33
-47
86
-67
-107
18
0
-75
5
-7
-32
-109
51
85
94
-83
114
61
-2
4
7
-21
-28
-66
-43
-50
-105
-42
58
-38
5
18
52
35
-57
53
-56
-86
-89
118
-92
118
95
50
3
-25
-92
-34
-47
72
99
63
15
-93
75
-35
122
-39
-117
-75
103
-15
-35
46
-14
-79
-61
78
87
107
16
46
-96
26
-85
-85
-127
-82
-112
95
-128
-93
23
-48
88
-40
121
-26
-96
-97
-112
-93
-88
16
-34
14
-92
-92
-47
112
12
-1
69
-61
66
12
75
104
118
79
41
24
-57
119
-94
29
-86
51
119
-62
-112
71
45
8
-61
-33
17
-102
-111
35
122
3
-83
11
78
31
-46
117
-57
-49
-87
117
119
-15
-19
-20
-118
-112
-51
92
76
87
-110
-6
-21
76
-127
5
125
-69
3
87
68
111
3
58
49
40
-104
124
-88
74
-28
-58
-125
-45
60
41
89
-113
-120
-6
0
-113
-19
-32
80
-41
-86
43
42
87
64
103
-71
29
-42
49
-8
-56
-37
74
117
64
-19
-22
84
-92
-6
87
-106
-124
-91
-75
-100
81
-21
32
-26
17
6
-8
33
87
-111
124
97
115
-18
-101
-85
-26
-27
6
-74
25
-115
-118
-14
78
112
-99
-54
-42
-22
55
38
-124
-46
-29
53
99
92
21
105
-92
62
-66
-61
-38
18
30
80
106
-4
-39
-12
60
-116
78
102
-73
-26
36
124
-19
32
37
-87
18
-21
80
-60
51
118
41
10
36
-113
84
103
-69
12
98
-15
59
105
-21
-75
19
-78
-35
-73
-55
-93
19
52
49
15
42
42
-30
126
-112
27
-22
26
-35
13
-63
-52
103
-43
124
-94
16
-107
67
116
99
-124
5
-57
-32
-19
106
-15
-109
123
10
126
-20
-77
-36
-45
-54
-62
-15
17
-39
121
98
60
30
-106
-121
-99
-48
69
105
100
106
-26
122
-110
-2
17
-124
22
-52
-41
-32
54
19
75
-24
49
39
66
-82
35
-60
86
-17
40
-94
49
66
-60
73
8
-107
-125
39
101
-38
-36
-32
42
-2
91
-27
-45
27
0
72
-5
-18
-30
-49
33
-117
23
71
-83
79
-40
26
46
23
-31
36
-26
-81
23
-61
-120
-114
109
45
64
-64
8
7
-12
35
-94
51
-54
-42
44
-23
-22
-17
-73
9
-123
108
-108
-81
22
109
-70
8
-25
-96
105
101
-41
-4
13
-114
92
-78
101
89
-60
96
-28
123
-64
-120
88
-99
34
66
-55
-77
-26
45
-92
-119
111
-85
25
-98
20
78
-63
54
-37
-115
-124
-85
-124
-68
-70
4
-54
59
-112
-56
-27
-19
-83
21
83
-21
22
-20
-40
122
79
-49
-60
59
-60
-114
116
-94
103
94
27
-87
-103
43
-61
-58
78
47
-114
26
108
-60
66
-21
117
118
4
84
102
93
100
59
-33
-86
-102
-124
-125
127
15
-124
-94
4
32
-71
22
-73
30
-72
106
3
-103
102
66
21
-34
107
-10
-21
-66
-28
-127
-83
-111
88
-102
65
123
-18
32
26
-18
-35
-69
80
112
35
-63
-10
-97
122
86
-88
114
-120
-40
99
-63
86
122
-103
8
3
46
-123
104
-70
-55
-67
-18
-31
97
6
24
-109
-6
107
-107
81
98
-111
77
-12
90
69
-95
-26
-10
87
-12
-110
71
-85
106
25
55
-115
-17
71
-77
69
124
-59
16
-21
-107
-112
-89
125
23
-87
-61
47
48
15
-66
2
-81
-22
102
-104
126
9
-91
71
108
-114
98
108
48
-24
-94
2
-85
2
-13
115
110
-70
10
-83
124
-107
-85
121
81
-79
-55
8
35
-5
-17
-49
103
-95
-34
-106
-105
-53
120
-53
51
-122
-36
27
6
0
-45
68
-86
-5
107
36
78
124
-31
22
-73
-61
-60
127
-123
-128
88
-92
-72
68
57
-65
114
54
64
81
-2
7
-86
-71
18
40
119
6
81
58
17
10
20
-58
46
-81
106
46
-9
-113
94
-29
106
-66
120
-39
-3
-22
-122
56
-124
-89
-101
85
84
4
89
-32
-87
98
108
95
69
-122
87
-38
90
-20
115
-40
-86
94
52
-117
-19
-58
-81
72
115
65
89
58
10
116
18
86
34
35
98
-111
47
-1
2
81
79
-64
-98
34
45
116
-39
-85
37
23
-110
-32
-87
99
101
121
-29
-23
117
-94
-101
97
105
-12
92
63
-75
-92
-46
-121
27
-6
119
-31
113
5
111
-16
-92
-114
-81
-32
-3
74
101
62
-93
83
-108
13
98
-39
-1
22
-86
21
73
127
-37
127
90
-97
-65
65
5
17
88
-21
-25
7
-35
104
-110
-31
-1
49
-21
-1
112
-64
-48
-45
-90
72
-2
58
-35
-93
50
12
91
-116
-113
-15
-9
14
64
119
-36
60
94
98
-117
35
20
68
31
-3
1
77
-43
-88
-35
99
-53
86
96
117
8
-123
95
13
-67
50
57
37
-54
73
113
60
-124
97
-100
-87
-74
-90
126
46
-26
22
112
-48
-39
-15
4
-26
89
106
-20
113
53
-93
24
-85
-118
-40
31
-29
65
-37
-32
-121
-39
-64
105
-125
102
-39
24
-55
-38
-27
-1
49
-124
-124
-115
-124
-42
-18
107
-45
107
-27
-91
14
73
-24
10
-46
99
-86
-43
-127
98
-62
-115
-104
-92
-92
41
61
-123
-48
120
24
-34
73
-64
100
-52
73
-90
70
-77
51
77
93
-126
-55
-62
-102
56
-97
-104
82
-89
-49
-49
-111
119
-17
-5
-78
111
64
-95
44
-16
40
-27
-81
-62
-29
98
112
20
117
90
-63
-67
-29
15
-28
-56
-94
112
33
48
80
-8
22
-24
-94
-44
79
30
-98
68
22
-63
10
67
-116
65
36
106
-7
-106
-109
18
97
-125
-98
-71
88
28
-100
-89
22
-122
-85
-48
-50
-2
-91
-3
60
28
80
39
126
89
-43
35
36
-48
116
-123
-118
65
117
-66
102
91
98
-121
-99
59
115
-125
91
48
74
31
98
-63
-32
-66
-94
-15
-64
19
10
-63
115
-51
-97
-9
59
122
-53
30
4
-91
-9
-50
-105
66
92
45
17
77
21
-74
-109
-83
121
57
60
94
-87
35
84
-49
101
0
-54
-119
36
62
-31
18
99
52
38
17
61
99
-91
-78
60
-5
92
76
111
-95
-16
66
-68
111
-97
39
120
60
118
37
53
30
-60
-97
-37
46
-50
21
-5
-117
-60
72
95
-94
-12
-97
-26
-84
62
-54
-113
119
-56
-91
-45
106
-13
95
56
-60
-115
-37
35
36
72
86
-19
78
106
75
58
44
-57
-109
-122
19
-20
-47
1
72
-98
13
-99
-61
-125
-97
101
50
30
79
16
65
1
-70
-42
25
61
-8
-126
38
30
123
-55
30
21
58
-38
63
-10
15
54
-40
99
94
-62
10
-120
-8
26
-48
10
63
41
61
57
-118
-9
5
-115
-53
-63
63
80
111
79
105
-104
-123
-126
-83
120
35
45
98
119
5
37
-42
65
120
-100
75
-99
118
-86
63
-97
19
45
-15
31
24
-45
32
106
-19
117
22
54
-68
-89
-27
-36
-45
-115
-15
-63
74
-16
-82
21
-26
-112
-85
-63
62
-68
-48
-102
28
33
-28
-37
38
-32
81
-46
-66
-29
44
-39
38
112
112
-120
-24
-2
-118
41
117
72
27
108
12
-95
-7
93
-35
-121
119
-110
111
122
-26
-87
63
15
91
-14
-86
64
-77
104
12
6
-43
-26
42
42
55
-105
-51
87
-92
-81
-80
117
60
88
-100
50
-68
-17
-46
-31
-1
113
-87
-120
-59
48
120
52
-76
-53
-74
-112
-100
92
96
-74
-1
-13
-101
69
-47
68
-101
-76
124
-100
-61
-26
39
26
14
-2
56
27
-83
116
23
-10
-14
105
53
-22
108
55
78
84
84
77
-21
37
39
58
42
-108
-107
7
-63
16
-102
-54
65
121
-21
120
-104
-113
-109
-5
-38
-85
-34
-124
65
-83
118
35
114
53
-52
-107
1
22
-71
93
56
7
102
22
20
-100
105
7
-111
117
48
-8
39
-74
-93
68
-107
-74
5
48
-35
-4
27
123
-112
103
-111
54
75
-84
-103
-42
-126
6
-43
-120
124
40
119
-60
-97
119
-89
37
-18
118
37
120
-48
-127
47
19
19
-65
-91
104
48
82
107
-39
-47
-48
15
-50
-112
-9
-85
5
2
-100
13
42
-12
-27
22
-88
-12
-72
96
-66
20
115
35
-43
-22
-34
90
17
-37
94
33
38
-102
107
98
109
-21
67
-80
55
-83
-32
115
97
23
40
70
40
66
101
-99
63
-25
-12
-85
31
107
65
-125
-97
24
-13
125
-60
-82
99
-37
-38
26
83
-84
-61
-123
-35
-15
-112
-112
-87
-1
78
-34
99
36
34
-44
108
-115
-103
-100
-48
103
57
112
121
69
92
21
-94
-62
62
-91
-114
103
84
-110
121
-49
-33
-24
-49
8
-62
-46
-100
61
-112
96
67
-110
-22
-121
116
80
8
106
88
66
-107
-41
14
95
-64
21
91
-88
-112
-35
-99
84
119
-90
1
43
43
38
-10
48
-79
21
-30
-126
-70
52
19
-124
51
-114
-8
60
24
-3
-111
-7
-119
-15
36
57
31
109
50
-55
-128
82
-87
46
49
-32
91
68
-84
122
-81
37
-77
-87
-106
76
-29
100
-63
-5
-116
-113
18
-39
-64
-63
80
-32
-86
74
30
118
33
117
46
-38
125
10
-78
-62
-86
23
19
67
123
-16
-26
-16
64
117
28
70
-102
-109
120
72
-114
14
71
102
-39
125
75
-93
-125
-106
-8
-9
-73
-85
-29
-14
-46
117
119
-93
-70
17
-23
-72
113
72
111
-26
-22
19
-83
-116
27
94
112
-109
83
13
-97
-104
-50
61
111
77
-121
-52
-43
28
77
27
65
14
25
18
-119
-20
-97
101
35
-92
35
22
-104
-19
-114
60
53
46
-63
2
4
-100
41
-14
-5
-93
-109
116
114
-120
66
-111
-37
76
63
-3
-83
-45
-15
85
-95
70
-19
-91
33
-75
15
45
-3
1
-54
101
97
-7
-68
62
4
-61
-122
-85
-95
126
-38
96
-85
37
-42
-39
61
-74
-112
-97
80
-108
-14
-57
48
42
-56
-69
49
-46
23
61
-99
-11
-80
-88
-14
115
6
121
74
69
61
15
27
97
-125
-81
32
-35
-93
-53
-105
88
-41
-124
-83
-106
-34
109
55
106
79
-110
-94
-39
45
-71
45
124
-69
-25
85
38
-110
38
-111
-57
-16
-122
64
-112
83
98
-32
88
71
-28
-128
63
124
-53
120
-111
27
108
87
-19
90
-9
29
-90
79
-4
-85
105
1
46
119
32
-59
102
-124
23
-56
-21
-110
93
-24
-16
-110
110
-56
94
92
14
35
-44
-92
120
96
-20
42
-72
103
-63
50
86
-76
-82
52
52
-87
88
-44
-71
41
-18
20
47
98
-81
-55
106
-22
-83
76
-85
14
-47
113
-60
103
32
-67
124
-82
60
-45
52
-48
46
48
-53
69
98
24
-64
-98
-13
-48
-106
94
42
14
125
11
65
-82
46
-123
108
-90
23
-106
26
60
-72
-55
119
119
77
-128
54
-45
-83
65
-113
56
114
81
-125
45
90
-124
103
74
-19
83
-96
-21
96
47
-84
44
-70
21
98
17
53
99
122
4
-25
-22
79
-123
-95
68
-28
29
24
103
37
-109
66
123
112
99
3
-23
84
108
9
-75
-103
-23
-11
13
-128
-94
-69
34
75
100
75
54
0
-82
113
-10
107
-83
-7
11
98
106
24
-20
77
67
7
-10
-27
-104
-15
-66
59
-58
15
-90
-4
89
18
-82
-12
125
-63
-115
-46
-74
-29
1
43
-47
95
99
-63
27
-94
126
4
-48
65
-95
-39
-42
-33
-13
-101
-85
82
7
95
-99
1
-80
125
57
-112
23
76
5
-64
10
44
114
-112
-105
-54
12
-87
-38
-97
-12
-8
19
-70
-112
-99
-5
-64
-127
4
89
49
-43
81
-48
-20
126
2
-5
-10
3
-49
-68
119
118
-43
-48
5
-90
-12
-89
37
-107
118
115
15
45
-15
-128
-78
46
110
-61
-8
107
-54
-75
75
54
93
98
88
25
-38
-68
19
-57
118
54
-5
81
77
-114
-97
-99
1
-22
97
21
-92
39
122
-100
-40
110
62
-58
52
8
-95
72
-22
115
-5
-83
-89
-75
8
75
-69
-16
51
118
122
55
20
-13
-30
-96
55
-81
126
-102
31
-79
-119
-127
-118
78
87
112
-9
-100
-15
87
102
41
0
77
95
-20
-20
39
53
123
68
73
-116
127
97
-68
25
101
70
-127
-87
87
-53
37
101
107
-5
-106
84
26
-70
53
33
-13
-85
44
31
-112
80
2
-118
-54
115
109
16
41
-59
103
-113
-98
-58
-125
33
117
-28
-126
86
-123
-25
33
-64
-86
-116
54
-75
117
112
-5
80
33
48
-86
-71
-55
-49
74
-90
-39
88
-56
34
-61
-60
73
-114
-13
29
-65
-27
4
-28
-70
68
52
-79
-126
-87
21
25
98
-6
-122
-44
70
74
-30
31
-119
89
119
96
8
89
58
9
123
-8
-72
-66
5
-102
80
-70
9
-26
-96
111
64
-123
61
108
8
38
-89
-124
-1
-58
124
45
-47
46
-21
38
78
-67
108
93
-64
103
-82
15
123
-2
-47
49
-75
-80
-42
15
-104
-46
84
51
-106
-36
108
-120
-3
-76
-2
-65
-53
47
29
-14
-61
-43
-63
-121
-64
-28
-68
88
74
-104
-16
16
103
-86
-66
-40
-77
22
-62
52
-77
34
-67
39
103
-100
-46
-98
30
99
-10
12
-114
41
-94
81
36
118
-54
-32
-103
-16
19
33
-58
-37
65
20
-71
-36
-18
56
8
2
-126
-85
101
6
95
-110
115
-46
92
-69
-39
65
117
-127
-108
38
-63
-16
-111
-113
-92
42
123
75
69
9
-46
-87
66
6
61
-125
-93
90
33
123
13
99
114
-123
56
72
-55
-90
-93
-32
-73
-5
-121
-48
90
-4
9
-12
45
2
-77
1
36
7
37
104
-7
-83
8
125
-64
-126
68
-40
-62
-125
115
-5
-120
-33
-107
54
54
-3
5
-56
27
-65
-84
71
-123
9
116
66
-38
125
-1
36
-28
-119
-102
91
109
-92
108
-70
12
-44
-13
28
62
116
-78
75
-72
52
35
32
-4
97
-13
-21
43
103
110
20
26
-108
57
3
-89
30
63
62
78
104
-19
-47
-9
-127
-94
-13
18
-19
97
-26
-26
-87
-54
31
38
105
72
-89
-58
36
-117
-63
12
-46
57
-51
-22
117
-32
108
-117
86
48
-27
44
-111
103
-56
45
-45
12
-47
104
99
-32
14
-63
95
18
68
-2
73
-78
-112
-38
-62
104
74
84
-108
102
46
77
-10
-101
-66
82
12
41
-30
-73
-82
26
-46
-27
106
78
53
-12
-52
-72
-117
125
-36
-53
-56
-87
-23
46
65
-114
-123
-73
-52
-68
-47
-105
35
18
-5
-46
-118
-41
4
-13
-78
6
-57
-3
-36
-24
55
-92
65
-24
-24
-67
-78
-92
-47
-12
124
64
80
-67
-114
-1
110
-115
-34
20
101
73
8
-75
95
-1
56
114
-127
-44
75
-59
40
61
49
-22
114
114
-106
-16
1
32
-63
17
-5
94
-68
63
85
-29
-75
-1
82
118
-92
122
70
-91
46
-47
-96
-70
-55
-78
39
-21
34
41
-124
-47
-68
-72
1
28
-39
-87
-112
-124
-99
-93
15
3
113
124
-54
65
-90
78
66
80
90
-51
45
-103
-96
-41
-67
22
-37
77
37
-62
107
34
90
78
-116
-79
22
22
122
84
35
83
-38
50
-42
-110
85
88
-38
101
-122
12
46
88
22
93
113
38
37
-1
94
45
-20
86
-109
32
-95
-47
-106
-4
-101
121
25
61
-73
-54
125
81
-6
-63
-106
77
120
54
-82
-33
116
108
-52
-125
-56
-25
54
-6
-120
125
52
-7
-30
-80
23
30
72
59
122
39
-46
-21
-56
102
-35
-80
-2
112
-7
-12
-78
22
2
43
85
-106
-116
-84
-75
18
-124
-65
-59
64
21
-9
-95
100
-55
-62
-51
123
-15
62
-67
-71
70
78
-101
54
-48
-18
68
-27
7
-61
-108
-59
57
-10
-29
91
43
67
-49
95
3
77
60
-74
101
53
-102
-96
-35
106
103
51
125
-61
-12
8
-57
-53
107
52
-51
92
17
121
-106
111
-55
-66
-60
50
-38
-67
116
91
-15
-4
102
-68
106
-2
94
24
-53
-70
-55
54
-111
76
-92
51
48
-21
-102
28
85
27
108
-67
110
35
-106
-77
108
-62
48
-55
-57
30
18
-127
-61
-3
59
-16
-13
55
116
-49
-5
108
48
-48
-103
-14
-73
46
-25
17
-125
-120
-38
115
-22
-17
15
-42
-2
62
-57
4
-78
-87
48
5
62
-103
-26
-109
-60
-72
-71
-50
51
71
-79
49
108
-72
79
-59
-93
121
22
-108
8
14
74
97
-89
98
-8
-106
-115
95
54
126
45
-68
-84
-76
2
22
83
-36
117
67
125
-112
0
-29
22
-99
-108
55
41
112
56
55
-91
-53
-12
-34
98
-67
-19
-55
95
-48
-47
0
78
-124
117
20
82
-4
-67
106
7
-8
-67
-42
-61
3
29
107
27
-18
-62
-110
-87
124
-86
90
13
95
24
15
50
99
-14
14
-45
-22
103
-41
61
-104
-44
100
86
79
-23
-70
-34
94
8
-67
-11
-11
-19
72
-35
-35
-108
125
2
101
87
90
55
-96
88
-115
67
-51
30
-118
-100
23
-125
-38
114
127
-51
-74
-17
22
27
-44
-66
111
3
-127
-54
84
121
-16
72
-72
-14
-46
-9
-19
-54
38
-90
23
-29
83
-8
-31
-112
116
100
110
-79
-13
127
-109
31
89
126
67
74
100
-10
74
32
91
-25
62
49
-98
-7
-77
17
-127
5
-81
-2
90
-41
94
-61
-39
51
6
-36
-104
21
60
-37
-13
61
89
11
26
-21
40
82
100
-24
-31
92
-25
-59
91
-11
69
103
125
-73
-56
-60
-10
-26
-78
-25
45
-104
-50
58
123
25
75
4
-103
-115
-54
49
84
-41
-74
82
-120
-70
-44
-28
75
62
27
-43
105
86
-59
68
17
-65
-90
-119
-51
43
-67
117
-73
-97
9
-38
-21
26
-99
78
56
119
-9
45
27
-108
-114
-35
-19
-76
-86
86
91
34
120
-31
23
24
94
31
-51
-34
-116
78
89
54
-44
-56
55
-8
-69
-52
58
-6
-48
-127
-127
50
60
56
-88
31
-101
-14
59
100
10
34
112
-73
-127
-76
21
-7
100
77
-57
-90
84
-43
101
112
75
51
-60
39
-24
87
-92
-36
7
126
-29
70
-107
-79
-15
101
-93
-113
-124
100
-72
77
-115
-60
108
-5
106
-73
50
9
93
-54
118
9
61
-57
-24
-74
107
-38
23
54
8
-14
65
-100
101
106
105
-79
-69
-23
-85
-12
29
-121
-51
-33
-86
49
22
108
7
78
99
-40
13
-94
119
-89
-66
115
-109
-24
126
-21
70
-70
-128
-66
-121
15
126
13
1
-80
-83
-119
-82
-126
-16
-37
-89
7
75
68
59
39
-101
-128
62
49
-123
-15
-93
29
-83
-7
78
20
40
-88
35
50
51
-105
99
-118
37
19
56
106
-94
126
-114
-31
18
-13
37
127
81
41
-28
92
-88
-102
113
91
-3
-28
-2
-80
70
111
102
-96
68
80
120
-120
109
109
-110
33
42
-30
115
2
66
-92
74
103
-106
100
18
48
16
-73
34
45
-42
115
0
-104
-61
92
119
-29
23
0
-23
-75
109
-33
-26
47
-18
-49
-4
115
-59
-97
-47
103
-46
-5
112
-74
-93
-113
-31
24
-96
112
-4
-44
-123
-73
126
-125
22
111
93
22
14
-79
89
26
88
13
-44
59
-127
44
-29
7
110
-76
-91
-11
74
108
-44
-90
-61
-95
-103
106
118
-56
-91
6
-89
100
125
-75
54
42
21
108
-50
99
-95
98
96
-109
-88
-48
-48
88
90
-11
-18
-108
35
94
-89
-50
-128
100
125
-42
18
-10
52
-88
-15
-103
-50
-109
66
-84
-70
-101
12
-15
73
27
71
73
97
-81
54
-65
117
80
-9
-56
-76
-63
89
-55
-127
43
-19
-38
36
4
96
-54
-65
52
7
99
-125
123
-68
-17
35
13
-23
-5
-119
-128
-30
90
-55
-24
120
109
83
65
-53
-94
108
13
95
59
-33
61
114
81
-17
85
-115
24
-111
-52
90
100
-40
-79
-75
108
-79
-107
5
-50
-48
-92
-51
-44
-22
21
126
-10
37
-59
-112
-96
-51
30
-48
53
72
62
-4
83
76
85
-115
89
79
79
-44
38
63
-76
72
36
116
-52
31
-122
-29
6
27
-51
-108
-102
-89
-111
86
110
34
126
-79
55
123
-99
28
-32
-2
-44
112
47
109
-79
-99
-90
83
99
-101
-89
-107
9
-92
-36
74
48
-95
-42
-52
-106
-30
-12
15
52
17
-121
50
124
105
51
84
-32
35
-103
-87
-109
49
50
-51
-109
47
126
88
-25
-105
95
-78
37
52
-65
41
56
-39
121
64
96
82
119
74
122
-101
24
56
-126
80
-44
-80
86
101
34
95
-67
23
-103
-113
-89
34
86
-4
-73
53
-97
-29
-2
-93
-59
93
10
91
79
-21
31
26
84
82
-60
-33
41
-87
-127
-96
61
-80
-24
59
64
99
-46
-81
-117
-49
-21
-116
-68
37
113
-88
-96
13
56
20
87
60
-14
78
-78
73
-83
-72
-32
-68
-99
73
74
105
28
-125
-69
-4
-17
-91
-60
-44
-53
33
95
21
23
80
-46
-8
-12
101
-42
102
123
-96
-7
-58
69
-60
65
19
49
-54
18
49
97
-41
81
-127
-122
108
-54
-77
94
-36
-49
-37
123
4
34
-57
69
54
22
-112
66
118
-16
112
-107
-23
-109
-45
-59
-118
93
-79
-64
31
76
26
32
108
101
19
-84
-90
86
-96
34
42
90
34
52
111
93
-29
-48
57
97
-16
-92
16
32
39
-30
-15
-14
-112
64
67
-14
-15
68
12
92
-100
-66
101
58
-116
-106
44
64
-80
-57
-8
-12
-121
-84
82
18
-19
123
34
46
53
15
103
-101
119
-22
43
-116
43
122
-73
121
-9
-101
3
-60
-58
94
112
-99
26
8
-71
35
-93
94
39
-53
16
32
5
6
37
-44
84
30
14
-60
-64
97
-13
74
-46
-126
-52
75
102
60
119
2
96
56
7
-1
-101
49
96
111
34
86
1
-99
-93
-16
32
-71
32
68
-4
-39
-24
-69
111
61
-58
64
-62
-41
120
-22
-58
10
98
-37
32
-77
-124
104
-27
102
-86
122
103
-6
-30
51
78
71
51
-43
-22
46
-116
-32
-57
-38
-5
123
-126
70
31
21
-36
-1
-32
76
13
44
93
14
91
-53
38
-2
-22
61
-84
25
-42
5
-10
-103
127
-51
-107
25
36
-87
-39
-5
-76
-96
69
7
-32
105
65
84
117
114
15
108
-23
39
0
-85
51
112
-24
-24
-32
123
-49
88
100
-67
-23
-82
-82
51
-55
-121
-1
-18
-47
6
-5
-50
-19
-69
1
-114
-127
-54
-72
0
-97
73
-22
-102
126
-23
-106
50
39
-39
64
6
114
-25
-116
-1
49
-23
11
55
-85
91
85
-72
76
73
88
-121
-102
112
-17
-31
107
-96
-73
-60
85
100
30
-79
103
-27
-68
-79
22
12
-25
-106
122
-25
-127
-125
-69
78
21
-82
-58
-58
34
101
68
-91
-73
79
-52
119
64
-11
87
-95
-96
-128
-11
68
-128
-60
-65
100
-26
126
13
74
9
-38
-23
38
100
57
-61
-7
9
48
102
-78
56
-44
42
-105
48
53
107
-25
69
40
59
-66
51
74
84
56
-78
65
80
-39
74
69
29
45
105
-32
-85
-85
-77
-15
-25
-33
-103
-9
-19
-55
45
-116
121
-128
52
48
-97
26
125
72
-67
-48
114
102
-83
94
-19
-53
63
-87
77
43
-26
-92
-56
-80
-79
116
3
65
125
-45
-33
3
106
-78
-106
32
-117
34
8
-56
-30
116
79
118
-117
-97
-103
117
55
-29
55
-94
-36
-84
-15
115
-85
-71
-99
56
67
125
-16
-95
36
-58
-109
-127
102
-100
121
-47
-85
108
113
-8
82
102
-9
74
-19
35
80
-50
-11
-117
-42
68
-67
-10
-112
102
-91
-111
5
111
-112
4
82
-38
-104
81
123
108
0
-1
-1
116
105
121
-81
82
73
-79
-65
54
-102
8
30
42
-49
114
3
83
12
-43
-55
115
-106
-77
-4
-77
-119
9
-76
-96
-55
119
33
115
58
-96
104
-107
52
-44
-83
98
49
-19
113
46
-55
118
31
-123
-31
19
-31
-73
31
28
-72
-108
-95
-116
-52
117
-18
26
1
124
44
-91
-54
28
-108
-43
66
-37
36
0
121
86
-109
74
11
-122
-118
17
-8
67
17
-120
-81
6
72
-95
108
-13
87
49
-60
23
-89
79
127
-18
83
-4
-91
40
-39
10
-37
-84
22
54
-16
-34
113
-104
-76
29
86
61
9
-112
-26
18
60
35
-20
3
-107
-52
19
101
44
19
87
-111
-1
-47
-70
-46
66
56
56
-126
-10
19
-4
111
-67
79
-44
-124
-19
-69
-29
-91
-29
12
-106
-38
-102
36
-39
-80
124
-108
-118
-36
119
95
45
34
84
1
-30
117
68
-81
-107
96
-68
-31
117
-92
-125
14
-89
35
10
-74
59
-4
-5
-90
95
-8
20
120
-46
37
54
89
-100
-64
-71
15
-3
88
3
58
-93
49
89
-39
31
-25
-12
17
-102
83
88
42
-60
-78
-31
-37
14
4
-97
-57
25
-77
100
71
110
117
26
106
111
115
90
58
-114
-85
59
65
-68
-109
104
76
36
-1
118
111
26
68
116
73
78
-98
-61
-119
70
-49
40
-79
11
9
31
27
34
14
114
57
-67
-106
11
32
51
-15
6
72
-82
-19
11
-115
35
-6
-37
122
-120
-116
40
-57
65
-63
-86
32
-37
68
111
41
-4
113
115
-66
-102
-70
112
127
108
73
-9
-116
-98
-26
-64
-115
-55
28
63
-10
34
-105
119
-119
-14
-47
19
28
70
-18
-77
-100
-25
-28
-124
82
-116
-34
19
101
79
-29
99
-96
94
-78
61
118
-13
-15
-57
67
-122
-121
88
-43
65
71
-117
43
-76
-50
-110
124
-54
-82
-51
124
-5
-52
-101
-38
-60
6
113
13
84
25
41
80
-119
-62
-100
-21
26
36
114
-75
22
106
57
-41
-115
-83
-75
-46
-116
24
119
-60
79
74
-79
-25
-77
-5
73
90
-22
-29
44
36
114
-41
-27
118
72
54
110
48
89
-125
70
-89
57
83
-61
-91
23
106
-86
-78
-15
33
-3
-110
4
11
20
15
-121
-41
-17
-7
-104
120
-53
106
119
-124
-13
78
-14
-38
-39
35
32
-120
101
-2
82
-20
-115
-49
71
25
38
-27
-97
123
-6
-75
-110
-65
26
-41
-30
-19
118
81
14
-41
-86
24
-55
-73
27
-44
-86
20
67
-28
37
-27
73
-94
-70
-7
-43
-24
108
-106
34
-45
117
97
85
-58
56
125
13
-78
119
-9
59
-107
-58
98
52
65
64
-66
4
95
120
-97
5
-77
-77
-117
-79
-94
84
-93
-75
-15
-105
-123
70
-49
-126
114
-72
22
25
-84
77
-50
-46
34
75
-13
72
79
81
119
51
96
-22
-117
-104
-107
99
27
61
-23
-38
-105
96
-11
-104
-7
-88
18
-95
4
92
-66
-120
-55
-45
65
-120
112
44
-112
-47
53
63
113
32
-79
-46
-32
-110
91
17
-79
-70
78
56
120
-15
77
-109
-90
-19
4
-88
-12
-106
-112
-77
5
20
66
82
70
45
-96
-126
26
-50
-83
-54
52
-25
107
-74
67
124
-99
-121
-43
-6
-47
41
117
-57
-98
101
23
28
43
88
-73
23
-16
36
60
12
-63
-27
-94
29
8
-25
88
10
82
22
-25
74
13
-75
-43
90
-113
83
-55
85
91
-5
-17
-59
-96
-84
-98
-72
3
8
57
23
-98
80
83
52
73
-112
22
-94
24
23
-27
73
37
42
64
-71
-113
-6
-24
-65
-62
-45
68
54
-7
-107
4
32
2
104
4
-10
65
-84
115
60
-8
47
52
87
-58
-93
-124
-93
109
79
-34
-63
-40
4
27
46
92
83
-34
26
62
-3
47
119
117
-85
102
80
-78
-33
75
92
-98
43
123
-45
98
-95
14
-128
109
-118
118
24
113
91
-86
-54
-81
-28
-123
23
117
-53
104
-28
-27
57
39
-51
-9
-45
35
-67
-62
-20
-77
-69
-9
-8
-55
7
-82
68
-46
102
101
-27
-35
-70
69
-17
0
-43
-88
-25
-9
-113
-39
122
15
22
26
110
67
-122
-20
-38
-92
-70
-118
-110
-2
97
-73
-26
-72
84
-71
-116
-4
39
-90
-38
24
-3
-34
56
36
-95
-39
-42
-27
-45
35
-102
-14
-32
-92
93
21
118
37
86
-12
-75
16
-42
-15
-119
119
54
78
56
88
14
-107
55
32
-88
55
66
109
-75
115
-85
24
62
121
-13
115
-35
-48
-105
-49
44
-11
44
66
126
69
-82
-89
-51
28
22
-27
-12
63
42
117
30
119
-103
30
127
127
71
3
66
32
-26
-32
-62
-101
-58
-111
-4
71
-18
-44
69
123
107
79
56
-82
-24
-43
-13
-35
127
-27
-125
46
-49
115
-100
-46
79
-21
-115
47
-31
116
116
63
-85
114
-82
51
34
78
-110
93
103
121
95
76
-41
-82
114
57
-34
120
-67
-94
11
-11
116
52
106
-39
9
-18
14
-75
91
-124
-19
122
43
1
-15
57
-49
-79
75
44
42
62
11
-6
-37
25
-19
55
-75
27
118
42
111
109
64
-44
-99
-91
-109
45
-33
49
52
-79
89
-7
-126
27
99
64
-66
113
-127
-53
-85
64
-107
70
87
41
83
-29
56
-100
-10
68
122
-28
49
-101
-104
100
105
16
42
32
33
99
-2
127
-74
-46
105
79
76
61
-33
9
8
-120
-62
86
-128
65
120
-45
111
-126
-64
17
-82
25
70
-31
95
-25
117
-50
107
-122
-116
-22
48
47
-12
-50
115
-38
-47
-36
-100
-90
-41
-57
34
124
94
86
68
-17
-71
100
-6
103
-60
44
43
127
-67
-61
32
-85
85
-26
57
30
6
-10
-34
-21
-90
65
-71
106
61
-125
34
-35
20
-83
-37
83
14
-28
-2
-51
59
-51
51
-96
-85
8
38
26
-128
-6
57
104
71
-48
118
-73
-119
-64
-57
-102
-100
-110
105
-84
-65
96
-98
118
103
-102
-94
-109
-45
76
-31
17
-26
-92
103
27
54
-81
-104
-43
97
99
33
-120
-96
-30
46
-1
-98
-3
-34
49
-118
-9
-13
32
106
-116
-49
0
-77
50
-100
-100
23
-97
-54
-10
-97
-117
-66
45
-7
-73
-56
-92
19
46
86
97
-23
-53
104
-77
-101
-5
68
24
-62
-60
107
93
4
7
-53
7
-26
2
54
-14
-30
24
19
56
-70
-43
84
84
11
45
-88
-120
37
4
-15
124
26
-12
-8
39
21
74
95
-14
-19
81
-40
27
-6
-44
-107
88
40
-34
0
-66
73
-60
-85
-32
-80
101
-118
59
-5
-79
96
-46
48
104
119
21
12
36
-108
7
-105
-102
42
-96
-4
29
-50
112
-104
100
-21
-122
81
-116
-73
-112
41
96
101
68
18
-39
-99
-2
5
-31
41
-86
78
92
-15
-28
42
105
41
94
-109
-27
-55
-126
91
50
61
89
120
54
94
-84
-97
-90
-94
105
20
-124
-113
71
-64
-26
118
-83
-124
-6
93
-47
-51
71
61
29
104
53
110
-42
-104
-48
95
-1
102
-55
-118
123
57
-67
-89
115
-90
-70
32
-9
-119
0
-58
-24
85
4
-62
21
-88
-69
-50
-92
35
20
-91
-76
120
-57
-73
64
-60
77
34
70
32
47
-34
41
114
-124
55
85
-118
-75
-127
33
106
-124
7
-7
-28
77
68
-68
107
-117
86
99
35
-99
-81
-28
58
-53
14
85
123
-124
-83
85
32
-23
-68
-88
-24
-112
15
33
106
-127
20
-59
-87
-123
7
45
-24
-95
105
44
-64
-35
-82
-78
111
73
54
-16
115
66
126
-67
88
-14
-104
57
-50
22
-40
-80
-2
4
-47
-63
30
-20
127
-65
67
94
-58
87
119
12
27
115
12
-46
-126
95
48
-13
-72
42
-63
-90
-79
80
98
-47
69
-107
-50
20
38
52
108
9
21
57
36
-54
85
44
114
-76
96
-17
-72
107
-38
-23
-39
30
-61
101
3
13
-16
52
-52
72
-68
-102
-127
-71
-5
104
-70
100
47
101
50
-18
-1
-14
-42
92
-28
-18
28
30
38
-40
-106
76
7
51
-57
47
61
47
53
3
-90
-123
-65
-5
56
-93
49
-122
55
9
22
-47
-86
-13
-50
-115
15
56
-32
-14
78
114
-111
4
-20
95
-75
21
-127
-121
-59
-117
108
31
50
-29
-59
46
-7
-10
-109
-18
120
123
63
117
127
-50
73
-108
-85
-16
58
0
-17
-50
-38
-81
116
-58
-94
-123
-93
103
116
48
-128
120
-118
81
57
60
-83
-36
-2
-11
-89
-63
20
-89
-6
-52
37
30
-46
-55
-37
50
57
-19
-83
74
-118
113
-8
31
40
-128
81
-61
111
83
26
-31
-21
-101
83
70
-56
31
-77
-96
-118
-90
-9
-122
-1
23
123
-71
113
-33
7
-86
31
-109
-21
60
-17
-42
78
-54
93
126
-61
108
-73
-14
29
118
-116
-42
-123
66
98
-21
-55
48
-89
48
-9
-22
-22
78
43
-19
75
50
-91
69
48
-4
30
-105
58
24
92
101
120
-86
5
-114
-38
48
-79
20
-24
99
66
34
-77
93
120
78
12
1
-64
27
-11
-104
77
-62
85
-72
106
50
-16
106
15
85
-107
-117
-78
-107
-103
115
95
-97
-123
-43
11
102
12
-26
38
107
64
-62
111
61
5
11
12
59
-59
-45
-38
-95
101
-68
2
-61
120
93
-51
-109
-77
-24
-71
105
-95
10
-52
4
-104
19
40
-52
-20
87
-32
89
98
-44
10
57
-24
21
21
-18
-125
86
93
55
-120
-24
-3
-111
15
-41
-28
-4
-91
-53
44
2
65
44
-89
-10
122
-119
-70
122
-10
59
110
67
38
69
-60
33
48
127
73
57
45
-12
-21
-107
-107
-120
11
-32
-9
-34
-45
106
-18
120
-54
115
80
32
-91
-91
-88
-121
97
-30
-25
45
-114
64
86
-128
-18
82
-49
72
62
-86
45
66
84
-101
1
11
106
68
-121
64
-70
-55
-40
-28
75
-28
96
2
10
-99
-109
-109
28
85
-36
-95
115
9
-42
-83
-97
-43
-65
79
-25
-73
42
28
-103
-106
-13
-52
-98
-125
120
-99
81
62
6
-14
-110
-4
-110
64
21
103
-86
42
0
-25
-85
-21
-74
32
51
-11
-19
-68
-39
-41
7
106
28
100
-97
38
-102
18
98
-68
-125
-96
32
-121
76
-4
34
127
-88
99
-65
115
-76
-54
42
-110
113
125
-114
48
120
6
93
-57
-23
80
-27
60
-91
12
36
100
-67
84
-35
-57
42
-114
-21
-92
-66
-108
-42
53
90
18
-92
51
98
47
-15
-99
110
111
66
-74
66
-41
-105
77
1
83
63
64
-99
86
-16
67
-110
-64
23
-34
-44
4
109
-75
5
-118
-53
12
-20
82
63
-118
35
-37
95
61
15
67
-35
-33
21
-81
92
88
11
-19
-126
-125
-19
88
79
53
-46
-4
-83
124
30
-5
72
36
-8
48
-97
-128
-1
17
92
103
56
-38
-32
124
75
-24
35
-78
-16
98
-69
16
-92
31
58
-78
-96
-60
-67
17
11
45
-62
-124
111
15
58
6
106
-37
-32
57
-90
-27
-56
-85
10
-59
59
88
50
-3
-62
113
29
-35
-127
92
38
-92
-58
-4
54
-24
-30
50
55
56
56
-92
-52
-1
-109
-67
63
-85
-67
-11
-69
15
77
82
-69
6
-64
46
-62
90
-53
60
77
-28
-16
-58
5
-12
80
56
58
-13
-64
-30
-115
70
30
-6
-20
118
-26
-32
-60
-114
0
-90
113
-59
-36
-48
-6
93
-63
88
-5
-53
98
-10
-30
24
-77
-98
94
-121
-6
73
21
120
41
-8
-106
-116
107
-10
-114
10
-3
94
62
-126
63
-34
44
-80
11
-70
25
-94
69
20
52
29
-77
106
-115
62
15
96
-52
93
91
-64
35
54
117
-65
-127
75
-21
-126
9
-124
16
-32
-62
25
80
106
-112
-79
-64
-88
99
-52
-7
-90
-82
94
39
