-107
-114
-50
-108
-86
97
-34
-84
-9
13
-11
127
-123
-62
-10
125
-28
-3
-74
113
-6
117
-1
-118
-121
-37
5
-2
-97
39
-31
35
-19
40
-46
-29
-18
-85
84
-67
-69
73
12
42
-23
-56
-107
5
116
67
-18
-100
-106
126
-2
-31
-35
-12
-41
-78
-103
64
-10
100
7
-21
16
-46
-72
75
1
-95
-122
47
42
-106
11
111
14
-68
100
-128
119
-124
-55
-8
-13
-93
42
93
-19
54
-97
-99
72
-16
85
125
3
-34
-61
-118
21
-78
38
-119
-75
-79
1
15
92
-80
-80
-97
-85
-61
-116
-78
-27
-12
52
1
39
72
-13
-28
59
-123
-2
104
-69
-59
84
79
121
-40
56
-103
-3
36
-8
-8
-18
98
-107
-46
72
88
-105
-128
-41
65
36
70
-107
-81
56
-16
109
-69
-3
119
105
-76
96
101
24
123
125
111
-120
-15
-62
-123
-105
51
-49
-20
125
42
89
65
-27
35
33
-9
115
-100
-86
83
-34
-56
-92
-115
-32
-125
-122
96
38
-20
115
125
-63
50
-3
98
29
-75
126
86
-67
-98
2
47
-11
-41
13
-65
-20
56
-109
52
-69
64
-58
-3
-104
100
-58
31
124
0
113
110
40
88
14
13
110
9
42
-124
53
-10
88
20
72
36
118
-119
77
87
78
16
-109
11
60
71
-96
103
22
-43
76
-27
-39
-118
-15
-25
-106
94
-31
93
13
-77
65
-34
70
8
-93
-57
6
-38
-78
-15
48
34
24
99
83
-42
87
-124
-65
19
78
118
73
30
104
-41
-15
-15
92
-116
31
-13
52
-25
-96
83
46
-124
-50
-82
-108
32
-19
-17
48
2
58
-125
-7
84
-112
63
114
38
90
-83
-69
121
81
101
125
120
-13
32
-34
-24
-60
-59
66
124
25
46
-63
-19
39
8
71
-85
-42
-99
-84
59
2
101
85
-78
-96
14
46
115
71
17
35
-42
5
17
27
-97
35
33
-70
93
110
-119
-3
-119
-57
-82
120
53
105
-36
107
10
52
76
85
2
-4
-70
-91
52
-119
-43
5
118
115
-71
-128
38
2
-127
-46
68
123
37
99
-92
-4
78
-67
-110
118
-115
-123
108
-82
-119
-82
-91
-10
120
36
125
75
-76
-111
-103
-125
-100
-25
124
-66
-33
-112
65
75
-52
10
125
66
81
-79
-52
8
110
-114
-51
-60
-96
99
125
-105
63
66
-107
73
-105
-67
127
28
-79
-89
-120
25
-44
107
23
-35
-109
-114
76
76
-126
-1
-128
-114
85
-78
-122
-85
13
-125
10
46
-64
31
51
-94
83
-55
-15
-126
-11
-65
30
-28
95
-14
116
-89
109
38
69
-40
106
65
111
93
50
-114
-93
28
28
85
-87
-19
107
-86
114
111
-128
-68
99
-85
-70
-102
-56
-48
35
-34
-44
-67
74
54
-87
75
-54
-25
-96
48
93
124
-43
-41
-74
52
-70
24
0
-94
-23
-103
-37
55
66
-36
-105
55
-61
28
-126
50
95
7
-39
90
87
-67
-56
-47
-96
-19
83
121
-76
31
-66
4
-45
65
107
-75
-99
99
52
22
63
-27
-44
11
-125
45
92
-71
85
-80
96
53
17
-86
-104
-123
-4
-61
-65
98
-47
-87
122
-35
-40
-21
-13
-115
-59
110
79
31
-56
113
85
-84
46
-1
64
117
7
99
-108
21
-87
117
-28
28
-22
-4
-90
20
-100
51
51
111
39
63
-31
-39
12
3
-55
45
89
68
-36
-62
52
-14
-88
-37
-60
88
114
10
-89
-23
-28
126
-3
-24
30
57
-119
-94
-105
-68
-77
41
63
120
-92
-75
-30
-61
11
116
0
-54
-50
-29
-48
-61
-119
68
33
45
67
2
112
109
62
-29
101
103
-93
-4
2
76
70
-18
112
67
-75
-111
-49
69
21
123
60
-61
-10
-31
-37
-5
-107
-86
-99
-27
-102
-39
89
62
-74
127
55
88
-24
79
-128
-44
83
-83
83
81
6
-66
46
-68
-19
118
-55
76
114
17
61
-21
86
-101
-21
6
42
-23
44
-110
27
106
103
-76
-17
67
61
-107
115
-86
-115
8
-83
35
-94
24
-67
-52
-109
-59
-92
-114
106
3
68
34
28
-89
101
105
-65
-13
99
-107
-34
1
60
85
-83
-47
82
-89
-20
81
14
97
-107
87
56
-107
46
-43
31
67
-106
60
28
-116
24
116
15
-41
91
107
74
-108
-8
-77
56
-24
-56
41
60
-27
49
-50
-114
-35
-42
126
-18
29
88
45
116
50
-116
97
87
63
-13
-21
85
-61
-67
87
10
-97
114
87
9
-22
21
-72
24
-71
48
106
-81
-75
82
108
114
-100
-128
-102
106
54
-109
94
-63
-7
121
-75
-69
63
-126
-120
-6
115
123
-44
65
-4
98
-3
-72
48
-101
-32
-43
-36
-69
-115
15
1
-43
49
19
-98
-2
-95
-113
37
-115
-60
-82
-27
70
27
-53
-24
114
89
3
97
-95
-94
-93
105
-116
13
16
-17
125
-125
-120
-89
-55
79
66
66
15
49
108
90
-113
-71
110
8
-60
50
22
-103
16
-5
-98
-87
124
-17
66
-30
64
12
15
0
-66
111
-70
-23
-24
57
-127
-57
-103
13
-111
-28
-25
-35
53
-89
-43
119
46
28
-122
114
51
-76
123
-52
53
112
-79
-30
83
40
112
102
-74
38
-40
-59
-117
-35
-97
2
-32
108
-112
-101
-51
-62
41
-120
107
-5
36
125
97
-7
73
-39
21
61
6
-118
121
80
-47
90
-102
-83
8
7
111
106
13
-120
-49
-62
-94
87
114
2
-3
86
115
14
-80
95
-22
127
-76
79
30
123
-70
-58
-62
-55
9
-90
18
-108
122
-7
-66
2
73
88
-13
123
-98
30
13
72
-66
51
75
-51
76
-116
-32
123
-127
-84
123
-3
71
-126
15
47
-9
87
123
80
-39
77
-106
-108
-82
-21
7
-99
-5
-23
-92
56
56
62
-21
118
60
-52
102
-11
15
58
-13
119
-58
-82
-90
-105
121
123
115
37
111
117
-24
108
9
30
4
34
119
94
16
-29
-61
60
67
-10
-58
113
67
-62
-86
-32
6
102
41
-99
-29
-72
72
66
77
-17
100
-78
-115
-8
-87
62
-6
100
72
58
5
-40
-9
-63
41
-59
-104
37
-55
123
-77
68
23
114
-118
-111
3
23
-113
-126
26
-65
-12
53
10
53
96
82
-3
93
-37
-47
42
65
25
103
-27
74
-5
-115
109
81
2
-79
-128
-48
123
15
107
-44
-98
-82
-61
-51
49
94
-118
63
-123
-52
75
70
-78
12
-39
99
-84
102
104
-52
58
-126
49
-40
0
-45
-104
114
-69
-98
-81
81
74
-95
-124
106
-26
-16
68
-15
34
-23
97
-108
-83
-110
114
89
-85
98
65
-126
-111
126
-11
74
-81
-36
-98
36
2
27
87
-32
49
59
85
73
-7
-117
-66
82
-14
68
-90
-29
-10
19
-87
45
-40
49
105
-77
111
72
82
66
-66
-10
11
-11
91
-8
-81
1
1
-84
-60
-100
-37
44
-124
-15
-43
-59
100
-35
-40
25
-85
56
74
97
-53
98
99
124
-60
74
-128
56
-26
-90
88
-22
-55
48
-94
20
58
25
23
27
-107
-56
19
-19
109
-95
35
-38
-15
-116
-42
-122
-117
-17
-21
-21
-126
57
-99
-121
58
109
105
-94
-1
-96
-119
-56
115
79
122
78
63
14
107
-23
-103
80
108
114
9
-112
-37
-17
-64
83
3
72
26
54
-3
4
118
1
-24
116
9
10
120
107
84
92
2
17
-94
110
-63
-43
48
20
-114
-29
-100
19
113
-110
20
-121
-51
49
-25
-89
75
-9
-90
-58
10
-47
4
110
2
-6
-22
-113
101
-52
36
112
122
55
-123
49
-32
43
-50
73
43
127
-99
103
-24
-109
12
68
-89
81
-128
-94
-2
-64
-126
-7
13
27
64
31
96
42
-19
-17
-90
71
-90
-28
126
-101
96
-52
-89
56
115
51
-12
79
40
55
-112
-74
104
-111
24
114
-10
-78
91
96
-107
37
8
39
6
12
104
58
-92
-98
97
50
-3
-122
-121
40
100
-92
31
-8
-99
-118
-94
-120
-91
30
37
79
106
80
-5
-47
3
-3
73
-86
-124
-13
61
-62
-126
-107
-37
-102
107
119
-54
105
22
-31
-95
-74
11
-115
-80
98
127
-110
-86
-65
73
-125
26
74
55
76
-15
-71
-5
104
30
-80
46
58
-111
-91
108
50
103
-102
-107
-8
-7
5
62
-97
-28
37
-91
-43
-80
26
-80
98
70
34
82
-97
117
78
-64
24
-109
84
26
-6
-39
-100
110
40
125
-58
-93
19
-10
-98
126
126
-96
36
-72
-64
82
-71
-96
34
56
-100
107
112
106
-3
71
54
87
-118
-94
25
-43
-71
-85
-17
-39
-89
-28
-97
-107
-104
-128
-47
29
6
27
-123
68
-78
37
-111
50
71
91
-28
27
127
42
-71
31
-38
60
-107
54
23
-89
24
-84
44
-25
-54
109
69
20
-75
-74
102
69
-75
-6
-27
104
-4
29
-110
51
78
-62
-36
34
-128
5
-63
36
38
82
-11
-97
67
-55
111
-102
-71
107
127
1
127
-112
61
-101
-122
73
55
114
45
108
60
-69
-95
84
-91
-64
60
-92
31
-49
-71
88
106
-14
-14
18
117
-108
-16
63
100
41
-59
95
77
2
-18
105
22
-48
0
112
57
38
39
123
54
55
-42
-60
-87
-113
48
61
97
-121
67
-58
-70
100
-91
107
-66
-108
-34
-43
40
29
-87
-66
-62
53
69
66
71
-8
68
7
28
86
-5
-69
81
52
-108
94
-50
5
39
-70
35
125
-36
72
-89
-99
-37
-97
-78
27
-116
53
-33
-55
59
18
-33
88
-67
9
-60
31
83
108
-21
72
-76
-30
-97
75
-39
-53
-104
28
-39
32
-70
-85
-47
44
-73
72
-76
-73
0
-123
89
-34
54
-90
-16
-112
-116
-27
90
-29
48
-11
2
-28
41
69
-73
-55
-4
-10
14
19
-29
110
-21
-68
-102
62
46
-128
80
-96
113
-66
35
-91
7
-20
-90
55
-31
-16
54
71
32
63
-12
63
-118
0
-7
111
-5
71
27
-53
-127
21
11
29
35
10
45
23
25
15
27
-116
-92
-103
-45
90
-15
72
97
-3
16
-26
7
-63
118
52
47
15
-119
87
36
-92
30
59
-75
6
-17
-110
-79
124
-30
110
-71
-119
-31
-31
17
48
21
15
-64
45
-25
-113
-13
-38
11
86
21
-26
67
80
-18
-87
-76
-17
127
43
-27
122
-74
2
-108
51
102
35
69
-57
-111
-50
-56
-13
-128
-52
-98
-61
-66
-70
125
-125
-28
-33
119
-90
-40
-48
-122
-55
-108
-35
-119
-96
0
-118
-53
31
-29
-18
-128
-121
-50
-111
-42
-10
2
101
-58
48
88
-118
56
-115
-95
-50
119
26
31
-21
85
-18
-105
25
-99
-20
-66
30
-75
-112
-31
75
83
-117
-23
-16
98
-16
-26
74
-92
-29
-53
-80
37
-89
-118
83
-108
-85
73
-25
-84
18
78
107
-73
43
23
-118
67
7
97
57
2
121
-5
-56
-71
-3
-81
-18
19
97
89
76
60
42
5
116
-62
60
-106
44
81
9
101
-49
-57
121
69
-65
81
-23
-20
-15
102
-58
-17
38
62
26
14
-37
-107
30
-3
95
2
-63
125
-127
20
66
-15
28
-59
76
-109
45
26
96
-75
-98
39
23
76
-117
-53
70
-99
-71
48
113
110
27
5
47
113
117
-3
-59
-4
108
1
75
-57
93
-1
-39
88
-56
52
-72
119
6
-112
75
61
-120
6
16
88
122
94
-105
-22
46
34
-117
-55
92
-12
-99
-98
90
105
124
-57
-42
118
84
-124
-124
99
24
121
116
30
-36
93
-103
-69
14
-100
-19
-100
-38
49
-67
59
-103
-10
50
-114
25
-47
-8
-38
-66
-32
-22
116
102
-48
-30
-62
39
-101
34
-108
-40
117
-98
68
5
-70
-34
-93
32
26
-7
-111
88
-55
-67
98
30
115
108
35
-18
-105
-42
-78
-78
-25
-75
-121
-70
-60
-7
58
-104
-69
90
71
-47
-9
-14
-14
12
-12
-106
-104
113
118
118
-81
123
-55
36
74
16
-117
-41
87
-21
-48
44
-70
65
11
-99
81
127
-79
-94
13
23
41
97
10
-23
-26
-103
113
21
71
-111
-33
-105
-47
-25
85
90
73
-123
-56
-24
-23
101
-112
-108
-76
-84
4
-21
21
40
-5
-24
-103
29
21
114
98
38
-97
-103
-97
20
-26
86
-65
1
42
46
0
-109
-84
64
23
78
123
-27
87
57
118
-97
95
-93
-12
57
102
8
-34
74
4
-38
-74
127
-48
16
127
16
-128
115
-13
14
-4
-95
-126
56
-51
60
122
8
117
120
59
-101
117
-10
-104
12
-8
-30
29
15
127
41
-62
102
-106
-34
113
47
32
-86
-1
-27
46
-19
-13
-32
4
-82
71
108
-72
85
117
-3
-83
90
-26
45
-21
118
32
97
58
61
52
37
-29
-79
42
-117
-37
16
-12
-4
-38
45
-112
80
100
-75
-100
13
107
-16
49
110
-87
16
98
23
105
-33
73
-32
-17
83
54
25
88
-90
-122
-72
12
118
-20
-23
99
119
-80
-26
-118
112
49
31
73
-60
-30
-52
-123
84
-114
-73
-118
-127
-111
-79
3
-111
-91
70
-7
-56
17
-41
125
53
-7
-100
-27
-27
89
51
-51
89
118
-57
11
94
24
120
-35
-44
70
45
-26
106
110
-35
-75
22
-78
-122
54
95
-117
-125
68
-93
68
74
-65
89
-107
54
-117
106
12
-21
-33
-103
121
-117
122
-53
21
-118
-64
-46
33
70
-97
74
-128
5
105
57
-126
101
117
31
-94
-11
119
-94
-111
-115
-82
-43
-117
26
-21
84
49
-28
-22
-58
-77
98
32
-119
-59
66
5
-12
-87
99
115
-34
-92
111
-41
-3
-100
66
-32
114
-66
-24
-31
-77
-128
-84
-30
36
-24
95
38
-57
-106
-116
-65
-16
7
-64
53
45
127
-84
18
-60
102
55
-26
-127
116
67
-114
-70
123
-43
-71
-19
-6
-59
15
0
-79
-54
0
117
-78
-103
-22
-94
101
50
114
-112
-126
-3
66
-5
-69
-6
120
-47
63
-38
-54
7
-66
-13
-13
31
-21
-28
88
-102
-117
-13
-58
-83
-114
-24
122
-46
-27
-78
80
-13
82
-20
24
117
-5
13
1
-5
-128
-16
21
38
82
-45
79
-82
45
90
30
26
-14
-18
-27
58
-42
62
-89
-59
-6
-127
-73
-48
-88
13
103
-86
87
-96
107
-44
108
59
15
44
-23
-126
-15
-124
-40
76
-67
-54
2
96
61
-50
109
108
102
122
112
-83
-118
-18
-55
24
-116
12
-33
32
-94
-69
46
83
60
-40
-10
57
51
-104
11
9
-42
119
41
127
40
120
-43
-122
4
-89
11
22
-30
-88
-76
74
86
-52
54
56
25
-60
122
3
-97
116
-18
110
85
-60
-12
72
-107
-116
-82
98
52
4
-3
22
30
-107
-79
102
-75
14
-70
-128
-24
-74
-88
-24
25
107
7
-91
28
-52
-128
13
71
96
-122
-54
-10
-52
127
-86
-52
99
-25
5
101
-103
107
-114
24
-17
-6
53
-16
34
-76
81
-81
-71
-94
80
-77
74
32
-12
-106
8
86
-76
-63
-77
111
125
75
-38
-2
-114
-2
47
-77
63
37
24
49
-112
76
-92
-7
115
87
120
-83
56
-123
-75
123
37
-73
25
93
38
-80
2
32
-17
109
114
-45
24
99
-58
-59
-44
117
-62
57
-61
-82
-30
-126
-55
-17
25
39
-57
-63
-120
-112
-30
-26
-72
-13
-77
0
99
5
35
76
60
81
57
-95
59
63
-40
20
124
127
95
46
84
-29
118
-41
22
119
-19
93
85
-18
63
-96
-42
-117
-58
113
-109
13
-118
109
12
27
92
114
20
33
35
-46
-24
72
-101
-18
-119
15
-17
62
-78
-35
65
43
106
41
120
87
27
36
-63
8
45
27
88
88
68
-105
-90
63
101
112
-81
11
23
57
56
-88
-112
-7
123
-59
-113
-98
-109
74
2
-85
2
20
114
32
-91
124
-119
119
-102
69
112
12
87
-118
-21
-110
-103
97
74
-71
12
7
94
-49
-16
7
-63
-41
-54
-94
36
-34
-28
110
59
-115
64
-81
-38
69
118
-38
-92
63
-121
-73
121
-62
-69
-16
-118
-124
33
108
125
34
-32
88
70
-100
118
-128
-96
58
-9
51
83
57
70
-5
99
125
-81
-10
-40
-119
-110
-50
74
-33
-105
20
53
12
43
66
-102
58
-9
-63
-81
46
-29
68
12
87
-58
44
42
42
85
-33
91
-38
22
-116
112
-74
-113
111
31
84
-44
52
51
-49
-92
65
-99
-51
120
-93
-38
-126
28
-23
111
-37
-68
-110
-69
-88
94
79
68
-83
18
113
19
-26
-68
-104
98
-19
0
117
16
-116
108
38
-84
-106
-57
-119
66
82
-95
-15
-55
47
105
-49
-4
-64
-42
-106
-31
-96
-104
-60
-41
9
117
43
-98
56
58
99
-49
-25
91
125
-16
53
-10
116
-26
-27
11
23
34
-88
-11
-23
25
118
-90
-28
-89
-118
69
-79
-125
65
-37
-88
-110
-30
111
-64
114
15
124
0
40
-105
-116
78
-68
-48
-35
-120
83
-5
-41
-118
-126
-90
33
-124
-38
46
-60
-111
-42
-50
-72
56
7
-120
-122
68
89
55
113
106
-99
-49
-80
49
-112
-95
126
107
-52
9
45
114
1
-81
26
68
-68
-120
106
49
84
79
-127
-83
28
-84
-54
82
118
-45
-113
-105
19
-7
120
65
65
-107
-16
26
-61
126
71
-91
58
-28
-98
20
55
-80
-98
105
-70
125
-99
-91
67
98
-107
95
-73
-82
-52
37
-49
-111
-118
66
62
-104
79
-127
87
78
48
-12
-62
87
12
-76
51
68
8
-118
42
-79
-65
-119
22
-87
20
73
-34
-16
126
72
110
-87
-58
27
-60
-84
69
-41
94
44
-79
3
-44
-28
69
64
-41
-124
100
1
-103
28
-95
-93
18
-6
60
70
-90
-3
-121
-27
-20
112
-101
-72
71
98
121
-98
66
-42
66
40
-5
117
116
11
-49
66
-99
117
55
50
-40
13
107
40
-71
2
-114
36
-25
-12
71
9
98
31
-128
-117
26
26
88
-122
65
84
-84
-85
-84
102
-3
77
-80
104
-93
-20
-84
9
120
94
119
39
71
-9
-100
-110
-107
15
-82
-107
96
113
20
25
-55
-103
5
-77
106
-54
42
-67
35
34
-34
6
-1
59
-107
-48
-44
118
-119
3
41
121
72
30
124
-109
-2
-125
-118
45
-46
13
76
52
114
1
71
-125
57
-85
-74
-128
-77
126
28
100
4
-62
-113
-116
11
65
122
84
-17
-76
-18
-40
-52
102
33
76
56
88
-85
-24
118
-13
52
121
-76
-35
-60
114
15
-27
-6
52
126
-32
-117
26
-3
-96
56
-126
-59
-86
98
57
54
-97
79
-74
-47
-66
80
39
120
6
-14
125
-34
-72
64
77
52
-11
71
-106
-126
-119
-116
-51
66
102
-11
46
-121
-8
-56
-71
-2
110
54
35
109
102
59
-16
24
71
5
1
-72
-105
48
0
111
67
109
-27
-3
-81
-44
-9
-95
119
54
-8
-62
65
-11
-77
-34
-24
-56
21
-74
-126
-123
18
56
68
-8
-50
97
106
93
-128
127
-109
44
-102
51
45
-75
-111
106
-110
-74
115
75
-52
-37
34
-119
-19
-43
66
77
-17
26
-47
56
-34
101
17
-101
73
-6
-128
-11
7
-96
-24
-101
-30
-20
60
-53
-37
-53
11
9
-111
27
-44
-120
18
-57
124
96
-62
-86
13
-82
-48
-2
-59
-103
-7
1
15
-58
118
-46
100
88
90
-54
-125
82
34
48
-12
44
28
21
-98
58
-116
-95
120
3
77
-38
78
93
63
93
-34
-19
-86
92
-39
-24
-92
28
77
-103
53
65
-10
94
38
-125
120
67
61
100
-107
-27
-98
-69
-47
70
82
63
-65
91
-64
65
98
117
-15
-40
-128
10
87
123
19
122
92
-102
88
47
7
40
-114
-85
113
113
-8
101
-29
27
-91
6
49
64
-102
14
82
-43
-13
-51
37
93
-8
-105
15
42
51
-104
-29
62
55
68
-114
15
-114
-12
-88
-89
106
-5
51
-54
118
82
-97
3
46
-80
96
-56
-18
13
62
-95
77
-108
-88
43
-56
63
-3
60
-33
-66
90
-83
43
80
13
30
-77
-36
89
-7
40
45
-46
-72
-25
114
-107
77
106
-98
113
-2
-10
-18
-59
-61
-87
-25
-12
31
-126
-69
-18
93
7
87
-29
4
-126
-13
-83
116
-46
-74
116
40
-90
-40
53
-18
-92
-46
-12
65
100
-35
23
62
-45
3
106
-111
115
62
-46
-61
114
-60
91
21
18
-12
-62
63
104
22
-18
45
25
-108
-86
111
16
-61
12
-39
-83
108
91
54
122
54
-107
-80
23
-45
-127
100
110
-128
-61
12
-106
-83
-116
4
-39
115
22
127
-53
14
95
83
-34
-43
-76
-59
46
92
-79
92
90
90
105
-43
52
118
119
-106
6
-84
47
93
-109
26
-82
56
-63
123
48
17
102
-66
-65
-32
-118
24
-86
-20
-30
-103
46
-56
66
122
53
-99
29
64
116
42
48
95
49
-90
41
71
55
-108
-51
34
5
-125
69
-89
-124
99
38
-74
84
122
-10
119
97
-18
-120
113
-8
84
-4
27
-7
-18
26
-40
122
9
-120
-3
-2
-82
-11
6
-86
-41
-127
84
-128
-11
-59
-47
101
3
-111
109
10
-28
12
-59
123
-61
-116
-1
-126
65
-124
19
-26
-66
46
95
-123
-67
5
64
-89
21
-16
31
-58
47
-94
-90
-26
53
-122
17
-2
111
78
-112
-8
-31
23
-14
-58
-120
3
-40
-115
49
-66
-47
34
3
-23
-67
37
80
31
-28
-82
-90
25
-120
-61
-38
-4
-16
78
-80
-85
27
-2
101
50
-71
124
-64
-24
21
-62
-22
-24
5
-40
40
75
-44
-3
97
102
-12
5
-14
110
-122
-35
-119
-79
61
-11
-68
-29
-96
100
-87
-83
52
-27
70
33
-67
51
96
-18
63
52
-31
-99
-5
67
-17
20
39
-52
82
-67
78
16
69
-100
-111
7
76
74
93
71
-5
36
65
57
122
23
42
-61
50
61
-63
-59
59
-48
13
-56
62
-99
12
88
-78
-115
35
-27
-105
38
57
-60
-58
-67
-84
34
-75
-90
29
54
-22
-124
-100
-100
70
112
32
48
-87
-3
102
77
-105
-16
-5
104
40
-64
-79
96
-73
-124
-77
-51
-82
-65
-1
31
22
121
94
-9
10
-80
110
85
47
-23
20
-46
51
20
18
-31
93
-126
-104
74
-5
-58
121
-71
28
114
-114
20
-37
-118
-26
-104
-95
72
-91
69
68
-31
-127
-61
9
101
46
-111
49
35
44
-64
103
-60
29
95
-52
-80
59
66
-2
-100
-28
6
32
84
-24
106
99
-94
45
0
-95
-48
-68
-27
-17
-50
114
113
118
-103
-59
127
-126
-99
6
44
113
-8
-12
-111
-110
49
-88
4
-105
53
-22
86
51
-44
-16
112
-115
34
-111
118
-75
50
-105
57
100
105
-103
-68
-31
50
85
23
126
112
-66
34
107
98
-36
89
119
63
-123
-122
-5
78
108
-18
-61
-50
78
-113
-43
-112
82
-5
-16
10
81
-1
16
-104
-35
111
67
-15
-107
112
-5
-86
-12
78
-7
91
20
-59
-71
-74
31
98
-65
-48
-105
38
-86
61
-125
-22
40
17
7
39
-48
101
62
-95
-11
-61
-9
-48
125
31
-9
82
-123
-65
-80
-92
-36
79
70
-48
116
-27
-10
-80
-102
-89
-1
-47
104
97
-100
-112
10
-125
13
5
-6
6
96
-15
-127
97
-125
125
44
-6
79
-61
28
68
-33
12
-36
103
-54
79
-70
4
18
-37
89
103
38
50
-114
-25
-81
31
-93
-2
-107
52
120
13
-58
-104
5
-39
-67
126
85
113
-117
-37
80
25
-96
72
92
125
90
18
-56
-113
61
96
23
-116
50
-13
-126
-98
-4
67
-82
67
-41
-44
93
-58
53
-65
33
-20
-78
52
116
-52
26
-65
72
-31
-82
-44
109
-121
82
93
38
-32
-92
27
65
75
58
1
-7
-115
-52
-126
-97
110
-32
94
-22
-28
-70
12
79
-120
-63
88
106
34
104
-19
-44
65
-60
73
96
26
1
-85
-70
19
-45
9
-84
70
-11
3
46
-105
-95
70
67
9
33
75
-83
55
114
-67
12
30
-52
-87
80
-109
96
-71
89
-120
-113
89
-32
3
125
-14
6
-111
56
-38
102
-45
94
45
125
-125
60
15
14
115
68
30
-23
25
-128
-20
95
-7
-113
-125
-12
72
42
-128
-118
-32
-47
-128
115
-83
-11
125
40
9
55
-76
103
-42
7
-92
122
-45
92
66
5
41
34
-114
-67
-79
-9
-11
-49
-6
21
111
96
-116
59
-16
99
-100
99
60
-22
27
2
-77
-63
56
90
116
38
107
24
45
110
73
-69
15
19
-60
109
-95
49
-115
-41
5
66
-16
-88
71
-37
-23
109
31
-102
-82
58
-56
41
-78
7
112
52
-110
-50
-126
-116
-6
-96
-86
44
63
-4
96
77
-50
15
-29
53
-54
-9
-82
59
-79
-53
-39
79
-44
57
118
-33
-29
16
77
48
123
72
-126
-41
-9
-112
84
114
106
-108
-50
72
-59
75
-10
44
95
39
-32
-77
110
74
60
-88
-7
-40
-2
-108
-74
-20
-84
94
-40
-55
74
52
83
76
-124
23
44
-119
-110
101
-34
-106
-35
-20
-116
44
38
44
112
-51
20
-7
-28
-92
-58
-27
29
-63
103
101
-59
-61
28
-10
-2
-18
-80
-122
-65
103
123
96
42
-98
-100
-58
-35
116
-37
55
-87
-29
15
-123
51
-104
-4
60
106
-80
-118
83
35
-92
-22
-21
-7
13
17
19
31
17
-25
-50
25
57
-64
-58
-29
-123
52
49
-26
-38
61
-19
48
-98
51
116
87
112
-14
51
17
-20
-59
25
-7
-104
-101
-99
127
-5
122
-97
126
35
-53
86
3
83
62
33
-81
27
-3
-68
-83
33
-25
70
-84
59
-3
-29
-56
68
122
-79
-120
13
-19
-67
92
-86
62
18
91
-68
24
-98
-69
82
-18
-96
36
-123
-79
61
70
-29
55
-78
33
-39
-46
-85
75
84
-56
-60
44
94
-86
-112
56
26
21
-82
-57
-24
79
-78
-89
-91
-25
-84
100
-120
13
-19
-33
55
90
69
62
-24
37
97
-102
12
71
59
-28
-62
-77
-24
-33
67
-102
-83
-77
-6
32
75
-70
-33
-59
23
-14
-91
92
-33
-73
67
79
2
108
-78
101
76
-27
-23
66
-22
-72
-74
49
30
29
-32
54
-65
32
73
121
59
-128
116
3
85
77
-14
-38
-109
-113
28
-75
39
-114
-52
121
-57
-17
-100
-36
56
0
-87
-93
122
-34
46
48
107
-84
62
-23
-15
127
113
25
15
-19
-79
84
84
82
-41
-5
33
-123
-21
80
39
-126
31
15
80
-109
-91
-77
-56
-127
-55
59
-99
-47
46
62
109
71
-25
-29
50
-95
106
-21
-73
82
70
-6
-13
-36
-97
54
-27
-104
-83
8
-8
-19
31
-38
-124
-19
-2
-22
-62
8
110
122
116
73
-105
88
95
-54
-10
-6
-41
-75
116
-11
-83
74
-58
38
-73
49
-84
34
45
-56
8
-65
44
20
-79
-2
42
-97
-30
33
-120
89
53
-74
12
-104
-1
56
-43
-122
-58
-15
0
79
-4
24
-26
-118
15
54
-43
-92
10
81
72
107
69
-48
100
21
116
10
94
49
-22
12
103
-26
-45
4
88
-91
-3
61
47
-56
126
10
42
35
11
-74
-108
113
-119
-120
16
-77
85
1
-18
110
-4
127
-116
-36
3
-89
37
78
-35
67
14
-53
27
-52
-89
21
21
79
-114
11
78
126
50
65
10
26
117
38
84
-72
11
71
-55
-14
-105
-104
-121
23
-71
-47
-75
-75
82
-62
12
9
-106
-101
-90
-22
65
10
37
-7
38
-66
0
5
32
75
-98
-34
14
-120
-105
-50
-7
65
-37
-29
-30
98
-57
113
5
102
-37
-114
53
-72
113
63
-105
-9
96
57
95
25
117
-38
33
-5
82
68
-25
-63
46
-29
-98
-109
-70
5
12
-30
73
82
110
-66
78
-76
-35
99
39
43
112
70
-38
103
-41
-52
-82
-30
93
96
10
91
-85
69
55
-42
-37
127
-20
-122
60
74
15
-32
-84
-65
-62
67
61
-78
-39
-124
65
51
-59
-74
62
85
73
-77
85
34
98
-26
-99
59
-97
111
48
3
30
-63
123
-10
-112
14
49
44
120
59
51
4
-84
105
-37
9
-95
-8
-101
-50
-44
10
31
-50
-12
-28
42
-74
102
52
-114
90
-48
114
38
-37
60
91
48
-125
123
58
-63
-32
-3
-122
92
-16
-3
-128
75
9
-126
37
100
37
103
46
-58
23
-76
44
-101
86
36
40
-82
20
57
-66
-27
104
-66
104
-2
-99
-22
-58
21
14
-114
-112
-121
110
-81
101
35
14
-74
-113
-58
-43
-55
-2
102
-38
-8
-53
-6
-75
91
-118
16
-17
48
27
-25
52
12
-88
-100
-34
38
60
15
-75
-33
-63
-74
116
77
-5
-65
-4
74
-24
-60
-18
104
44
-2
96
46
-123
-67
-85
117
-81
-35
77
-73
-71
20
71
-93
-102
24
64
8
0
108
13
-27
99
-23
-58
-65
118
7
122
5
-33
106
-16
-37
54
31
10
-66
-119
111
52
-9
74
107
-120
66
-79
-89
-81
48
62
-17
-128
-98
-87
39
49
116
40
24
-94
26
38
58
127
13
-64
46
-107
-14
58
23
120
-114
52
-89
-63
-20
52
-128
121
-90
119
-74
33
57
-57
114
-85
-12
115
60
-10
-100
-112
-1
-29
-69
-82
-26
-127
-64
25
-35
-13
-128
-3
-87
96
99
-97
61
121
-33
-11
-62
115
73
19
-128
-103
38
-11
-52
98
76
-126
38
-85
-18
115
49
5
-63
21
-68
51
118
-102
19
-83
-98
30
-110
8
-100
-111
-93
77
-70
-10
-77
-74
-71
-11
-71
50
94
-55
97
121
34
-90
-31
124
89
107
-13
19
-56
-82
120
73
55
41
-12
-13
-47
-86
47
20
-106
-48
123
-2
7
-118
-85
-8
82
-92
-36
117
38
33
75
-91
-8
54
109
-14
-108
97
-37
-8
-5
-9
-90
-24
17
58
99
-32
-97
-85
-110
53
69
72
42
-8
25
92
-28
-98
-115
51
110
29
-104
-17
10
1
66
-115
-19
-81
112
62
108
121
31
95
92
38
-98
-10
-26
-7
89
-44
-119
49
18
-46
74
-3
-62
-87
49
-97
-71
-21
-58
61
-123
-69
59
119
22
64
41
-104
-11
40
115
27
48
103
63
-58
-122
-2
-89
-13
-65
-105
121
-75
45
-78
-4
-121
-24
-45
98
-113
120
45
56
-104
67
69
-70
-67
-117
-101
84
67
-99
-13
85
85
-62
-122
-32
-122
15
54
-40
48
-35
-82
74
88
-52
-113
97
41
-45
-106
94
-73
70
-47
-101
86
-36
122
-29
-75
-89
-103
-23
-45
-50
113
-34
-4
-105
-107
124
-125
80
120
121
-63
-51
-34
44
-121
-78
-59
38
102
-18
-27
122
4
-48
41
-126
-53
96
-3
-14
50
113
43
-35
116
73
-15
-118
-125
63
-26
-97
-58
90
-122
49
-62
95
-52
-26
-110
-68
-39
-18
-77
-92
-1
80
-123
113
-19
-35
-4
15
-84
-105
-80
124
110
14
-120
27
105
73
101
-104
35
-29
-124
-114
-3
-50
15
-11
87
1
60
0
-92
-73
-82
127
12
116
100
105
103
61
64
107
87
-101
-82
9
13
102
111
-78
-33
-80
-111
44
29
1
120
88
-84
117
66
-38
17
-117
100
71
54
-4
65
75
-18
-1
-100
6
-93
-44
78
-102
30
75
83
-88
106
-113
93
-24
16
-99
-1
-90
-98
34
9
-101
-101
8
125
-23
39
-95
46
100
-121
-75
-7
10
-108
80
47
-42
83
-67
-121
-70
-13
-21
-8
-89
100
-127
-113
87
84
5
85
1
-24
29
123
123
-30
-18
-116
90
-40
-49
-37
111
-67
-93
-28
114
19
105
-100
31
-27
-90
124
50
-8
58
-108
37
-34
-61
-34
28
-92
64
126
-41
-55
-67
127
-61
53
62
-116
110
-20
13
47
68
18
63
-95
-127
-58
-73
118
-107
89
-62
-123
-57
-19
-53
53
-19
43
67
80
-86
-52
61
-33
-39
127
107
76
-62
24
-40
-107
-120
20
67
45
75
39
84
-34
122
16
37
-20
59
49
-75
6
119
30
-62
3
63
-40
-36
0
-52
-66
-4
-21
66
-32
93
-121
103
-51
-27
60
-22
118
52
-22
1
3
43
-58
104
100
69
-81
-74
93
-82
-95
-32
83
117
50
-80
-82
13
-18
-123
-11
72
-63
-59
49
-57
-57
28
68
121
-91
120
-42
-117
-14
-124
94
-17
-9
-31
-125
-26
3
-41
-105
85
47
3
115
-38
-67
-71
-44
125
100
23
51
-64
100
-53
68
24
111
-53
-99
117
-128
-42
-14
31
55
25
-128
85
-65
15
-20
35
-75
25
-61
108
-63
-101
106
-70
39
-93
-121
8
-17
19
-70
-64
-71
95
14
-124
-62
-22
86
-4
64
-41
126
-18
-6
40
-71
-46
-50
50
9
58
10
-5
-2
-108
-95
31
-42
-50
75
100
-4
-31
47
-106
-63
107
47
-77
-124
-70
50
-41
-125
-8
28
113
-128
24
-29
54
-64
12
45
-46
-110
-97
-110
-92
-16
75
-78
-99
-103
19
-64
22
-32
89
51
116
115
5
-12
-102
-84
43
-123
124
118
105
-80
39
-107
-87
-88
24
-122
-70
38
-63
-43
45
6
45
-83
67
-91
-87
53
-111
-48
-118
62
-52
62
34
-73
103
104
20
110
32
58
71
82
-70
-24
36
-31
-76
-122
21
36
97
-108
-38
6
-22
-90
-44
54
-40
-12
-105
-24
-60
13
-66
-11
31
-122
-9
-85
-118
87
86
-66
38
-49
-45
-115
-41
-42
-20
-43
-45
-9
47
99
-124
35
-62
-114
-35
12
-42
-48
1
82
89
-6
80
46
51
-30
-3
-63
-11
-14
-34
-59
-23
50
127
-33
85
-56
-61
69
9
-50
5
-71
35
-14
4
-117
77
112
-60
-41
-7
71
-101
82
-92
98
126
-100
30
55
84
26
-48
-95
-96
30
-115
-71
123
-30
96
-34
47
-67
95
21
61
108
5
73
-21
-54
107
90
-7
1
87
-52
-40
71
32
-68
43
-80
73
-66
127
102
15
-67
121
-120
-98
-103
11
17
71
-11
-121
114
103
-91
42
22
-122
66
-126
-125
97
-20
-22
-13
81
63
82
6
-85
-32
-82
-107
-127
-18
-104
66
79
-57
120
-85
-82
1
123
94
74
89
-1
-86
-123
-87
-120
-114
-45
-126
31
10
-35
22
-84
-42
-45
29
-88
65
-7
63
-81
92
-47
3
11
75
-12
-3
-37
-50
-34
31
24
-20
38
-83
82
9
-99
70
39
47
-117
-78
91
-108
-3
-24
65
45
68
-4
-35
-54
51
60
-97
82
-3
120
-62
108
15
-72
-57
-102
32
120
58
-68
-113
-88
126
-20
91
0
-4
-24
-105
-66
34
124
66
58
-65
82
81
-114
-96
-85
9
101
-35
109
-57
32
-112
127
-26
68
-110
-67
-14
-51
6
106
81
-63
4
-116
56
-44
84
4
41
44
-38
127
81
55
-29
40
123
-75
40
20
-100
66
-71
115
-41
4
-38
102
118
-79
65
60
-113
-76
-56
44
-105
64
-54
-118
-93
38
18
-63
-29
-17
-106
120
4
58
20
-106
99
-8
61
21
19
-106
-122
-91
-81
30
51
-36
-76
109
92
-38
109
34
104
6
-55
-73
-4
-61
75
74
-39
-128
-110
113
30
9
99
117
44
13
-115
-33
125
-92
35
2
19
-125
-57
46
101
60
-110
-92
73
52
-25
38
114
-47
-111
104
-31
29
43
-22
45
-104
-45
107
-37
-4
-111
-67
23
-118
34
114
-13
91
101
49
-23
42
-121
-122
-2
60
-63
99
-3
25
4
52
-51
113
-61
-76
10
16
48
-75
-70
69
-24
-11
47
117
12
-75
-34
-122
-33
48
41
110
-86
-77
99
54
87
-60
-25
11
46
-27
-33
105
1
32
111
88
-84
-48
-27
-112
-106
-94
114
127
-66
-82
75
1
-88
-110
108
-72
-41
122
-10
-2
92
-32
30
-8
74
-118
78
-104
7
5
-41
61
-28
8
-41
126
64
-120
79
-42
-10
29
-39
-106
-30
92
-35
45
-9
29
95
-24
-34
-55
-51
-11
55
-6
-124
-29
56
-10
-90
-127
-79
104
-69
-70
-92
3
-72
-95
49
55
7
106
27
12
32
47
64
76
-99
71
-25
35
-109
101
-96
-125
-127
-78
-82
23
-120
-91
-118
-121
69
-66
-52
72
-103
-81
-6
104
98
-37
55
55
73
-117
4
-96
-100
77
85
-40
106
1
89
-60
126
118
31
99
88
-100
127
-80
92
-3
97
13
38
-62
7
-124
-84
48
-80
-62
-52
91
-108
-52
-75
18
112
20
73
111
112
64
-45
9
-75
79
-20
10
-77
-33
97
-86
106
71
2
-75
-82
21
67
127
99
67
-61
-93
-96
-41
60
-89
17
35
-104
-11
6
34
-100
-44
91
71
19
-57
-41
116
-98
92
-46
11
-120
-87
82
-63
-63
55
40
97
-128
36
59
13
-39
-30
16
104
-71
6
-119
-33
-83
-74
-55
61
50
9
-68
100
-108
-48
-11
81
-78
-5
-2
-49
-126
-69
71
-30
-18
27
110
-1
2
29
-103
-89
-119
-34
31
-50
-111
-104
13
11
-115
56
-78
120
98
27
15
105
5
-69
-7
-91
-34
121
43
24
-10
-58
45
64
34
13
49
13
-38
114
-19
122
19
-39
-21
-50
-8
82
30
-59
105
94
-108
-18
-127
59
-75
-73
-1
-43
-72
-95
-119
117
8
-63
-117
94
-22
-32
-33
-34
104
-72
-73
-18
-56
112
-93
-32
-7
9
-80
61
-110
-45
-55
6
68
23
87
115
2
-84
-78
15
-94
126
100
-49
-108
-103
-66
57
88
-121
8
21
31
62
-10
-7
39
-60
-67
13
-115
-108
-7
92
18
68
27
-73
64
126
-47
-104
-18
93
47
-101
55
-66
101
-126
2
-19
121
85
-80
-93
-89
107
-89
2
-128
77
-37
70
-37
-81
76
-118
69
-66
-9
-3
-35
12
30
-42
102
-27
40
46
42
-74
-46
107
-54
-121
-112
-9
90
-87
-15
-125
22
27
-68
-99
109
-51
-16
-93
-48
98
-21
-127
-67
57
9
-39
-9
86
-109
33
48
-40
-98
15
-108
-59
-24
-26
-28
78
117
44
-117
29
94
-3
-123
65
-26
21
60
-11
81
-97
59
54
-57
-71
-34
-12
-22
11
37
88
11
-13
71
39
-8
15
-60
63
-60
-65
-95
-44
-103
-2
10
-12
30
4
35
91
-69
1
2
108
34
-2
94
-6
10
58
9
-111
-47
99
-12
-22
92
-55
83
-96
-109
-74
-93
35
28
-72
64
-120
99
-87
-122
43
-128
57
-121
9
6
-81
60
110
-2
-22
-116
-44
-102
-14
-98
28
7
-94
-115
107
9
-44
100
8
-1
115
-61
79
36
-101
-20
109
-50
23
-57
55
16
109
-87
-4
-69
74
-111
91
-22
-93
-127
-15
-97
-94
21
10
-13
-53
-44
-94
68
-20
-113
-84
-5
24
-3
19
-48
-16
-50
17
29
92
-76
-106
-12
52
52
111
11
-94
89
51
96
57
3
123
-71
-4
-89
-77
-75
19
-55
30
107
6
27
1
-88
-106
-80
40
-116
122
-44
-22
76
-47
-76
38
39
-61
90
-37
-24
-94
-46
7
-122
116
42
-28
-35
96
119
-14
-58
-30
-106
127
36
97
87
-77
25
92
-105
-39
109
-88
-112
-112
60
45
-110
-96
99
16
-65
-128
123
-56
-16
127
-119
-106
58
108
-4
-85
-17
-75
37
-22
-41
-18
109
-4
-37
94
51
97
73
-38
-67
118
55
88
30
39
105
-32
3
39
14
75
-72
14
-113
30
-48
-63
-18
11
-127
38
-111
-103
88
-119
115
-118
-52
-109
-120
-120
57
-61
-1
68
21
-30
-38
-15
-91
78
-78
85
29
18
108
113
-107
8
123
-15
-7
49
113
89
102
14
30
-94
83
-86
-124
-56
-30
121
-107
7
-20
120
116
-74
-25
-72
-58
0
-41
103
15
98
64
46
-93
118
12
93
50
-116
91
29
-34
3
55
-64
123
19
77
-119
48
-4
61
94
103
-20
31
-126
17
-9
116
-80
-103
-124
71
-98
8
110
-112
23
-63
85
10
-105
39
-56
38
-3
12
-56
47
41
-104
-107
-60
0
93
-90
-11
18
-92
20
113
22
97
74
36
117
27
-2
-22
-29
64
49
121
1
-80
-24
-20
-27
120
-27
-73
28
74
104
-18
36
-40
7
97
-5
85
102
18
126
-76
-36
-67
-17
78
5
-118
-26
86
109
-50
53
45
-61
-20
-48
6
70
25
-72
-26
66
98
-40
-94
106
-66
-119
10
-75
-121
-69
-127
-58
-95
-46
80
-109
74
1
-19
-74
28
-35
122
-66
-78
6
-93
-74
-98
-84
-13
30
-67
33
-65
-60
36
127
-94
11
58
-58
74
6
-119
34
38
25
-58
-69
6
-53
-36
40
-49
84
-58
94
21
-26
-45
33
-17
81
60
-25
80
111
-73
65
5
52
99
94
13
91
-61
95
-37
54
-95
4
-128
93
-125
-42
63
-102
-2
105
102
-118
-50
115
37
-61
-112
127
24
38
49
-57
-96
-112
-106
92
-6
-81
2
119
71
-68
5
-91
127
-88
-127
59
58
-42
30
-110
-90
-3
68
-19
-86
-126
-3
-111
49
33
-36
43
10
-90
11
-101
118
111
-66
56
26
-109
-123
-110
-38
-55
-51
-112
0
24
-36
5
8
-18
79
71
46
118
-120
-35
-21
30
0
-76
-68
27
-64
93
97
54
-126
-21
-116
-63
76
-125
-69
120
29
38
-107
-108
-67
-113
-77
95
115
84
-1
13
69
28
117
123
22
-33
102
69
15
-42
-97
-43
-28
-59
-108
-5
1
-55
-55
-43
-97
61
116
68
99
116
118
-33
81
-73
-74
124
104
-16
-106
-14
43
-122
-72
-124
47
34
-93
105
123
48
61
-121
-2
-122
62
-51
105
-75
-49
-12
-28
-65
-11
89
-61
-121
68
-50
-98
95
-62
86
-95
-24
103
-98
15
-57
-115
54
-32
-43
122
90
83
-114
-68
-62
-12
80
-7
-95
68
-6
49
-77
31
63
123
-55
7
60
-46
-30
-43
-119
-118
-51
24
117
-77
-120
-115
123
-56
-49
-87
-52
21
10
-60
-5
-8
-105
126
63
-66
-33
-69
-103
-25
-33
115
-10
-71
14
107
5
-76
25
-73
120
45
-84
90
-31
75
35
-71
-93
69
61
103
41
-107
-103
58
38
-33
-41
14
-62
-39
-78
-27
2
30
67
39
66
7
88
85
67
116
-127
-113
-111
87
36
-9
103
101
-128
84
96
-40
68
72
-3
-46
37
112
-62
42
65
26
17
18
-128
60
40
8
-83
-62
113
-55
62
75
104
60
-113
105
-28
-8
22
-37
-43
-52
93
45
-41
50
93
-23
119
6
-12
-100
10
46
73
7
120
-106
116
-44
45
-69
66
94
-21
-73
78
68
-122
-13
83
-30
37
23
32
31
58
99
-104
61
102
-38
46
-61
74
-28
-35
110
-1
-47
-20
117
45
-44
16
43
83
39
98
-43
-15
121
-9
69
-45
-22
-58
125
-124
111
-26
-105
-119
109
-77
-47
-16
-115
-87
-72
65
-41
115
-24
-94
-39
-11
-67
-100
-39
71
3
10
-123
103
-107
-80
-76
-30
31
64
118
-25
8
115
-92
44
-49
58
96
82
-116
-47
10
-61
90
112
-66
-83
63
-100
52
-33
55
-22
33
-107
61
-43
29
52
46
86
82
100
31
-77
-6
38
64
-102
-47
-1
-5
87
-121
28
56
-5
-38
36
-41
-75
21
39
-30
22
-117
36
-45
74
108
2
17
-56
-91
107
-56
-54
71
116
-72
8
-50
-25
14
-59
25
-108
77
-37
-127
-126
-122
115
71
-52
63
108
-34
10
54
-87
-44
113
-92
74
-11
39
-120
-15
-105
31
-10
110
30
103
108
35
51
-47
69
36
100
-89
92
-49
-27
9
-51
92
-109
17
-65
83
97
-8
48
-39
54
9
81
-38
-106
106
-123
117
70
62
64
-101
6
-113
44
-36
-53
94
86
40
90
-120
119
-118
25
-86
49
-114
-8
66
-17
-49
19
111
-80
63
-82
-42
-12
97
83
-89
-3
41
-11
-69
81
93
3
107
40
117
3
-18
41
18
-12
-127
-120
19
-30
-108
107
89
89
-74
46
9
102
106
52
-51
82
-108
56
107
-82
2
-102
98
66
10
-86
109
-80
-64
-91
10
-108
-3
126
-39
-100
-103
29
-85
30
-1
123
39
-41
-128
9
-12
-99
-8
8
-53
37
-117
4
-83
-72
110
6
-72
54
24
9
-87
81
-39
-17
29
-47
-74
-126
-58
-113
56
-41
85
-24
-47
-73
-104
-72
-102
102
93
-30
-112
-30
-47
-115
112
-54
88
114
81
-10
75
-86
3
-53
-16
-35
-118
-1
27
-73
-34
4
57
-26
-97
-51
-124
84
-100
107
-102
127
93
-96
-73
53
-93
117
-115
-36
49
-109
-20
-59
-78
95
-110
-11
-104
-65
-126
-59
-93
14
77
-60
-124
-37
18
-94
-89
-94
-39
110
74
-72
-37
-114
41
68
33
-64
-107
4
75
-64
108
-116
-47
19
-30
-25
-14
-128
-62
-84
89
-74
-96
-95
-33
-62
-88
125
-12
83
-128
99
-16
-43
-26
-54
2
83
93
9
106
67
75
-108
-11
119
-77
-106
17
-64
-24
0
-27
-82
-52
-8
46
33
-95
-36
-48
-79
70
-106
-43
48
44
80
124
7
-81
-92
39
-40
-41
-105
-33
82
-45
109
73
-91
-57
-122
-69
68
-2
-81
-25
29
105
51
45
61
-88
116
-100
104
-101
31
111
60
100
-64
58
-8
68
-102
112
-111
65
-60
-34
-21
10
60
-112
60
-125
-92
52
-125
-67
11
-47
68
-73
-57
49
-11
60
6
30
-16
-56
-112
-12
1
-19
38
17
31
9
41
79
-108
28
74
-39
106
90
48
-3
119
-30
-46
80
-79
1
-39
-32
42
-14
-68
-12
35
64
-20
-117
41
31
-42
104
-51
-3
38
108
-2
-28
-37
-106
3
-29
-41
105
-106
-54
-17
-121
26
-66
-47
119
-117
107
-42
17
-74
-98
44
32
54
103
118
82
113
75
12
-12
-114
75
88
-70
0
-93
-29
-63
112
95
-92
-51
71
-115
6
-93
-17
-55
-125
-63
-86
-33
19
55
-122
-125
67
106
32
71
-73
-83
66
-106
-87
-84
-103
8
112
-65
-33
45
-116
-3
-34
-21
-91
24
64
97
-63
-124
-67
17
40
-34
82
59
38
-76
-34
15
87
30
72
-67
-108
79
91
-93
-50
56
-122
117
-45
127
-108
-21
-123
75
-93
-72
0
119
120
12
102
-109
-75
118
122
-23
-84
10
125
-52
44
76
-104
-95
45
-87
4
-111
65
72
-121
6
60
53
-58
51
-52
-19
-82
9
79
106
10
-90
31
4
-46
-6
60
90
21
-124
-6
80
110
76
-7
-98
110
73
84
92
37
-9
70
27
27
71
8
-7
112
-23
105
94
-112
35
70
126
66
35
6
-101
71
42
49
26
-113
-23
105
122
61
-99
4
36
-109
43
78
32
39
-65
120
-5
85
-52
105
43
-37
58
-83
7
57
-126
-127
90
-31
112
-2
118
-128
26
106
62
123
-25
-27
-63
111
63
19
89
66
-54
-110
69
34
-69
-85
14
-31
-23
20
12
-101
74
74
-15
88
-77
2
67
-98
-93
-3
-101
-72
-32
-71
-79
-65
-22
-126
69
-40
-40
-104
63
55
101
-79
45
-81
7
55
86
24
-80
-78
-31
-75
99
36
99
-13
-114
47
-102
-47
-92
127
12
35
52
-88
-69
96
-47
10
-50
94
-71
-29
117
11
6
79
-4
-27
-68
-47
68
-65
45
-29
97
76
-107
94
-114
71
-4
117
0
-42
115
116
-1
12
-46
103
-69
-54
-110
-121
12
20
54
-96
-18
60
62
-2
75
-16
-40
104
84
-7
125
-71
-99
-75
42
100
110
30
-60
-18
-84
-125
-101
68
-84
-104
-58
-30
-78
-106
89
48
-75
39
45
-61
-105
123
-62
127
59
94
-67
14
6
-104
-12
-106
-54
-69
65
-75
-111
-27
117
20
-74
9
92
43
1
-5
105
-26
-40
54
75
-21
-59
34
26
51
-77
-108
-95
-72
12
86
29
99
-46
-64
-13
-23
44
-32
125
38
-95
13
-11
61
-91
-66
-20
25
9
-21
90
-72
10
-71
49
108
101
67
10
-46
18
29
-4
95
83
96
51
115
-109
74
-2
114
-124
-80
-51
-58
36
19
6
-6
-57
78
-84
18
-11
-6
66
-27
-54
-26
68
-109
-107
-65
66
-40
19
-126
10
116
75
120
47
-67
2
105
-3
18
-95
-23
-83
67
-38
-108
94
-5
-115
99
106
-33
-88
97
-112
-56
52
-46
46
-93
59
9
-3
-106
-108
33
-126
-67
-49
-45
85
-83
-39
-6
-105
-78
90
-57
-88
47
10
-22
-34
41
9
-60
66
-77
116
-99
-42
-67
95
-18
9
-105
-6
116
52
27
-78
72
-44
52
43
95
-51
16
68
50
16
-8
46
92
53
-104
107
-70
96
42
35
-10
-44
-118
-21
-25
-122
10
-17
28
-7
-14
-91
109
81
105
57
-30
-8
-116
-90
52
-104
67
-123
20
-5
-34
-102
-8
24
-6
103
-106
-26
106
-58
-105
-23
14
34
-20
-64
2
-90
-118
89
-55
46
-98
-36
-55
-24
49
56
-118
-38
106
-101
92
106
54
0
-103
-21
-104
-66
-56
122
-125
-78
26
14
-112
20
-94
-69
124
36
-110
27
-118
29
-7
27
-102
95
-108
27
-124
-84
76
-71
43
116
29
18
87
107
18
126
-117
-78
7
43
121
-3
18
90
-56
113
51
90
-68
98
30
-53
-37
38
21
-38
41
-65
8
-45
98
-38
-113
64
-43
70
-11
-98
-48
-127
-117
74
27
121
-125
-24
-14
-112
-106
-118
60
-48
3
-27
36
91
-114
9
-19
25
16
48
-77
-88
-7
-82
95
0
-13
-67
-126
-81
-80
30
92
-41
-5
-54
-105
20
41
117
-23
-36
-88
-9
-100
-12
-65
-75
-73
88
-125
-114
-3
-72
112
-68
58
37
-70
-94
-34
-75
-97
37
-88
-103
85
18
17
-85
53
-5
16
-100
110
-103
-2
-35
-48
73
74
25
-111
-76
26
94
-91
-48
88
3
45
-49
34
81
43
62
46
47
19
-19
-29
105
33
-17
44
35
-51
-30
-1
-24
-63
-116
88
-125
-28
-5
27
0
-59
-118
80
98
-41
105
112
-53
-110
30
-68
-90
116
-56
97
13
85
116
-112
-74
126
-21
-89
-64
123
-22
-117
-102
-96
127
-1
-106
-92
14
-99
-48
-122
23
104
50
20
-13
-91
83
39
48
-29
-98
37
4
54
-114
-38
41
120
-105
12
44
-122
110
126
-106
-6
-19
102
27
-127
-88
-12
-8
-123
-109
-49
9
8
71
-50
93
-121
70
96
116
51
7
-31
-29
2
-3
-97
-16
125
-25
-123
-90
-43
-122
-8
76
50
-109
-59
-117
40
60
110
48
-123
-50
-17
-61
-124
-24
-18
40
30
40
121
50
-48
90
68
116
52
-57
-63
76
96
104
47
54
-95
-117
45
89
7
22
-4
117
50
-126
8
-86
111
-21
115
-70
111
-26
7
74
-101
-28
-34
-16
91
13
87
-63
-55
-86
45
-25
62
-68
105
91
-55
66
-1
19
90
46
-27
125
-61
24
60
-48
4
-43
127
-94
-69
-4
112
-117
38
-113
-31
-7
-22
42
127
-74
-1
73
111
9
-51
-33
106
-23
126
56
-49
-34
30
-51
-78
5
60
58
24
-120
14
-53
56
82
-16
-101
-7
5
13
-109
68
-114
67
-96
-102
-102
-83
-6
70
-103
80
-17
10
109
122
114
-69
-27
66
-16
114
66
-25
-13
69
-98
100
-124
74
-80
37
-12
48
94
13
117
86
-75
-57
-104
-111
-10
-31
24
-27
-74
-125
-126
62
-86
-103
-124
-101
-95
49
-63
63
90
81
112
89
-41
110
-121
34
-57
62
121
64
-73
52
35
-118
127
34
13
106
72
-52
22
97
-110
101
87
-33
-95
-69
57
48
-47
73
72
41
-80
53
-89
38
-85
122
116
92
-98
61
122
-65
86
78
-24
23
109
11
-2
60
-38
-22
41
60
-28
19
124
-59
-81
17
-12
34
82
-49
76
36
-119
49
46
-118
105
115
29
-123
-21
-103
4
123
-47
-105
-72
-32
68
122
74
-101
96
7
1
-2
-38
-51
-54
-80
5
58
21
-22
107
86
47
21
-27
-44
-23
-36
-28
18
-43
0
-87
116
-77
-12
3
62
42
-123
-90
-105
38
51
-110
97
-91
-51
-42
-21
61
98
10
-111
107
58
-15
67
-54
111
58
-46
-37
113
-17
25
122
41
-113
76
-109
-111
0
-10
118
47
-68
-32
89
92
91
-98
43
121
-87
-49
108
97
49
-87
-69
102
-50
-61
-28
-121
39
-8
49
-4
111
62
-47
99
127
-36
-72
56
48
-120
-35
-21
-40
71
1
-109
121
-122
12
104
-121
-81
18
-9
81
-15
-121
13
37
-11
-10
41
58
-84
64
-114
-39
-64
33
-25
-116
-26
24
-1
24
-32
-10
-25
109
16
-69
-96
-73
-59
-46
-113
23
69
6
88
82
27
-35
43
36
-60
-45
0
-44
51
10
10
-20
-90
26
49
43
70
-76
76
37
7
55
-97
-81
23
-102
-113
68
-60
-107
28
105
40
-14
-26
-119
82
59
-125
-99
25
49
-110
-39
2
-13
8
27
-117
63
-34
123
-106
-95
-95
6
87
104
97
52
56
-99
-85
95
-81
4
35
-16
116
123
63
56
-24
-79
-54
-10
-100
-97
64
-100
41
106
-113
113
7
114
-4
-111
59
-70
-105
-34
-100
-83
-22
1
-83
91
-68
47
90
-48
-77
59
25
17
-59
-15
126
-92
125
-45
-2
-68
56
119
-12
57
-44
92
106
90
-82
-116
115
44
-11
-99
33
78
-92
81
-50
-26
0
25
-65
-9
97
-99
42
-57
102
17
-4
33
-109
-3
-54
-47
-87
-39
86
-72
-5
27
5
-75
94
-70
52
-8
-86
-101
-60
32
61
76
-61
-104
-91
-11
-37
22
-100
-70
-17
19
-4
-2
-38
80
-84
-97
74
28
108
7
-28
-19
-77
16
-31
-119
-43
49
-4
7
44
-104
66
26
-64
74
-46
102
5
93
41
48
-48
7
-115
52
94
-44
27
112
27
-120
-106
60
-96
-99
-20
-76
48
-99
120
-26
24
-13
70
82
78
-99
-121
-17
-52
-18
43
-49
-106
19
-87
101
29
28
-83
-28
88
-64
-53
-41
97
-6
-21
77
53
125
-29
-117
104
-74
40
-15
25
115
-34
106
-20
91
84
119
99
-5
-30
49
-44
-11
-1
-108
24
5
96
-81
-18
-75
64
103
-3
101
-76
19
12
-33
114
6
102
45
9
-31
-79
97
127
-19
44
-15
45
-58
-93
-102
-27
-74
-42
-79
-76
-76
35
66
27
89
19
81
-23
66
-11
63
5
-65
-2
125
79
-57
-78
42
117
8
-15
-49
45
-33
1
114
-78
17
-87
-128
98
-65
73
-29
-64
76
-53
112
-54
52
-60
57
-125
-125
-36
66
16
-13
-60
-5
51
42
-99
98
-80
-5
82
47
93
-59
-115
-47
19
23
-54
57
-44
75
12
71
112
32
121
-6
-71
45
-2
-108
78
-105
-66
-9
108
119
-105
116
59
-31
-123
5
-54
-80
-120
99
15
89
-21
109
-15
-74
-21
-32
31
75
-2
-18
-12
71
43
35
-36
-115
-22
32
-28
95
74
-56
58
-95
-62
-64
32
81
56
12
-44
-33
6
-56
-78
-77
70
38
-99
-45
-64
126
29
74
78
15
-118
64
105
103
121
-128
5
-89
28
-80
112
2
-106
-48
49
-61
-99
-68
-66
13
-51
-49
13
63
74
33
-80
-84
-103
123
9
-65
-42
-126
100
112
26
-62
14
-109
33
60
-97
56
-55
80
-113
-78
-126
-22
112
-68
39
-95
55
56
-14
39
-67
-126
-64
2
60
-92
36
39
-97
48
96
-82
-23
-17
-27
101
36
26
-128
93
-47
51
-103
46
69
91
55
101
10
-33
-1
-40
19
-107
40
-98
106
63
51
75
29
35
73
121
83
9
83
120
-99
-93
29
-68
-64
60
-110
116
2
65
30
-15
78
13
127
-69
111
-52
47
-80
57
-10
49
-97
-125
88
71
-39
80
-72
31
-76
55
-47
-4
-25
-24
-85
-67
-117
-50
-65
-112
-98
18
-38
-127
-57
-66
102
-26
-9
-105
-73
44
-89
0
112
95
87
-3
92
66
19
-120
-86
123
-23
-55
-113
71
-44
-54
14
-42
-66
-89
-110
120
72
64
-2
-54
-74
-102
59
110
19
-41
126
-48
77
-89
103
126
-101
39
-108
73
65
67
94
-23
-45
80
72
-36
85
-26
74
45
-112
-59
-8
76
118
93
89
-67
16
-12
-16
2
-26
58
-11
-22
63
91
86
-38
53
33
-122
43
-59
98
111
78
48
84
-37
-23
-22
103
-104
88
-108
-123
46
61
-93
34
37
-53
127
112
-93
-50
5
75
46
39
96
-20
60
42
2
46
38
56
93
67
125
-26
-123
-81
-117
107
-80
18
17
34
106
7
29
38
31
-62
-100
-109
21
-112
-34
-56
82
24
-10
32
70
38
-26
106
123
29
-126
-43
51
75
-114
99
-70
-12
29
89
-66
112
-77
13
-116
-114
106
33
19
93
-96
37
-101
97
-14
-117
-79
124
-95
9
-102
82
5
84
-94
-70
35
-86
-88
80
19
121
19
-111
41
40
33
-82
-13
17
-71
-36
12
82
1
-89
-94
-78
23
106
9
0
102
121
45
86
-12
-58
21
110
9
83
-117
122
-30
126
40
-39
43
33
-5
23
-50
-31
-32
-74
111
11
-68
-10
47
-62
-64
-2
40
-76
64
8
46
70
122
-63
-80
60
64
22
121
109
5
114
118
-8
60
-73
58
122
-67
-110
-58
-52
-126
-38
-55
-90
-51
3
-6
88
65
-71
78
-3
112
42
-87
-47
-34
92
-35
48
-26
-73
49
-111
27
-28
-51
15
88
-50
-59
30
46
19
-24
-28
-63
46
-90
-28
77
6
-39
-35
-99
-47
-116
73
-71
-62
47
19
98
11
-24
-65
121
79
-121
17
109
98
-123
113
101
56
15
106
77
79
-4
-19
-124
-97
-80
-23
-76
73
110
-54
65
124
-5
108
-121
-103
74
-34
-114
16
-127
104
42
104
44
9
110
88
73
39
2
-5
93
122
77
5
30
46
-60
125
-28
-80
46
-26
16
37
58
-100
53
16
69
-35
-8
-119
-21
-91
-128
37
-80
97
28
40
15
16
64
-52
-128
87
-119
-39
-47
124
65
106
-112
80
-124
-11
111
-58
100
-14
34
-118
68
65
-99
-97
-33
17
-82
-86
77
-78
-70
-49
71
34
-96
-46
-10
46
1
-84
107
-42
-57
-80
-113
101
-18
-94
36
-38
66
0
4
-15
64
-78
-30
34
-75
15
58
-18
34
-22
-25
-92
-48
-95
-95
126
106
113
-34
-64
55
77
39
32
71
-3
-31
-53
36
13
-2
82
80
-112
83
16
-47
-59
-64
-52
-127
-16
68
-71
-21
116
126
14
42
-51
-100
-33
119
36
97
87
35
122
37
34
-91
-22
-128
27
51
-65
125
-67
-72
-125
-7
66
-107
42
99
97
-36
-12
37
48
-118
90
-89
-85
72
66
22
-39
91
83
35
-58
-4
-1
108
-93
81
115
-75
35
-99
-24
-1
-9
-113
85
-37
3
-64
18
-90
-89
-90
25
23
-19
-69
-8
76
-121
-117
17
-117
34
95
-31
-48
30
-23
-105
-117
-85
-71
-40
74
-73
-11
-122
-120
-49
-93
-97
83
-114
56
104
113
-60
-5
22
-55
93
59
-82
18
-112
-110
85
-100
16
46
-114
30
12
87
-54
40
-118
42
118
-61
39
87
-59
120
19
93
-9
-120
-4
28
-52
-45
74
-92
15
-32
-23
100
110
-50
-127
-19
21
127
76
-47
117
36
-27
-61
88
-23
-63
53
45
-115
-9
-74
98
43
47
-5
40
22
99
99
74
118
122
-2
30
-89
-86
-77
86
-71
-112
-80
120
21
120
69
81
-1
43
64
-6
-86
126
110
-13
-67
24
-109
92
69
-61
-12
-121
-23
-10
101
-71
117
-1
-67
25
-26
-87
2
54
94
31
-46
104
-17
-70
-70
-26
103
-101
122
-123
126
31
-115
116
-52
2
-30
-84
-126
-124
-41
32
124
-29
35
30
-21
28
64
93
-80
106
-34
64
-74
-41
-52
-18
-87
76
122
114
47
0
-54
-128
79
-53
80
54
-29
-14
40
3
-105
-4
-117
64
94
26
-101
-103
117
73
-93
115
33
-118
91
-26
-124
-116
86
27
105
91
107
-126
116
21
8
-55
14
100
-59
43
97
7
121
-67
124
71
46
19
29
-28
59
37
-41
13
-17
-110
-117
-55
-29
62
-91
92
52
14
34
16
127
-72
4
63
31
74
-49
47
-46
14
101
-51
-11
-70
18
-52
81
95
-56
-61
-14
64
74
-31
112
-55
-34
10
-74
103
-19
16
-6
-67
-1
71
-56
73
48
-71
40
90
4
-20
83
-104
-58
20
-7
104
-70
98
-43
-92
-77
-112
-110
31
123
-61
-42
-43
-94
-57
-103
-30
-2
29
111
-22
62
0
-23
-70
-22
29
-33
-90
-16
76
-10
68
10
-66
-74
-2
75
12
-102
-113
17
76
-37
-116
-42
114
-112
68
-51
-70
20
88
-122
79
-91
-115
44
19
52
8
124
54
74
41
60
2
49
-115
-39
103
87
-31
94
117
58
-62
4
68
22
94
-122
62
25
60
48
-77
-54
119
63
-6
-42
-116
52
20
-98
-95
-73
-51
-90
21
-75
-21
38
-113
-12
-79
68
41
-50
-4
-110
-68
87
-54
-85
120
-33
-82
-53
-99
22
-122
37
-26
-84
-84
26
-88
-41
21
-20
62
48
45
-96
-98
-87
-65
17
113
-55
83
-33
-3
74
-32
-96
-97
7
-42
-51
-46
35
-19
-25
-126
52
62
121
-81
8
-46
-127
117
5
-99
-24
15
-75
84
-115
71
-16
37
-38
119
8
-37
-3
69
41
-100
93
51
102
-102
120
17
53
113
52
82
81
-114
-2
64
-42
-86
121
118
-66
7
-68
119
-55
-95
30
84
2
41
-99
2
-107
119
-76
57
-2
67
95
-127
102
3
-70
-52
-51
-80
2
16
-39
23
-110
-29
-124
45
28
-52
-34
-1
16
-62
-42
-84
104
66
9
-44
86
-13
7
93
24
54
-27
35
97
5
57
59
-28
113
113
65
-92
41
21
53
-27
76
-60
-60
-109
-48
42
36
-115
-114
-53
101
110
43
116
-45
-67
60
-19
31
-53
-72
94
-115
65
108
-99
-76
-110
-27
30
-101
-16
-128
-41
-94
117
8
111
-28
-1
7
-109
36
65
-85
55
103
76
-96
24
19
98
-123
-87
-26
-123
-79
-123
-89
-109
31
-62
-82
21
-46
79
-42
-106
119
-24
-29
-121
52
115
48
-1
-53
9
82
-30
-33
63
126
-93
-96
-107
95
-123
8
-62
-3
-3
-25
47
-33
-110
-23
120
-35
110
-63
-9
-103
-121
-99
-55
-41
28
42
-124
120
-105
-96
-13
119
-3
-56
-127
-97
-38
-44
-75
-78
21
-108
-16
-123
97
-39
-107
27
84
-31
116
-83
-46
-109
-12
-44
-73
2
69
47
-96
-81
79
44
119
-79
-39
-47
88
-2
101
-116
43
37
29
123
77
-16
39
-62
-38
-35
84
-90
65
33
6
-2
-84
16
-42
-35
21
1
23
28
92
78
44
46
-43
-24
105
33
110
-15
-42
51
-127
-120
-82
108
59
-51
89
-116
-23
-19
98
2
-101
22
74
122
72
120
-66
125
85
-7
-119
51
93
-46
-27
-45
31
-46
11
-93
-95
-40
-91
15
17
104
-61
-104
-100
-64
-74
126
-65
92
-31
-61
-91
-67
-30
-39
-75
29
-119
-24
-122
12
-38
13
-39
-80
109
75
51
-127
91
-120
100
-30
31
8
2
51
35
-6
23
-93
41
-121
67
24
-103
-126
12
126
-68
-80
-83
74
79
91
-80
14
96
119
126
-116
12
-121
-58
10
-112
6
19
121
103
-33
43
78
-49
65
-17
-52
-119
15
-26
85
-32
-80
0
106
-88
-75
28
-121
-94
-105
68
-111
95
18
-51
26
-17
-64
-63
-87
-36
-125
-33
-37
108
-94
-6
-13
-50
-57
-111
-127
78
-64
-31
-52
-6
-32
18
-24
-55
-6
22
12
100
78
-36
89
4
-58
23
93
-102
-121
-111
104
-44
105
92
122
1
95
79
-21
93
-91
67
103
-81
-36
99
-55
-13
-29
-53
-79
65
-120
0
88
83
-116
-14
-105
-85
30
37
-100
-21
-58
127
21
96
6
5
76
-118
75
-97
-106
-23
-23
101
-75
-95
-58
-106
-95
14
3
101
2
-11
-82
-120
-43
57
-26
-108
120
-18
35
103
-94
-66
126
-20
-15
-93
-57
-121
-115
-74
125
19
-63
-103
-28
65
27
-29
-36
-82
-43
3
1
59
49
119
-99
-26
-115
94
-99
27
77
-100
-74
49
126
82
123
-63
-126
-54
-107
72
-66
124
32
89
120
-62
76
91
-54
-44
16
90
11
112
-22
99
-35
38
-55
29
73
-6
103
21
88
75
-126
-3
-115
-90
-7
-122
4
-94
-76
69
11
-18
26
-69
-90
-109
36
-55
-95
112
-115
19
-109
-34
-47
52
-91
101
-77
108
-126
45
2
77
50
-56
-79
-111
34
-54
-119
-39
-15
-90
21
-124
1
-21
35
20
-40
93
-84
5
73
-44
-27
-106
-128
-36
-24
-90
41
-20
-45
-90
-91
-93
103
-96
-39
-80
89
-99
105
-103
-35
-70
71
-58
-103
26
66
-69
111
-82
-37
13
-34
88
75
-107
106
-20
-41
-81
67
-89
109
-121
100
-40
-96
52
-24
-71
112
-32
99
110
-75
72
2
16
-97
-102
59
57
-23
-17
89
44
18
19
-90
-18
-90
39
120
111
-30
45
12
97
2
-25
67
26
98
89
53
24
-95
3
-122
-107
-107
76
-87
6
-18
-87
67
-63
-104
108
-43
102
111
59
38
-76
10
-99
-66
15
79
-44
69
-112
85
96
-2
51
16
31
27
34
-50
-43
-75
49
-111
-95
117
-3
-34
-31
-128
-114
55
-52
13
-114
43
-77
-71
-25
-84
-111
-62
-96
-53
-10
86
-27
-53
14
-16
-24
-47
44
-54
-37
-84
-32
23
105
53
-107
91
95
107
69
-66
107
-84
88
41
42
75
22
-91
-105
-54
60
-55
-113
114
25
-117
-61
54
73
-56
-108
-24
-45
-45
49
-37
26
24
-110
107
-119
42
64
95
-105
-85
-17
-119
72
59
-121
-48
-82
58
-70
27
-83
102
12
0
56
94
45
-88
20
89
65
95
-6
109
50
-84
-15
78
-112
-19
-29
37
-95
56
68
-31
123
-83
91
56
75
-3
-78
-59
46
65
-88
16
-35
75
20
-58
-64
-10
90
6
-15
70
-18
-103
-109
59
-94
43
-22
115
87
-35
78
-84
-12
99
-37
-68
41
11
-21
-87
93
-53
34
77
-16
28
6
80
80
11
123
72
-125
121
50
115
93
-63
-10
-43
19
-119
-110
-77
-66
-79
30
5
72
-16
125
112
-115
-27
-80
111
-17
97
21
56
97
-105
-115
3
43
69
-50
13
13
-90
109
-7
-95
6
-70
-3
-30
78
-101
45
-107
-39
-64
-4
-46
-14
-75
104
25
31
43
45
65
62
96
-57
-100
66
-93
3
-89
-70
-79
70
12
-36
-69
9
-103
122
-36
-91
-56
80
-90
-99
-65
-100
-104
74
-113
-68
69
16
87
77
38
69
91
-29
69
113
43
-45
-80
16
2
-82
94
100
-27
-63
27
110
-70
-3
35
-80
-45
-70
23
-109
-25
52
-5
-30
-77
111
-101
-25
-97
56
-28
60
-4
26
-1
46
18
-50
-19
-102
17
8
3
101
117
79
9
29
126
53
-75
-39
102
-75
120
-116
-85
93
-29
77
65
65
-46
81
104
-34
-92
-50
116
28
-2
-7
-80
22
72
50
99
-98
-126
-54
106
109
-56
63
78
-54
9
-113
31
56
25
-100
61
-7
107
-74
-72
-94
-69
-4
-81
-32
62
-24
-12
-3
62
95
-73
51
-37
6
-58
-18
-29
-54
122
-61
-59
-87
75
-68
-107
-3
-110
-111
81
95
50
-64
76
124
-71
22
126
6
-128
-26
98
-27
25
65
-92
74
119
110
-65
-34
-67
123
84
9
98
57
91
23
105
-66
38
73
-104
-125
-84
3
46
-98
-3
-112
-68
69
-36
28
88
0
72
126
53
125
62
-71
10
-102
-61
-5
25
-63
-93
74
113
125
94
-7
70
12
15
82
19
39
83
-61
44
94
22
10
-122
113
-20
-10
-90
-62
-103
123
-33
126
79
56
-47
124
41
-29
103
-49
24
-73
2
-122
30
-69
-30
95
10
-111
-125
14
93
52
-117
-65
-25
57
-80
125
105
-95
-23
-86
-27
96
13
117
-51
-119
91
27
-41
-58
-76
-72
17
36
50
92
116
114
72
-112
-51
70
52
-116
68
74
-20
61
41
-14
-10
14
25
-104
-100
-24
1
-25
75
-50
-35
1
33
82
16
-102
-98
-122
77
110
103
118
-21
-71
-66
48
65
-51
-108
56
-48
38
13
44
56
-84
-6
-37
79
117
-94
-22
-102
10
-12
-127
-4
-41
-34
109
45
29
19
52
-65
29
-47
48
-82
-53
38
-42
103
-13
102
-54
18
-74
-10
-65
-121
-76
102
1
83
-19
23
-117
35
-22
-21
-27
45
-81
0
4
22
-119
-49
105
26
-65
-58
-105
-18
-5
75
25
-62
-117
60
-37
-98
39
-77
-121
18
-114
31
-47
85
-67
-40
-29
121
-49
-17
17
-5
-39
9
-112
-124
-65
-23
-17
-112
-37
87
32
126
-106
101
-29
39
-48
-93
-5
63
-71
40
34
117
-86
67
4
-67
55
-37
102
-12
23
-73
-100
1
116
-24
9
24
73
58
37
20
53
-38
-20
35
-110
-95
-4
-109
61
-73
24
-102
102
-97
120
-86
-80
65
-42
-25
76
-104
-108
-19
108
-85
-117
69
82
9
-37
44
28
68
4
-68
-52
38
90
94
-92
116
-66
-66
-36
-23
-42
-12
-13
120
-51
76
18
6
-113
-40
52
100
-114
-106
15
-105
-12
-28
-117
-22
-75
79
-28
94
-18
54
-60
41
57
103
-107
100
55
-66
-24
0
100
-41
-96
111
82
82
105
49
24
73
-8
-71
83
57
101
-73
29
116
-98
-96
114
47
5
-27
12
-128
-74
-47
-79
21
23
92
102
31
58
-67
-56
95
-30
18
13
-127
77
54
-115
10
-113
-91
-24
-72
46
-38
-37
71
-77
110
-13
-78
-63
125
-12
88
112
-42
11
40
51
-76
-120
47
-40
70
21
32
-107
45
103
-5
94
7
-55
-64
99
-99
87
72
-14
27
-89
39
91
-96
-36
-89
118
-100
-94
-78
-87
78
62
55
-34
-119
-48
-54
5
27
-49
-109
29
-87
-59
117
58
61
122
82
-77
108
24
10
-105
74
-73
-1
3
-76
25
113
103
29
-119
102
-29
-98
67
-66
80
-95
-105
68
-79
-85
-96
43
-77
86
-104
62
0
21
-44
17
-121
-32
71
-94
-97
-30
-81
6
64
-96
63
-125
-53
-64
-1
-9
-95
98
-40
-78
63
70
-62
25
-63
17
105
-109
33
-127
71
-7
-36
-67
-98
126
6
-7
-76
-87
95
55
10
-92
0
-79
106
-66
-81
91
-37
26
40
13
118
-70
-51
12
43
-100
-76
-65
99
-29
122
-32
-21
72
95
-18
107
63
103
103
26
-87
117
11
59
80
-28
-27
-52
-123
101
-123
88
-13
-58
42
47
12
-20
-28
-102
-52
6
-16
94
66
16
58
-124
-68
-104
-105
-43
31
37
-110
-117
-94
3
-63
-19
-85
-87
-83
50
57
68
45
42
-102
-14
-111
114
-62
120
-114
111
-118
45
-55
45
-18
113
100
73
66
0
-112
120
-9
-101
126
106
-38
59
80
-128
14
12
107
-9
-111
-53
-55
-92
69
67
-124
-120
-32
-104
-105
82
-124
13
69
15
67
-82
-28
80
-71
-90
-94
-108
-75
-9
-28
-83
41
13
0
-122
12
-75
42
-19
-50
-124
27
-57
-27
-37
-8
-58
-126
-71
46
-30
-45
-99
-44
-88
-81
78
53
126
-74
82
39
-72
-99
95
65
100
-40
-89
31
96
-67
75
-23
53
-89
75
29
-59
-30
103
-6
-49
-99
66
43
37
-13
-13
122
-86
46
49
-96
-79
-32
66
-70
20
-72
-86
39
115
-111
-62
-37
59
90
91
31
81
-103
-91
82
-69
-92
-53
-89
77
53
-26
90
54
-41
-102
-120
-30
98
43
92
-70
40
26
-24
-113
-107
97
103
2
26
21
-55
52
48
102
44
-46
65
82
19
111
119
30
14
-90
119
42
-22
13
48
-87
104
-124
120
-126
-2
-7
25
-86
25
-111
95
97
-42
-33
94
42
31
71
101
30
-67
-85
34
-7
-82
-4
61
79
96
112
101
-65
77
-51
-73
-12
-38
125
118
-108
-20
107
-86
54
101
-35
-106
-104
35
-33
-21
57
-25
114
11
46
73
88
-11
-26
3
16
-14
120
-96
-46
-3
94
-43
-4
-119
-41
72
-79
-13
48
-20
-117
27
75
99
3
-30
42
121
0
30
45
53
-41
-68
-30
126
-44
89
2
-17
2
-1
122
-72
-128
-38
79
114
-89
48
-10
-119
-101
-23
-58
-87
-46
-66
22
-32
-37
75
65
-25
-120
83
30
-128
-112
-23
-102
-19
-26
37
124
-83
97
14
0
51
90
-21
67
-7
85
76
-81
-39
76
69
18
-107
20
-110
-22
62
124
36
124
115
101
96
-94
-93
-104
99
114
116
-55
-32
79
-93
110
-96
-103
-69
38
9
-118
-106
5
75
-19
14
-83
-17
-15
72
61
106
38
-116
18
-26
-49
-14
42
-71
-101
113
82
85
-80
50
23
-32
38
86
-53
80
124
-11
-118
-76
-70
127
11
8
-19
-19
-127
-77
26
32
119
53
107
73
-106
109
-48
46
37
110
-114
46
-69
-55
-30
82
-99
50
20
40
93
-32
7
-40
-1
46
-111
86
34
-44
-117
-70
63
-87
14
103
4
-18
-8
8
36
-83
-116
7
-20
30
3
-72
-5
95
49
45
6
120
-33
-35
52
-94
-66
-54
-100
44
-93
113
78
-94
-106
-109
94
100
-37
-18
-123
-69
86
-111
-17
-102
1
-74
36
-53
96
82
47
109
5
112
-62
-21
107
21
-54
86
80
-39
103
34
126
8
-53
53
36
14
103
119
102
48
3
-29
97
63
-97
47
-19
14
-99
-3
9
-74
111
-30
55
-61
111
107
38
66
45
97
126
18
-11
104
46
48
111
26
-25
4
-81
-62
-66
-50
-42
-42
30
80
-107
-39
20
125
-90
8
-93
-56
-116
-112
-127
37
-58
1
56
27
-111
-102
-118
-86
-12
-30
37
69
37
-48
-61
-86
-21
-104
98
-96
27
44
20
-82
-62
14
-57
76
12
-105
-59
-66
-74
-68
-33
-116
-4
92
50
-30
24
9
17
-38
-73
45
80
-70
39
55
-115
-72
-85
22
23
-23
92
116
-94
70
-32
-124
-60
80
-38
16
-22
18
66
70
-116
-15
-29
65
99
-48
-5
109
-115
-72
-59
-72
62
105
-111
109
-113
106
78
22
-75
-47
91
32
-106
2
-116
-18
-88
-89
-1
-42
-121
86
-88
96
103
76
-10
61
-116
3
62
110
7
85
106
-63
2
82
-10
14
2
85
-128
97
-12
-36
64
106
-121
-29
82
-14
0
91
106
-106
58
-80
-114
16
12
-26
-17
126
97
90
-55
0
30
-59
102
-16
70
98
-57
-125
-105
-112
-46
74
26
91
-31
60
65
-91
119
-61
98
65
-97
-100
-14
-75
37
-84
55
121
-87
56
-126
0
58
31
25
-60
10
-120
118
-124
95
-25
36
-96
3
13
-117
-116
-95
-32
-18
-6
88
-75
-96
116
20
99
-97
-73
28
-10
-26
99
2
39
-3
-21
86
-18
-9
-103
-80
93
-93
-39
84
9
66
-49
-9
67
24
-14
-29
113
109
125
-2
-40
27
-21
56
43
-100
99
11
-102
-45
-64
-108
-91
68
98
-105
9
-70
103
105
17
82
-103
95
70
-34
-4
-32
-100
-52
-51
42
15
-44
97
-99
37
-58
124
-12
67
86
6
46
121
70
-85
-66
-127
-114
-103
89
18
-75
16
25
57
-85
70
-99
-67
4
91
-50
65
-33
100
-117
29
-79
24
-72
91
99
36
97
35
-118
-50
-111
111
83
50
22
56
5
-64
0
40
96
-49
-40
68
-49
4
-47
99
123
57
22
-33
-66
-4
-126
81
81
90
84
71
-93
-43
2
42
-39
-113
-74
126
6
81
3
118
-93
88
96
0
121
-109
92
121
-96
-29
-19
-58
91
9
90
57
-121
-47
53
66
-119
-6
-58
79
-79
-28
37
-20
25
-112
92
-5
122
-37
83
94
104
-107
-92
-80
-124
62
100
-90
-58
-102
61
-99
-22
-43
38
-2
-119
31
-40
29
111
37
110
-127
86
-42
78
-108
58
70
97
-13
22
-27
91
90
78
51
57
95
101
21
-119
34
-38
112
-47
48
78
46
-128
-7
61
-89
-19
103
-103
-9
105
-110
32
-8
-8
-127
7
-105
-69
-1
33
-76
19
-28
10
97
62
-43
117
86
-26
4
89
58
78
-88
46
27
-11
-14
-3
40
-59
-90
-122
51
-43
-6
-20
-68
60
74
-112
81
-57
88
-110
122
-27
-102
11
-79
1
63
116
70
9
-7
70
98
-79
-108
111
-91
77
85
34
126
-14
-17
17
35
-71
70
-91
-27
-44
13
78
-69
-16
12
-5
-32
58
100
47
-72
99
-73
23
19
-119
27
18
12
-118
-123
15
126
27
48
59
31
-102
36
-14
-53
-87
-126
-98
107
-113
33
-39
-101
88
-57
31
-122
-72
125
-45
24
-128
-75
-37
-61
68
-108
19
123
-69
-117
-53
79
112
24
10
113
-119
-94
-36
69
23
-34
-36
111
73
45
101
-100
5
46
6
-45
-72
108
103
-70
-123
-56
-54
-68
-87
100
94
16
8
-44
46
5
-41
81
96
55
-30
103
-70
-120
121
106
-92
44
-59
57
-21
64
-73
-7
-82
101
-126
33
22
-9
-103
12
-49
-79
3
-22
-124
106
-81
34
-96
56
-60
116
-8
126
52
8
-76
-18
-45
-87
-91
108
54
43
62
23
-74
6
-114
-20
-53
-126
-19
-73
127
85
-100
-115
-20
94
52
0
86
-49
-57
31
69
86
102
-61
-86
11
-115
-83
-29
54
-13
61
-55
68
-50
-48
-29
-121
-102
-115
-70
-3
22
24
-81
-83
46
53
-83
84
-87
-96
-40
-119
-44
-38
-13
-118
-66
99
11
72
-107
-28
-79
110
51
-8
-89
17
-65
-46
94
111
110
41
-57
13
22
106
121
72
-74
-11
-71
88
-115
73
-126
-64
-124
-66
125
104
85
84
-63
-117
-93
-54
-83
-9
45
-48
119
10
108
-72
21
11
88
75
109
2
-116
57
-67
36
30
77
42
-13
88
-31
5
-77
-49
-10
-94
118
68
56
21
-62
97
85
104
-128
-44
2
-28
-126
-108
45
111
33
-90
101
67
33
-101
70
119
81
54
87
-44
56
-44
-64
41
-106
39
98
-43
69
-14
118
-38
79
-5
62
-50
-108
-21
-61
-86
-26
-14
-17
110
61
28
14
82
-63
99
124
-83
-70
-41
-111
105
-82
73
42
-51
-22
-85
38
-10
90
-108
-18
102
-120
-3
93
-97
92
-100
-15
18
-42
-81
62
-114
-9
99
-94
-98
45
70
107
19
-112
-47
34
-9
-114
-54
-66
-71
37
120
-89
71
23
-3
-26
81
-8
-79
25
115
-81
33
115
81
-59
54
17
126
67
-35
75
-20
-53
101
124
-117
-112
15
77
-78
-71
2
-116
110
-81
-7
75
79
-27
20
27
-100
64
-5
28
107
-73
51
-27
-17
-68
-34
16
76
26
83
-122
-22
84
21
-28
-78
-6
104
-63
19
-23
-74
69
-52
-98
-71
-64
109
-77
-90
-10
65
70
63
84
-47
-48
82
-12
-5
-9
103
27
-35
-62
124
-41
-39
-49
-123
-112
-99
-71
112
-36
72
-67
-76
109
113
51
-113
-38
25
109
127
-89
-35
4
2
-119
-83
-114
-4
90
-58
98
114
-106
68
26
112
57
-23
103
-107
-31
119
-107
107
-70
-28
-54
-110
-99
13
41
-112
2
-13
-43
94
-24
-94
-101
-26
-86
71
57
-25
127
48
-34
-36
-123
-56
-127
-1
-94
-7
-91
82
-64
45
18
116
86
94
-79
113
-44
12
-96
125
-44
-100
-20
-25
-100
-21
86
-34
1
88
3
-104
114
69
27
100
116
-107
-83
5
-31
54
101
33
99
-21
93
49
93
-40
26
-91
23
59
-17
10
72
-116
-53
-11
-88
87
112
-48
52
-20
-116
120
-85
-16
-115
9
-15
72
-89
1
82
11
-44
58
-78
-109
11
127
16
-32
74
126
91
-123
17
-43
-2
94
61
72
-80
-23
-27
-19
94
-105
-121
25
78
-57
94
46
18
-101
103
-90
-97
118
98
58
-116
-17
110
-15
-39
122
-66
118
121
-9
29
-14
-32
-51
-79
-22
121
-83
33
50
115
75
88
69
-58
82
-87
125
-113
88
104
-97
28
69
17
12
38
-11
-53
53
90
-32
-30
83
18
-88
48
-116
-114
82
-122
-102
-25
73
-84
-43
86
-113
-49
-22
-53
108
24
-12
119
85
124
32
-28
74
120
52
-62
-18
-118
-24
8
3
61
20
30
49
-43
-69
-100
-72
112
-14
-99
21
26
13
-112
93
-102
74
-76
-72
-56
8
99
-16
49
63
-125
65
18
-101
103
97
19
-111
17
50
22
12
50
6
-76
31
88
74
65
70
97
-87
-50
22
-92
-12
42
108
118
-22
-41
-101
39
-58
56
89
8
118
15
-91
-31
91
-96
60
-96
-2
-92
-113
125
-8
60
-45
-127
-60
-71
-66
24
-3
-83
49
87
-91
-63
-31
103
70
-125
-118
-101
88
86
-39
-83
-56
117
-71
88
-20
-60
-25
-1
-35
76
105
-20
-49
119
-57
76
-40
59
119
-6
110
43
-61
-50
-13
54
-81
-10
28
-87
-104
-87
33
103
-118
94
-119
23
-13
-61
26
-111
14
-82
-6
-91
105
49
-13
-83
-60
77
44
-34
112
-35
113
-29
-120
-89
-102
122
-34
83
-58
-12
-54
75
-103
15
110
-116
-79
43
-102
-106
12
52
-112
-5
-87
123
-2
13
-42
-116
-15
-18
112
44
-47
66
12
92
-127
-17
-79
22
4
-98
77
-28
123
-66
54
-77
29
3
77
-36
58
-17
-2
-125
-117
-53
95
-8
60
-68
127
108
20
-77
49
-39
9
108
-3
127
-21
3
-36
-57
81
113
57
5
-96
28
4
-128
-19
-115
-11
72
-44
-60
15
95
-75
92
-99
-14
124
8
76
-122
-128
-24
1
-103
-105
-94
-46
-33
106
106
113
-44
-39
-46
86
-93
26
-21
-75
-121
-110
-109
-105
-19
-34
123
-90
82
96
-49
-70
18
-75
-128
112
78
9
73
84
109
-16
-21
-65
119
-91
-109
-17
-2
-38
-58
28
27
30
-94
100
77
-1
-18
-53
20
-2
41
-97
93
-68
-126
111
14
-114
46
-92
-32
-95
20
8
41
-72
84
101
-33
67
9
-61
64
39
-114
121
-9
-76
-75
18
66
-21
2
52
-72
-114
-51
-66
117
123
119
-10
35
-31
7
51
97
82
-21
-34
-105
8
-58
40
-90
124
8
-113
1
-70
68
25
72
113
-69
107
-28
-80
-36
-2
-72
-65
77
27
65
-18
32
-42
-119
35
-44
-111
93
-93
30
-101
60
-26
96
116
101
-5
-105
93
-15
117
116
-9
-80
-118
-39
16
94
23
34
-31
-82
-85
-126
19
114
78
-97
42
90
57
-49
-92
-120
18
-71
-118
122
-67
96
-57
47
13
-65
-36
-86
103
-110
-14
74
-1
106
-72
71
16
38
-90
25
14
99
73
102
-11
19
91
-87
-24
42
9
41
-49
37
126
-36
76
113
16
-1
26
45
123
112
120
50
45
123
121
-2
106
79
-102
9
82
0
-85
-121
-108
69
75
-116
-3
81
-43
-19
-25
-108
9
-121
-97
121
-33
-69
-61
35
-51
107
74
-117
103
127
35
0
28
32
-65
-16
83
5
-41
-28
8
84
43
40
78
66
125
-92
125
41
-111
48
-85
-99
3
21
73
116
120
-64
11
100
-89
-22
-86
-119
-82
-57
-99
96
127
86
-121
-9
-120
44
31
-67
41
-37
69
27
-91
-87
110
-75
41
1
96
50
-2
73
62
-78
11
-9
16
-61
-79
49
-60
-47
105
47
59
-113
76
95
21
110
-24
-118
59
66
31
-77
23
28
44
-20
-97
-74
90
-83
-115
39
-102
-23
69
46
123
-67
13
59
21
89
-82
-48
-107
-64
98
-87
-58
86
-24
-11
81
119
32
-13
-108
-10
-40
25
107
77
-52
-75
116
83
59
-10
-44
-41
-105
-118
-32
48
7
88
-95
117
-40
-21
-126
47
104
111
105
49
2
-37
50
-46
106
97
50
-45
-43
-36
-65
24
-55
-5
44
62
115
103
-94
127
-122
55
-87
80
123
-58
-25
-34
-14
24
8
113
64
18
9
-50
127
67
-88
49
95
9
46
65
-30
49
22
26
91
-110
-74
39
-112
10
112
64
-76
57
85
117
5
-9
77
-36
49
104
-105
20
-3
32
64
105
59
-69
-71
78
119
121
55
69
-47
56
86
-84
102
-36
-122
71
111
-83
110
-74
-33
86
66
-110
-38
88
-21
73
22
24
95
-58
-11
-15
35
-3
45
97
-126
99
50
-70
-116
95
108
107
-85
31
59
48
35
29
57
-7
-8
22
41
72
-103
-37
69
-69
68
48
-28
24
36
-46
-36
58
-54
49
29
99
14
26
-26
77
-127
83
118
-49
-77
75
79
-104
-13
-79
89
-116
-5
-100
71
2
14
-28
76
-44
-100
-20
-35
-50
9
127
112
-67
56
-48
110
-44
125
-4
-73
-120
83
79
87
24
-105
19
-71
-59
-99
110
8
-14
-116
71
-94
44
83
98
-114
-59
88
1
-35
-56
-113
52
-26
-87
67
119
-50
104
-26
-9
92
100
-65
-32
-80
117
31
-80
1
19
112
101
-124
-65
-14
67
91
-13
85
48
103
-88
-62
-4
-13
25
7
21
-14
-76
14
84
-73
-65
-18
-31
-8
-41
-89
-55
69
-105
-59
122
-10
20
-38
17
17
-66
80
-92
38
94
-67
-37
-5
91
-67
-17
20
-75
-63
108
20
-113
-48
-102
-126
71
69
-6
-44
16
52
-17
52
88
32
80
78
-10
54
108
-105
113
8
10
29
-53
11
-44
83
-16
53
-114
-49
-71
14
66
-75
82
5
107
-74
-115
124
-123
-59
30
68
118
68
-32
44
-56
-6
-62
63
96
113
106
84
-58
91
-118
-26
0
-109
-98
65
80
-80
85
-87
-113
-88
-50
-56
60
121
-28
53
52
-75
45
16
-52
45
117
50
-100
-76
-113
21
31
24
28
55
-108
44
-88
-72
110
57
0
-91
34
-26
-67
59
-48
-28
53
127
67
-66
-63
-76
88
20
18
-46
-123
35
-103
7
-95
40
-69
61
120
-10
63
-66
104
122
-40
-49
93
2
79
12
30
84
123
-76
88
-117
-93
119
-1
-105
4
22
66
23
-46
16
44
-78
-3
-88
-70
116
47
112
-97
64
-26
-73
-1
-22
105
66
-6
104
81
51
109
88
-28
-110
70
84
-102
-78
-91
-24
-27
43
53
106
-15
82
50
-102
-62
-86
-51
-58
82
27
59
-89
-106
125
30
-96
105
68
-63
-51
-120
-91
0
-69
-113
-83
56
104
-102
69
-31
-42
14
18
-76
-43
-110
57
-72
-47
-122
71
-67
99
-12
-89
52
80
63
-118
-40
77
100
-55
-75
-118
-87
-43
90
-12
10
-64
-71
-74
13
112
-46
-15
74
-83
-42
-32
50
-41
15
-80
84
-37
-113
-119
-50
75
26
-13
30
-52
57
-21
52
77
-111
-120
-62
91
-10
25
109
7
72
93
25
93
19
14
23
-28
-17
101
95
53
118
-22
-71
113
33
28
116
-13
6
-94
33
114
-107
91
-109
14
120
43
-111
23
48
21
-123
-22
8
118
92
11
-99
-76
-13
20
-99
28
31
14
-16
-37
-117
28
-105
-49
71
-43
-95
14
-25
11
-125
-89
-42
-83
0
120
-68
-31
60
31
-7
-29
63
95
1
23
-103
36
-51
119
122
110
63
-33
56
11
34
26
15
-33
-19
82
-102
51
-101
15
-59
16
113
-75
7
-15
110
-31
107
103
-63
113
58
-29
-68
7
-78
64
20
127
20
40
92
-106
16
26
-42
22
-66
55
-35
-108
58
69
59
-106
-99
27
-47
-37
118
-68
36
-21
-100
-82
-109
61
-116
113
117
-17
-39
5
72
-108
78
16
-53
114
21
50
-107
20
4
-16
40
-105
-71
-31
-47
-46
-122
-96
-62
-42
23
-2
63
3
53
-57
-33
-71
-64
64
-83
82
21
-38
72
-100
31
-10
49
-106
-105
106
-28
-20
38
124
-70
88
-39
-59
-84
-117
-90
88
28
90
-67
-23
96
3
-74
127
64
-33
122
39
42
59
-118
13
54
-92
-62
-100
78
14
-127
112
114
48
64
51
71
110
-95
-125
-101
23
2
14
52
-93
-73
-41
-35
-88
-60
-81
-125
6
-104
16
35
-105
-112
39
-44
-70
-11
-17
-121
42
91
-36
50
122
-104
-87
96
91
24
71
60
108
46
-110
67
-60
69
106
-54
19
62
120
60
41
-38
102
28
-75
-97
125
123
-39
73
6
114
-22
-62
-90
-79
-41
-53
-40
-105
-33
123
108
101
84
72
-88
-29
-116
-70
38
-112
0
-81
99
-86
-125
-48
47
-50
58
70
-105
111
66
-124
-94
86
-26
28
-70
93
4
-9
86
85
-122
-40
71
-71
12
-128
-14
-47
-13
-48
78
-13
-82
-48
-29
102
-31
-70
92
49
-101
60
78
-38
-57
76
97
-40
-39
-53
-113
99
-123
-10
-23
75
-103
117
76
-51
-110
-7
111
114
2
127
116
33
95
68
-105
22
-25
3
57
36
19
117
-105
-32
102
97
-36
-96
81
-50
-72
7
-30
24
30
-12
46
-4
-124
22
-108
-34
-79
-63
11
-125
-76
-30
-31
-26
-62
-70
-103
87
-99
-63
22
-29
-85
67
-107
65
88
110
-121
-41
90
-97
108
92
110
-20
-43
23
-86
-75
112
-62
15
-92
-112
-2
-5
9
-102
95
27
114
-93
10
-49
-83
-65
123
37
-15
13
-41
-63
-32
21
-76
-109
119
-75
-32
-67
44
-63
-40
40
-116
55
110
-48
126
58
5
-90
48
24
-99
19
69
29
61
-15
-51
27
-74
126
41
-100
34
-49
56
-54
-13
-49
108
-95
25
52
114
-1
-96
27
57
31
-91
0
-24
-8
-125
96
91
98
-99
22
68
18
54
-83
-24
-68
78
4
122
-20
24
-64
-121
31
-121
-34
-18
-53
61
-127
-96
-29
48
99
33
-122
15
22
-40
95
82
40
28
121
-62
-28
-20
72
63
103
-42
-39
4
-68
28
-50
31
-4
127
-97
26
77
-100
-46
100
-48
-90
-39
-66
-51
69
80
6
83
18
-91
-52
58
13
85
108
-30
-50
-25
-49
101
-111
-112
65
-92
-5
52
-33
40
-107
-46
-61
-6
-105
13
83
-123
97
19
-83
-109
60
24
7
-93
-40
42
-38
118
117
11
-21
-56
113
96
4
40
-92
101
-112
-86
68
-14
72
84
69
-119
17
32
-5
76
-77
-91
29
38
-110
-64
-106
-57
24
-39
106
58
79
112
-47
70
-56
-63
98
71
119
4
96
-2
56
98
28
-25
-52
-88
17
87
-98
76
-16
28
-95
65
118
56
-69
-34
-26
37
18
-107
-44
-6
12
-12
-14
-9
50
113
-40
-67
96
77
63
-127
-33
-124
73
-71
31
97
-60
-53
57
87
73
73
108
54
-76
-51
-111
33
-118
-52
-61
78
74
-84
-28
39
-127
121
119
-65
-124
-58
-47
49
-102
65
-77
8
-112
-14
33
-37
-103
109
112
2
-22
12
44
75
-11
90
-85
98
-32
93
-86
-80
55
96
89
-40
38
-61
25
123
-128
-32
6
34
80
107
-31
-78
71
52
85
-10
33
87
125
-124
-72
-58
-25
21
123
-50
-1
103
106
33
73
-30
-67
-46
51
51
113
-59
3
10
74
-75
96
-35
-76
79
49
-24
-78
24
82
6
15
-103
-48
108
-47
-81
39
-38
18
-21
-26
78
-119
-120
-106
-56
61
14
-25
-98
92
-70
-19
-87
-66
-117
20
-19
78
-73
69
-111
-17
-50
-92
-72
118
105
-90
114
-95
-68
65
-41
14
-66
81
-55
102
-88
102
-81
8
-31
83
-128
-103
29
85
104
-39
27
72
49
-67
114
2
127
49
90
-88
-54
-36
37
-112
-73
85
-112
-12
-40
-36
-121
28
85
20
-80
-123
-36
23
-45
18
-14
-36
-124
-112
-15
26
22
22
-20
-52
-45
-80
20
-64
-104
119
57
-68
-24
-61
62
-45
-57
125
33
100
67
16
-128
57
-64
-91
-124
-81
121
-60
-44
-125
89
-91
111
-91
16
-24
-43
-122
21
111
78
-103
-109
30
-104
-16
0
-70
114
59
30
-92
-85
35
30
-125
26
63
119
-7
-104
39
61
46
-96
112
-48
-49
-37
101
2
12
-112
-27
-70
-82
-18
-10
59
-128
-67
-91
66
102
-59
-125
41
-2
60
6
91
-110
-69
-128
-50
96
-39
-117
-109
68
36
99
27
-112
-111
-68
6
-20
57
-112
85
-44
4
84
-80
-72
73
-81
-81
-69
110
-70
15
-56
-77
16
-114
13
-99
10
121
-34
-112
-103
-18
45
-17
-67
15
-66
79
-75
-22
-53
-88
-70
98
14
127
-3
-18
39
10
-71
-36
-78
100
-76
-26
-121
-87
-91
66
22
-75
32
-118
36
44
62
-24
26
28
52
28
-59
-79
-70
-68
126
-12
17
101
-60
29
-28
69
17
-101
37
-103
-124
17
49
-59
-122
76
12
-63
-33
-84
69
-86
-75
55
42
54
-122
100
98
-50
-98
44
55
-1
-48
11
122
-70
70
107
108
-25
74
-48
-121
38
-88
-33
-125
116
-57
52
-124
36
-28
-75
53
-46
-123
-79
110
-59
118
-30
-109
-17
13
17
97
81
-119
-15
-72
-125
-55
62
114
-30
40
50
61
57
-82
-62
52
1
-83
-93
-128
39
62
47
74
-25
55
-123
108
-127
-97
96
11
-41
-21
-94
-85
-6
-5
20
6
-12
-112
2
85
-60
118
-117
-18
53
70
106
-127
-7
20
104
46
-37
68
83
119
-66
-49
113
-62
-15
26
83
125
23
6
-126
116
-124
-39
22
-98
-44
-110
-119
13
103
121
-106
107
68
-11
62
125
-93
-41
-42
10
-8
-19
51
79
-28
-47
42
45
110
116
57
22
-13
30
-108
-125
92
0
-105
-5
56
-58
58
-96
-86
-117
-14
-52
-29
-65
77
61
101
-56
-122
29
-48
-21
-20
44
-15
1
43
22
67
37
-109
85
-74
46
48
-96
-99
-121
32
-26
30
-81
-75
17
110
56
-75
67
-84
86
66
56
87
6
-9
-43
10
-77
31
36
122
-35
115
-113
93
-104
54
65
114
9
-31
113
-121
109
80
62
-19
31
53
29
77
-20
-111
-90
-8
113
-57
-89
-78
96
-60
-52
49
10
59
123
-18
4
91
-84
-102
51
2
10
45
72
32
11
63
-58
15
-7
116
8
27
89
-75
-49
-80
-108
83
115
2
-115
98
-91
106
-25
-29
-64
-52
-49
48
-78
99
-47
-91
-45
69
-39
49
96
31
-27
-77
-109
87
-18
-13
25
48
-106
-17
-63
6
-84
59
-20
-60
-17
122
-32
124
-113
88
93
-49
-65
-115
55
-60
59
98
-94
-6
8
-80
119
64
-42
67
60
-15
-122
-3
-91
-82
-23
-45
-87
-54
-76
-86
-84
-79
-90
2
-100
-17
85
-32
107
27
-80
49
92
-35
-52
-16
40
54
65
47
-34
-67
64
105
84
0
-34
13
-32
-124
35
83
-119
-56
-22
-123
-118
105
110
90
-79
-27
-62
72
104
95
-15
-88
18
-48
-67
28
-40
116
55
90
83
93
-33
-81
82
62
-117
41
-124
122
-51
-54
56
-11
91
23
63
-26
71
-14
112
113
15
23
34
-34
71
-89
-85
26
-103
-32
-82
60
94
-18
91
-20
-100
63
30
-41
35
-33
-111
-34
-5
52
-76
-114
63
-106
80
59
2
-11
16
91
45
57
125
-56
-32
-70
112
-121
56
0
-86
-19
40
-119
118
64
-36
45
-49
-103
-100
-113
-71
68
-93
74
92
-87
-118
14
-39
66
-91
-46
73
35
42
-101
-33
5
-71
-9
65
-59
7
-29
49
23
-79
-6
-66
95
65
25
-123
5
65
125
83
-17
41
-101
71
15
61
63
-88
-21
-62
80
-22
-51
57
-79
89
26
-105
-18
-31
45
86
-61
83
-1
-128
5
-15
-84
-125
39
-53
-34
3
-5
4
63
104
-87
24
-91
25
101
62
106
-104
-114
-59
-12
-30
-3
-17
126
126
-33
73
-93
61
56
-31
-30
-104
-107
-34
-62
15
-93
-74
-22
105
27
-25
-77
81
13
-104
-128
19
-21
88
-124
0
11
-63
-117
-56
-11
-78
45
118
-105
-113
-19
-63
122
102
-68
-78
113
112
2
-107
72
120
122
29
-106
36
34
-2
73
124
42
-48
-125
-8
-101
1
11
35
12
113
11
90
41
112
92
-90
-102
-30
-57
4
49
16
93
82
7
4
110
34
106
-66
-29
-61
-91
-88
-100
-25
-64
38
-39
-91
-116
7
55
93
-98
-24
127
4
106
-39
-21
33
42
-122
107
-25
123
-57
83
-87
119
63
110
89
39
-106
-125
29
60
62
-70
127
-47
71
11
-65
-101
-65
-57
-43
36
-14
101
101
71
118
-27
-26
117
22
-54
-62
-100
2
105
-41
-91
-54
-118
5
91
-87
65
4
-76
-71
-101
-76
110
119
-60
55
96
-105
37
-125
55
-112
-4
106
78
57
120
-50
-39
-115
-6
-91
-104
20
-106
49
-125
120
50
17
-29
33
-59
60
24
-103
-98
-14
-58
-94
94
-4
-119
61
-15
-101
-65
89
-10
-1
85
-109
56
30
-29
-93
100
-128
45
-45
93
63
126
-82
-2
13
77
-117
89
93
-68
111
54
-39
-102
-47
-84
-17
81
43
65
-37
-106
-21
52
-17
-123
-31
-120
-91
119
20
29
21
-108
-24
-31
7
-87
-122
-75
43
-29
51
-84
-9
-35
-89
-92
-46
-102
30
94
-56
88
29
-3
-20
-93
-91
-10
7
-88
5
-22
51
58
-103
-8
44
87
-26
32
-53
-84
50
51
-128
60
64
35
-126
-14
80
-118
-7
70
114
70
77
83
2
-42
-114
-111
67
45
-32
8
77
-59
-107
88
122
5
-121
-124
104
18
122
-103
-117
57
-102
-115
122
108
-30
-118
15
35
-4
119
-43
-89
62
-9
118
109
106
68
-48
84
106
72
34
29
67
-50
59
-95
-29
-12
105
96
-85
74
17
88
75
-19
53
112
98
104
-79
1
-102
-77
117
90
-74
-123
15
-117
-67
-100
7
-86
126
-35
102
37
-99
-56
107
88
-48
-47
80
61
-120
107
-34
-55
-18
-88
-11
44
23
-83
78
-87
-48
-88
-125
-69
-9
-112
80
83
-13
83
-76
-97
-7
67
71
-87
-18
-25
86
-128
-101
-55
95
-72
68
120
-123
122
-38
50
-124
-17
15
106
-1
95
-86
105
52
19
-54
-97
29
10
98
-68
60
-120
-30
19
-7
-9
66
111
110
61
32
28
38
84
126
74
7
-123
-51
-63
68
-100
-29
10
8
-107
95
124
39
-33
18
-82
-1
53
-8
92
-21
84
41
74
-109
1
88
-83
-80
27
23
29
-120
-86
86
61
103
-126
8
111
-110
74
17
107
-96
75
92
126
67
-5
-123
-33
32
-25
18
22
12
-71
101
11
49
71
-55
-92
34
-45
74
-122
122
48
-96
-41
43
91
-71
127
7
39
-51
-52
-4
-107
44
18
-22
-124
46
50
122
63
-79
65
64
-90
23
65
-28
98
41
107
49
69
-41
-54
-89
56
103
-99
50
6
8
-14
59
26
51
123
64
19
127
-41
108
100
90
-21
-50
46
-121
-103
2
-26
88
9
-124
-88
92
25
75
-72
-22
-29
-97
-51
23
-29
-68
-106
-109
-42
-117
81
-64
-90
-114
-18
126
54
-89
-69
-25
-80
2
85
120
-51
-56
119
60
100
37
-36
8
4
113
18
35
-43
-62
-86
-81
-92
62
99
-28
-116
-125
-123
42
19
-14
89
115
29
-109
120
57
96
-108
94
-44
-11
30
31
-44
120
-19
-23
-66
-30
-86
29
-2
16
49
-51
-66
-54
112
-66
-50
4
27
52
-97
-116
74
-39
-2
61
26
-88
-108
-62
49
122
59
-70
-126
-87
72
-123
-32
-46
72
-38
23
-55
-127
-54
50
30
96
112
110
104
-37
-49
7
-39
110
-6
-70
63
-50
72
102
-25
76
-19
-122
-45
-57
61
-14
98
-44
41
-69
-42
4
-63
-99
-83
-10
-18
-54
-28
-55
-110
-21
-9
90
78
0
13
-68
102
11
124
37
24
27
94
101
-37
110
-95
99
24
-32
16
10
-18
117
122
-109
-68
16
-68
17
74
86
75
99
120
25
-46
47
89
75
88
88
-86
-5
80
-26
115
18
23
-15
-86
-52
-55
-117
-82
-4
-120
18
-41
-16
-3
-44
-21
7
-96
41
-37
-38
52
-40
28
12
73
47
80
-36
-77
5
-60
-40
95
89
106
71
-58
19
-72
-65
-62
123
125
110
32
10
-96
-44
21
124
-104
-55
-33
7
-7
-21
-119
112
20
-28
-50
83
-84
56
-100
91
48
82
-65
-96
38
-34
-106
-97
14
109
25
117
63
-1
109
-15
92
48
-20
46
120
113
-91
-52
9
18
-1
10
-63
-113
74
70
-4
-65
53
-96
52
54
-111
51
-112
-58
117
11
55
-19
-122
-33
-38
-78
-126
92
44
119
-109
-70
-116
-64
88
-90
-50
-27
112
115
-126
-14
100
114
44
32
41
96
-49
29
-63
29
8
72
1
2
-73
71
-63
-34
-15
73
-93
-70
-40
110
-43
116
-114
-14
88
68
46
-87
-121
57
30
-40
96
-12
-28
52
-8
18
-101
-128
32
37
90
8
-79
49
21
111
42
-100
75
-56
24
30
27
95
-115
8
-43
3
-3
0
103
98
12
-33
-37
113
37
-83
63
70
-46
-41
-19
-82
-75
-76
-66
33
101
-73
31
98
118
28
71
119
-6
-58
-74
-27
82
61
-88
104
39
-89
61
24
21
-81
-22
-88
-101
-118
3
-69
100
-104
-34
114
97
63
-103
-49
116
-101
-61
56
47
-60
-32
59
104
20
49
60
-117
-30
-103
-65
-79
8
-17
-112
-30
-73
-94
-121
40
73
5
123
-29
71
-33
47
18
-109
98
-117
-101
-42
-21
-87
-95
-75
2
14
110
99
-26
23
102
-111
-81
-67
-45
-107
61
-52
-101
62
-24
-22
-86
-76
117
98
94
-26
-33
-39
50
11
9
-55
-84
-71
-35
-90
-100
89
4
3
-16
5
-6
-7
13
94
-4
-50
120
-124
120
-22
116
-84
-102
85
110
-27
-116
67
127
-92
-62
-55
-88
12
-128
-31
55
28
-45
-114
-47
-53
95
-4
13
46
16
46
-63
-114
47
-100
-67
0
24
-67
-55
75
-26
-76
72
57
-84
-36
-73
2
-57
41
89
-92
-44
-51
-44
30
58
-81
50
7
-105
-69
29
-52
-62
98
-86
-109
-108
126
-121
-21
-32
103
-114
-15
-99
22
-122
24
-8
121
33
98
14
-44
-26
105
97
82
24
118
-83
19
18
123
-94
106
55
-108
82
12
2
-15
-121
-61
72
62
77
-86
26
-38
1
-128
-112
-84
-118
5
96
-99
54
115
75
106
-125
-115
20
25
-123
87
20
50
110
-7
-21
-116
121
127
113
-32
64
-107
18
-30
119
15
-78
-99
4
109
-105
-93
116
-73
-104
-16
34
6
49
13
-119
-125
-68
3
62
30
-28
11
-39
-21
-118
-98
116
86
115
120
-35
-34
69
116
78
-124
-32
62
-90
70
-13
100
112
124
56
-107
-99
-13
-22
83
38
-38
-127
-72
-124
126
104
114
112
3
-80
48
-94
-56
126
-32
38
46
50
4
-59
-43
18
-102
-60
-94
-6
24
-52
-108
-121
83
72
-128
-33
100
119
126
-23
-2
119
-95
-25
-14
37
40
71
125
-93
23
-111
-76
-23
-65
-2
-97
-123
63
39
92
-9
116
-92
99
27
-84
110
-74
-122
-60
-96
-55
-40
107
-40
31
-55
39
-128
-104
52
56
43
26
66
-118
96
-53
-75
-112
91
-90
-63
-105
8
14
28
-69
-35
89
41
-22
36
-2
-7
107
55
6
28
-32
50
-79
77
94
-38
-94
-18
79
85
102
109
113
58
10
90
-9
-59
11
118
112
-92
32
-7
-55
23
-56
115
-13
8
94
-93
63
-84
-28
36
-41
9
50
-100
121
-54
-40
89
56
113
118
-40
84
-70
-106
-72
80
52
57
-126
-92
16
1
19
-97
45
45
67
-44
10
80
-65
-120
116
-13
93
72
28
-5
113
25
89
-110
10
-32
15
-94
53
-45
0
50
-6
36
-126
-59
-1
16
73
-99
54
-120
62
40
26
63
16
55
-108
-66
115
-117
69
104
44
-68
-68
119
-124
58
-78
40
-82
-41
58
4
-7
60
-53
-106
-41
-101
-76
90
-117
-9
2
-30
-76
-2
6
98
-21
110
-85
17
-22
-38
-73
5
124
-41
103
-62
98
102
52
-4
39
-71
-1
-103
126
-65
-78
2
-9
-98
95
-117
123
-128
52
72
-91
-28
126
83
-82
-20
25
2
-80
116
-118
-67
3
-46
2
72
106
113
-12
13
31
72
11
-111
53
62
-120
17
103
-33
-101
-85
50
-66
12
-103
-65
84
-110
-104
-98
-26
-26
4
-67
-102
-74
-71
41
-4
-116
-48
-69
-125
-10
55
-39
-30
14
-107
-16
9
-10
44
73
117
-115
106
23
16
5
17
103
-78
-43
-94
126
-87
-88
-48
-121
-60
-55
99
-90
29
59
68
-43
53
69
107
-69
107
112
29
18
-19
116
-9
-97
-9
-56
-99
94
95
70
1
116
56
-56
99
96
-109
54
62
-64
95
-60
123
-99
-112
124
-17
-87
51
82
99
76
33
56
-100
-59
-72
16
12
-9
3
-65
-69
56
54
-43
-88
116
-57
32
-72
44
-58
50
11
-106
-23
89
85
116
-81
-31
-68
-40
20
43
-124
50
-19
24
-101
80
-109
95
-117
-75
-21
98
-13
-50
101
7
-93
-99
-28
-126
-38
-50
95
88
87
30
38
-63
-49
86
118
19
-6
20
123
-106
-37
-85
75
3
119
-100
-22
21
-49
105
-37
35
47
-15
-46
-2
68
17
93
-42
31
-103
-114
-68
46
-110
106
-37
92
71
116
26
-64
-81
-26
-44
-74
49
-37
89
71
-68
-91
-11
-3
-52
-101
68
59
-117
33
84
40
-103
-88
-125
-106
53
71
-47
-26
85
101
-49
-109
104
-21
-128
-115
-17
66
-15
122
110
-73
-27
39
45
6
113
49
18
23
-6
10
-97
-120
-122
-22
18
-114
-23
25
60
-117
76
-28
7
23
-88
117
-122
119
75
22
-81
-55
35
-97
33
65
122
-81
-114
50
21
-103
-8
17
41
24
5
-73
61
-124
-54
-16
-18
72
-75
-121
82
-126
31
-72
-103
109
69
-101
-80
96
104
7
29
-8
21
53
0
111
-75
-90
55
90
-21
-33
-126
35
-110
-103
-33
-72
122
86
33
-85
-119
-96
-24
98
56
44
-105
-32
16
-50
19
-100
17
118
-21
-26
28
-111
-60
116
59
-71
59
-32
64
-121
32
-76
-83
-30
46
-53
58
-101
-120
-97
-121
20
53
-119
-78
7
-26
35
-89
-66
-100
109
-19
96
87
-78
11
118
112
-106
-114
-2
18
56
-98
46
-61
-122
45
117
-124
112
101
-109
102
-34
-56
-117
-101
-61
119
6
34
121
88
-34
93
53
-126
98
-84
-100
-81
-34
7
-74
96
-15
117
1
-5
6
109
32
-6
-125
-50
-18
29
21
-20
57
-26
-40
61
-81
-33
-26
59
-97
1
-5
-52
-37
-120
121
-65
99
32
-75
57
-41
103
-101
-94
-10
90
39
92
-67
-59
-120
-109
115
-124
1
68
113
-49
-96
-78
-3
-61
-14
25
-82
-21
117
36
105
-77
-75
27
44
-113
3
-112
3
-99
-99
-113
-116
-78
21
-7
8
83
12
-1
16
-105
19
-38
-4
122
-49
39
-28
17
116
1
-23
-105
-76
48
105
34
-94
92
80
27
-24
15
-107
-117
85
-49
-26
2
-19
-63
115
-46
-61
8
74
28
-21
-39
45
-72
-45
-128
-75
14
95
69
62
-67
47
-67
-34
7
-33
15
87
6
-101
121
-15
6
119
-26
122
97
94
89
-43
-71
9
106
68
15
-86
-70
-122
69
102
-55
-56
-49
98
-20
-119
-16
-110
112
90
-43
-120
9
2
-59
-97
55
-21
51
127
53
72
51
115
109
-74
117
-2
-30
-106
-52
37
118
45
63
-114
-55
28
36
-95
127
-101
-6
-107
-72
73
-104
14
1
-58
-14
-78
-124
115
-18
120
-60
16
19
-92
0
-33
100
-91
-81
-96
24
80
26
-100
-65
-24
-32
-102
-104
43
108
-26
46
-116
94
91
73
69
-128
-74
25
31
-19
-57
49
53
48
96
-47
-107
36
-42
97
18
-33
80
-91
-118
76
-11
53
116
52
-45
124
116
-43
-27
-53
125
-57
36
99
74
34
-71
-4
71
85
59
110
-124
88
61
-92
84
-18
75
-7
83
119
81
80
106
123
-14
-105
-124
-125
55
64
-116
41
-22
-22
3
91
15
95
9
-97
21
24
15
-9
-3
-27
-107
10
-81
-128
-111
101
-27
-86
77
87
-93
21
16
67
49
-34
80
-115
-26
-7
-89
-14
-70
-29
113
-32
48
-3
91
-60
59
53
104
102
104
28
36
-72
120
-86
6
62
99
-16
-111
-80
57
-107
-68
2
-68
-104
-112
-105
-55
94
-103
-118
-110
-125
122
105
16
102
59
-83
-28
-121
-18
-77
-32
19
-18
-39
47
41
-102
74
-89
60
-38
-98
63
59
37
-116
-43
-65
9
4
2
85
-115
-108
1
-71
-64
65
-55
70
36
75
-39
-127
52
121
-67
61
69
77
-84
113
-10
-49
86
-83
-78
-122
8
-30
-41
64
-108
-40
89
124
53
-54
-118
-114
-97
102
107
122
11
-44
-21
-81
113
-15
0
-126
-17
40
113
-49
19
57
84
81
-12
-99
-18
39
-91
57
-5
21
-110
109
89
-86
65
-32
-86
-63
93
30
81
20
-1
84
-91
-78
35
-104
41
120
-121
-74
89
-84
-63
73
18
-2
88
-13
120
-96
50
68
58
55
-68
107
61
-10
-81
-124
43
0
91
91
106
18
-45
52
104
119
-106
-35
-125
23
-34
-102
-45
-40
-47
-112
-69
-5
12
86
-107
93
-31
-49
-84
-58
111
69
-100
57
-51
-30
-127
-128
117
74
-88
39
-31
92
126
-43
-104
114
32
-32
36
-20
51
97
67
-16
-80
3
-87
-82
-92
24
115
-42
8
-125
-69
4
-8
-90
44
37
47
-52
-3
-42
-105
-79
-33
-121
25
-83
19
54
-93
29
-79
52
-82
25
60
-56
5
-85
-91
-41
-53
15
-82
75
-14
-49
100
13
-79
-1
-90
118
-54
105
-124
-63
-40
97
-83
95
31
33
-70
82
-102
-54
-110
-86
36
-62
-15
-36
-103
-91
-106
50
7
-7
120
-39
90
-124
83
49
84
46
113
39
16
50
24
-23
24
20
59
-19
100
16
61
40
107
97
-25
88
-26
71
70
86
-77
-34
46
-128
-105
-105
101
12
21
5
-124
103
-104
-110
50
35
13
27
-14
74
95
49
-8
72
-113
-85
-22
60
-74
89
-95
59
-78
106
-83
-81
127
42
25
44
23
-119
82
32
108
-91
-125
17
-122
-81
-46
-121
-57
84
8
67
87
-88
17
29
60
-9
67
82
74
26
-111
68
-33
100
-69
-39
47
75
0
18
-41
125
-29
14
-43
-95
105
62
-42
-24
114
-64
-72
-109
17
116
-48
104
-55
62
68
-64
47
21
127
-26
-30
124
-9
101
54
-55
50
-124
-56
-53
-112
58
67
-70
80
116
80
-38
15
75
-90
-108
46
17
-55
75
60
-38
-62
-98
100
99
12
115
103
-69
-5
-98
-117
102
40
-7
72
-59
95
-48
-33
4
35
-104
8
39
-12
65
-52
-54
58
-67
-79
-35
102
107
-94
93
0
-62
29
-122
-46
-104
68
45
121
110
-63
-106
-20
-21
-40
115
-84
121
89
126
-59
-4
-94
-81
-55
-128
-90
-25
73
-25
-120
-79
-119
37
123
-125
-62
-91
30
-104
-7
-67
-38
88
-8
65
30
-7
85
39
-125
-51
-103
-105
98
1
2
56
33
-47
11
-79
77
-98
26
12
-17
30
37
-107
49
-59
-117
-42
83
-56
92
73
24
101
23
-22
-47
22
122
-1
-1
-71
80
61
-8
7
108
36
-60
-52
53
76
-68
-78
-30
27
-96
104
-72
16
-39
-16
-88
-123
-15
-33
-97
-52
-16
118
-5
-22
-53
51
-81
-57
-114
110
103
-43
-87
-27
83
95
-61
-86
25
-61
-95
-60
31
-72
-104
-9
108
-122
57
58
22
111
60
-74
72
-85
51
-96
-6
-50
38
-42
16
77
64
-3
67
69
-2
51
-43
78
3
-100
-56
-97
14
-23
42
2
100
-6
17
51
-105
-26
6
87
-29
-66
82
-66
-14
-13
-19
-81
0
-115
42
-42
9
-15
-47
43
-79
-32
114
-40
126
25
-65
-47
-120
-104
5
86
-96
-10
-27
-58
-49
43
106
-10
49
-40
-125
112
-52
85
-3
72
-71
108
-111
34
-94
-124
-40
-9
12
-79
11
-85
24
-87
-24
66
-30
-15
53
-115
-121
-92
17
-15
-83
-73
-77
81
-88
-99
28
-128
80
8
-78
80
53
-74
-65
17
116
84
56
75
-28
27
-93
-44
45
29
2
-11
100
-1
-6
-66
11
107
79
-59
-92
114
-101
108
7
51
-120
105
36
-19
105
-18
-75
6
-64
55
-84
76
-43
-120
106
-110
-76
-120
98
66
88
39
13
105
-19
79
12
82
63
-4
-15
-71
-25
0
83
-45
68
-108
43
-116
0
-65
-10
-85
-78
-6
50
-67
-42
-128
-10
-11
-82
2
-78
-123
73
40
10
-89
88
-34
4
35
-117
107
-52
-20
-111
-13
-104
-78
55
90
-74
-63
-126
-85
89
33
100
55
111
61
-70
53
-95
-121
-102
114
-53
69
124
-45
-70
-55
11
-76
50
100
67
-124
-61
-115
21
15
50
39
100
-24
-18
64
-127
87
124
124
-90
-43
30
-96
52
-17
-4
-83
47
40
17
-76
84
30
-66
106
88
29
80
0
61
84
-22
-124
-99
33
-37
61
-116
-100
44
-121
-90
68
10
-79
15
38
97
-32
118
24
-15
77
67
-7
-70
104
-20
-64
-127
-54
58
-69
83
-71
-68
41
-34
93
109
-93
64
-26
-92
52
99
28
44
-108
-78
-101
44
-6
46
74
97
-120
78
58
53
-25
121
-119
94
-28
-83
-21
37
-14
94
13
86
85
31
-39
72
86
-43
39
-122
-7
27
105
-67
-3
-99
118
43
-102
33
-121
93
-8
-107
70
25
119
92
-47
-45
-70
35
19
-52
67
0
-124
-70
-4
127
-32
-72
88
-4
116
-66
13
10
-119
72
-69
-114
-91
36
45
-24
-82
45
-75
-67
-37
-10
59
94
-128
-59
114
-17
124
-61
84
-94
92
60
-33
117
121
74
-33
-4
51
-94
-12
15
-22
37
70
83
-97
9
-65
89
13
6
-47
52
-75
5
116
3
69
-46
-117
67
-74
26
67
97
-41
-71
22
10
-38
-13
-37
114
100
7
61
-36
-18
114
-15
-20
127
-17
47
70
127
124
-128
26
-12
-102
99
67
46
111
22
11
94
2
-26
117
91
8
-48
-69
2
72
-26
74
-93
73
-99
50
3
3
58
-8
-62
-42
105
-95
67
7
82
75
-72
9
-116
-74
7
47
31
53
-26
-72
-15
-97
94
17
-105
-14
23
-53
120
-125
45
100
123
127
-29
-116
15
-6
-107
-40
-41
40
-51
114
0
127
71
17
-71
80
-35
-44
-101
-20
124
-120
-9
-73
-79
-110
-14
-120
-66
-46
-77
-95
0
-33
-76
-15
-68
-114
-4
109
12
-47
-74
-76
-55
-92
-29
-111
-114
-76
111
68
-74
49
79
78
-3
-64
122
-11
-21
70
115
26
-35
-86
-92
-39
-13
26
60
-100
31
57
-107
-24
18
-109
-44
73
34
109
115
-60
-103
124
-98
-4
-32
58
-65
-88
127
-120
15
-85
-94
107
-97
103
64
-84
-120
-48
-6
-59
-99
117
34
-23
-1
64
45
-113
72
-67
34
-106
-13
-67
-41
65
121
44
91
-111
17
50
-22
31
-2
98
-46
46
-5
13
88
61
75
-14
-12
123
-81
-120
42
114
-111
31
105
47
123
-8
75
-71
12
-34
70
-42
98
91
-8
68
46
-33
-50
-47
106
-6
-15
-53
-70
77
96
-122
-18
26
-119
88
-54
83
-92
-35
-23
74
57
40
-49
124
-55
66
83
-18
-74
35
89
4
78
105
-114
-127
27
111
30
64
-35
-66
-20
27
-19
-77
96
40
10
-16
-114
4
18
-29
-20
67
-126
-27
-116
114
125
-60
-13
-113
9
70
-109
-37
-73
-48
-98
121
124
-12
-100
19
-71
46
122
-79
84
65
46
64
-112
122
32
7
-47
125
107
88
-1
58
-81
121
84
-115
-7
7
81
-53
-78
-45
51
-99
-118
-98
32
39
-106
-122
54
-93
121
23
-95
-74
105
31
-24
84
40
-72
-109
-27
-18
108
9
109
18
76
-70
39
10
-32
36
-89
-78
85
-58
98
-60
25
50
-123
10
-78
50
46
22
-120
-51
-45
-11
27
27
-115
-73
104
-109
40
-96
112
21
91
21
118
5
112
-32
-69
-93
-17
-21
93
16
54
117
-77
-20
-35
23
-125
83
-17
20
-41
27
-21
-63
34
-2
59
55
94
-39
-48
101
101
24
127
63
-29
-125
-123
-109
33
-72
-95
-25
-121
-48
84
-44
-106
-124
-75
121
-97
41
102
-94
35
66
-56
-22
-79
-78
94
26
-24
-119
94
36
-60
-26
22
-1
-115
92
26
-65
-57
-36
59
49
-33
-66
51
13
126
94
75
13
-31
12
-31
112
43
15
-37
-119
57
122
29
-102
6
-61
46
18
-25
-111
-42
-105
11
-103
-35
-67
-122
-84
9
34
86
-34
-102
54
-30
18
88
24
-37
42
-2
85
-49
121
-46
5
-72
71
69
-113
-77
-25
105
123
-114
-120
-91
-30
-21
68
33
-66
-37
-57
-93
6
-73
74
-17
-24
20
118
64
85
-128
3
50
124
-115
-99
-79
-52
-56
-61
64
124
120
127
71
89
-62
72
76
64
30
-95
-17
95
117
6
114
61
-3
93
-78
43
-57
-62
-109
-120
-49
47
-40
101
2
-19
118
26
60
-10
-13
-26
-3
24
-126
103
109
42
-19
-47
-13
41
10
-9
-7
-51
-74
-1
-12
124
84
106
-43
-80
-82
90
100
25
125
30
28
61
42
3
32
-26
83
-42
118
107
-46
121
125
-62
93
22
30
-29
122
81
83
54
-19
127
25
127
-111
-90
-21
26
-100
98
-121
-121
79
85
21
-82
70
-20
98
36
44
111
-73
-17
98
-58
-35
1
-32
-52
-11
-22
45
82
-125
-118
107
-99
46
-89
-12
-87
61
63
-114
-65
114
-109
120
-59
37
34
38
45
37
-71
-22
53
123
4
-53
-2
-43
116
-114
34
116
-32
35
-98
88
67
-84
-77
11
-18
-4
-83
-81
35
-52
-19
40
34
-82
21
84
-11
88
71
61
62
-120
-50
98
-115
23
-81
-55
-70
-94
72
-66
82
72
-49
5
88
-37
-107
-11
35
56
-113
109
33
-106
-37
-41
119
94
80
18
-56
-22
12
-17
53
-27
101
20
112
-22
-72
73
75
55
59
92
-105
53
-46
-32
44
15
-47
-50
-65
-95
-48
36
-6
22
123
103
-6
-104
-40
14
-10
-99
67
-8
-56
43
-95
28
94
-95
-97
-113
24
103
-99
-59
73
-68
80
-53
-7
-82
-73
10
67
-81
108
22
-105
52
-78
104
34
100
-50
-53
-32
-73
62
-101
-122
107
-38
18
70
24
96
33
6
-60
114
-28
124
-27
81
-34
-90
71
-97
-25
10
62
0
-76
-51
-29
-112
-19
-43
100
6
-32
-13
-71
57
103
-102
-31
-91
-89
70
68
-2
10
8
-109
49
85
10
80
77
-6
-80
10
-62
18
108
122
24
-66
-12
18
81
29
-46
-14
124
59
92
65
-74
-6
76
106
115
58
4
-51
-46
52
80
-8
66
88
8
-96
15
122
30
118
-75
104
-33
-26
-20
94
-62
127
60
48
-45
-90
-62
-66
38
-87
104
-60
48
105
57
15
10
-29
71
115
-89
-100
35
-58
-23
62
34
40
-112
-78
-54
-68
-50
-42
37
53
5
-24
27
-3
2
-22
79
61
111
-99
-62
34
42
6
-117
-50
45
25
64
-112
35
40
26
-33
-4
107
11
2
-74
-62
55
111
122
40
-72
7
-61
-41
-109
-127
-29
9
57
-12
5
120
120
74
27
55
17
74
-16
-30
-55
43
-76
15
-67
-115
62
26
-10
-51
-41
31
-114
73
-114
21
76
87
-9
111
-57
87
-103
-95
99
-73
-118
-45
-94
24
-10
-92
-98
-105
-67
-78
-50
-69
-8
35
47
-54
-66
-86
47
127
125
40
106
-6
112
25
-69
66
-25
-35
125
125
106
123
59
-72
110
87
49
84
114
69
59
40
113
-93
32
76
-109
-35
11
38
-7
124
97
-103
-3
64
-28
98
87
-104
45
124
-118
-50
123
45
-110
-67
98
51
-51
43
-14
-26
-58
-49
1
-68
-19
-39
-9
-64
24
29
-63
73
-24
101
31
-61
-72
-33
-15
81
61
56
-35
26
-102
-11
19
14
107
41
40
18
9
-67
-104
-21
93
-86
-109
71
77
-86
-20
-58
11
-11
-42
47
35
14
51
-102
-125
13
65
-50
-98
-70
-55
120
-52
50
74
-46
3
-48
48
-6
-86
-125
55
55
-121
62
113
116
-4
21
32
87
67
88
8
36
13
-106
-106
-106
-19
101
-107
91
45
11
17
59
57
-47
43
72
-49
61
-47
22
-95
-95
13
38
44
-51
-121
123
-1
-38
-86
78
-87
-48
14
-126
-124
-41
-69
-122
71
-102
-93
-39
-117
-108
-70
3
-61
-22
113
-33
-49
29
-66
114
-105
-120
37
122
78
35
104
-93
-109
-76
21
-9
-89
-71
44
5
125
-127
-107
79
5
91
-117
107
17
74
113
-57
54
15
62
100
-92
-27
-83
80
-82
-17
-122
19
22
33
-87
50
41
-53
35
123
92
-6
79
53
6
-90
-77
32
-90
-14
48
-98
63
-99
-88
-45
114
81
99
-100
-60
-5
60
-114
14
-2
-73
-36
60
-32
-124
71
-34
-84
-128
-45
-86
-71
-64
-18
46
77
44
8
124
88
-93
120
58
2
118
-70
61
10
-8
-100
96
2
4
-37
-39
-8
12
28
71
-92
18
-114
-55
-50
53
-77
-118
115
87
-72
80
-94
-35
10
10
5
-10
60
-78
66
44
-58
-58
88
-110
21
3
79
-5
86
-12
68
122
-43
-47
80
17
-25
-19
76
-72
8
120
65
-32
17
-33
42
47
106
82
32
51
8
122
73
-50
97
22
-111
91
-104
67
-37
4
64
-41
122
-8
-107
-105
104
71
7
81
106
47
-72
88
-91
104
21
84
-101
-38
13
7
-54
22
-91
64
-125
13
-73
5
-103
-88
23
-10
-123
47
-5
-122
117
-22
-110
-64
62
113
-28
67
-58
-33
-123
96
-104
13
48
-128
38
74
103
93
-65
-66
7
16
-110
61
-76
111
54
0
6
89
-47
70
-102
25
-8
65
83
-63
-3
-68
120
-21
6
123
81
60
4
106
-72
124
-54
0
113
81
62
-125
34
7
-102
-121
-75
-31
-69
-18
-115
-53
47
51
125
-37
108
11
102
-39
-18
74
4
-110
103
-127
-15
10
32
-73
93
-17
-43
-106
-10
27
-22
6
32
95
56
-108
12
-16
-68
-122
-119
-125
-16
22
-115
65
-65
42
96
0
61
31
-51
103
-61
87
76
12
91
68
-38
-41
78
75
90
-74
66
90
-8
74
119
106
50
-127
-19
21
-33
-12
114
-52
-2
41
91
16
17
16
-68
-77
-99
-105
-22
125
33
-53
33
49
87
98
-14
6
-22
7
-10
-33
-55
-2
13
-95
42
-107
-62
30
42
50
-29
85
-63
-118
-90
-85
84
64
-7
-59
-5
38
34
-76
-54
77
-124
-126
40
97
58
126
-11
72
-63
-85
35
41
-115
91
13
-37
46
121
68
-24
-41
102
3
-23
28
22
120
72
-11
-31
-107
105
16
18
-84
98
48
-18
-106
15
41
-57
56
-79
44
127
24
98
118
-29
-74
-123
98
-121
-16
93
-111
-79
-67
-14
108
-8
-113
41
118
-27
-86
102
10
-50
-57
-11
58
100
-62
-118
-12
-68
-9
-93
-103
30
77
-118
-96
40
-114
-101
-46
84
-57
75
-97
-8
15
45
-53
-91
-123
-112
-12
-83
-37
-101
127
115
-116
-11
-13
-58
44
-79
28
-75
-68
93
47
88
88
123
-31
-31
-58
-5
90
59
-114
-84
-74
-2
15
-47
-92
-122
-34
-81
-86
-107
46
-87
1
1
-125
-125
-51
-70
-36
47
78
52
-5
-46
40
-58
96
-91
112
-29
-103
-68
102
-78
120
-62
116
-126
-70
4
-36
75
58
55
-72
88
98
-37
-58
-29
36
30
2
18
113
-37
30
103
-19
-49
-3
-21
-24
127
-32
-98
28
-34
116
22
14
54
-97
-51
18
15
92
82
76
0
-105
97
38
125
70
105
-84
-9
48
-128
-85
32
91
16
57
95
3
14
-5
49
-90
-114
-82
-104
101
103
52
22
122
12
112
-2
82
50
-8
-41
-112
-103
93
36
-123
-38
65
86
-55
5
-38
-26
94
-57
17
-110
39
27
14
94
37
-126
-94
-48
-57
108
62
-40
83
-13
43
-40
51
-70
-50
-74
-35
-98
101
15
-84
-98
62
-55
103
9
-36
121
106
-110
28
67
79
92
109
-64
34
106
52
64
-49
-86
-120
108
-114
8
3
41
-47
48
-105
-64
-28
-13
-99
38
3
-30
73
-47
117
-78
41
-41
-18
31
-34
-106
126
35
-114
4
13
-23
-111
20
-100
-48
-21
-1
33
104
64
107
-100
124
40
-41
0
-20
-10
15
-53
56
56
-13
74
97
-76
-67
119
-17
-35
-20
-51
38
127
7
-77
-119
-58
43
21
48
-109
22
-80
11
53
-39
26
30
81
-58
-2
86
-19
-12
117
83
-94
-77
78
-67
-125
53
-10
14
12
18
88
43
8
-14
-28
-2
-95
-57
-29
43
67
-79
-44
-54
-66
110
58
-100
37
-12
113
2
7
63
48
121
120
112
67
106
-8
21
0
1
-23
-24
124
-38
50
97
92
17
-116
-4
-15
-63
37
77
-101
75
-23
-62
-13
116
-108
-43
91
1
66
80
103
-25
-7
-35
-78
48
104
-124
-59
90
60
-75
25
-6
-64
-50
120
-69
-9
103
-39
-45
50
23
-120
14
-18
76
-115
-61
27
111
11
-95
17
39
-82
15
99
64
-107
63
-127
99
98
91
55
89
6
-105
-26
119
-95
125
58
50
64
-104
-22
-59
65
10
113
55
-4
2
112
90
-80
16
-2
-13
93
101
-34
2
30
12
105
-106
21
-54
-76
110
60
-71
33
73
22
40
-15
102
8
126
-113
-94
-7
73
-52
125
6
115
27
-12
23
-70
-11
125
97
0
28
-76
-111
17
-71
-42
-86
-56
86
8
-109
127
103
-116
-122
50
112
66
71
-74
114
15
-120
-30
-116
59
-108
15
36
-67
-81
84
120
-72
106
-86
-28
115
-80
50
-122
49
-100
100
126
76
-97
-10
80
111
18
-70
-59
50
-32
-77
-5
-58
-97
48
73
117
82
-62
-8
-84
31
-113
74
-117
-110
-57
-26
-49
84
-94
23
-23
-66
-59
92
-94
-2
-45
10
82
-7
28
-68
-32
-16
45
18
8
58
-116
-28
67
-41
-72
84
-117
-65
-50
-34
-86
-33
-89
-109
-2
100
34
116
-11
-83
64
97
-52
35
-72
-116
-14
-25
-87
16
126
18
-45
35
-63
64
-33
91
51
29
-29
69
-26
18
93
42
-89
-115
53
-21
-5
-113
12
90
26
108
113
5
39
124
127
-12
27
-26
60
-32
14
-115
-38
46
-117
-79
19
99
80
31
-120
-82
122
79
-125
-106
34
-64
-63
107
-98
41
-116
-53
-11
-124
-11
41
85
-29
-71
8
93
21
-87
110
125
24
-63
-31
-119
126
95
-55
-124
4
-56
-127
97
70
0
-29
-80
-41
-115
104
7
83
115
-17
28
-102
41
-69
-108
-89
79
-50
-40
-54
123
122
1
90
-47
24
19
-40
-125
53
6
59
37
-80
-65
-47
-118
-107
10
-52
41
82
-77
-21
54
-57
-124
42
-25
122
-108
-3
83
39
-27
91
-58
-92
98
-21
110
111
103
107
-42
45
-75
-56
-104
44
81
-76
-48
-32
123
27
6
89
-86
82
-2
8
76
20
105
26
107
104
79
77
17
-35
28
-31
-35
30
62
-24
-75
104
-19
102
-37
100
126
104
-65
121
-55
-44
74
-68
-39
100
-124
92
-2
107
2
-105
-33
-108
-78
60
107
1
122
-40
6
-17
-9
-116
81
-17
-33
113
101
74
-27
24
-26
-57
53
55
-112
88
123
62
69
23
-73
112
-38
-119
34
-56
-72
-83
-18
40
-21
-69
-27
-76
-109
68
-122
107
72
-55
89
109
66
-29
-17
35
23
-114
-28
-44
-120
55
-88
-14
118
-88
122
15
107
-54
-92
122
100
-54
101
87
113
14
-95
5
3
-58
-32
47
33
62
-5
-101
-21
95
92
117
76
16
-49
28
-106
-128
-44
-16
-98
-12
-68
-95
-89
-48
109
-4
60
43
12
-54
68
21
-106
21
59
39
69
-19
115
-90
15
-116
20
81
-123
-38
115
-53
74
-13
109
66
103
3
-10
21
-17
-68
-99
-53
-106
-107
31
22
-23
-89
11
-6
-68
77
-3
11
-23
-78
29
-62
91
-94
-65
44
46
3
74
118
115
59
-25
38
-60
28
33
74
30
-8
25
83
-7
-4
-70
42
0
55
-104
39
108
-126
-50
37
-105
-127
-100
-66
114
-98
30
31
-49
97
64
-56
-122
-37
26
122
-67
17
-78
121
-46
69
105
-58
66
84
-9
89
-105
82
32
-89
-2
-71
-61
45
49
-86
-53
-65
-117
-4
80
-99
-10
-98
78
49
-96
114
106
1
117
-54
40
18
-10
97
72
-120
54
-72
68
28
52
102
107
29
98
-118
34
-43
76
-92
-97
84
-110
31
-78
-10
48
-68
30
-34
125
87
-61
21
8
29
-35
122
112
75
-7
120
111
-75
-22
78
-36
-54
86
-96
34
-121
59
95
51
15
49
9
-26
91
22
-100
-121
43
-52
-90
-98
13
-69
66
108
-68
-84
122
70
-47
-17
94
55
93
102
-10
41
-82
-116
15
-121
-99
34
91
31
-105
115
90
-32
-35
108
-115
12
-67
58
-74
98
-91
52
48
9
-78
78
109
-12
-83
23
91
-90
-96
91
-5
-31
-116
-4
-47
-128
47
74
-117
126
101
93
-126
90
67
122
-114
73
35
-127
20
-19
67
-112
-125
-40
119
-72
-116
-86
18
-105
-18
-127
66
-40
88
33
24
126
98
67
119
-54
-38
-112
92
-115
14
-21
38
73
-7
-106
71
41
56
12
67
91
120
-100
-48
86
51
89
119
-87
-21
-39
44
114
49
92
-20
65
-18
-77
33
90
-105
-39
104
62
13
-90
58
-60
-95
50
0
76
122
-96
53
-107
-17
-116
-15
127
126
13
24
-87
95
35
33
-72
19
10
-46
120
113
-7
66
81
23
26
44
-40
86
-17
-93
114
-126
10
47
-12
-59
64
-17
-90
24
-40
104
60
-79
-28
-4
45
-25
-124
-17
91
-114
-27
91
-110
-33
39
102
81
-8
-60
-32
-56
-47
-101
-12
-31
10
-3
4
-16
82
115
13
-4
-15
100
93
-103
-75
-92
-8
65
41
44
127
-70
-126
-63
-44
-55
-9
38
-33
-60
-112
70
103
17
-59
-58
79
0
-23
-126
-105
-2
-86
-113
-109
69
-30
-45
-29
126
-84
-91
61
91
95
112
-74
-115
-118
44
104
-62
-128
-122
-19
109
-30
48
-15
18
-77
-62
51
-90
64
-71
46
17
71
80
-41
101
34
116
-26
-69
-39
124
-40
92
36
-5
56
-93
103
-30
84
-61
54
34
21
89
-56
-115
49
31
-28
-66
23
105
68
-105
35
46
36
57
60
89
2
48
-108
-47
-13
-33
88
77
-7
-45
89
-49
103
-90
3
-101
-66
-24
52
-114
5
71
-125
12
3
-56
26
-83
-126
107
-46
109
42
-85
35
-45
105
38
22
39
-28
16
-1
-105
-45
-34
50
125
8
40
123
-88
114
-12
-39
90
-124
127
117
-82
11
-2
-17
-36
103
99
7
83
-31
127
-32
96
80
-87
88
-26
-61
-31
27
84
107
-6
99
-4
82
34
60
-128
31
48
-10
0
-99
97
4
-98
-90
-10
85
-60
-125
44
13
105
97
120
25
-28
-59
51
13
54
66
-107
83
24
7
95
-42
95
39
-120
-25
14
42
36
75
-88
115
28
15
127
-63
-85
75
-50
39
118
-46
21
-49
-22
-29
-41
-65
-60
-50
-112
63
-60
10
115
-85
84
-83
-112
-68
7
-109
-29
-27
95
104
54
42
-38
66
-66
21
-51
-21
55
71
22
-84
-15
-42
5
88
7
-106
95
48
-4
-59
102
91
-58
124
-109
-127
-106
74
-47
122
-88
3
72
44
91
-68
15
37
-110
39
-72
-121
-19
99
-90
-64
19
-20
-122
46
80
111
85
98
-23
-45
82
119
-47
94
125
-35
-126
16
-29
-109
50
-1
-8
-127
-40
122
41
-46
101
124
9
-96
34
-65
-38
-78
-105
56
98
-115
-8
52
-120
25
-68
-52
51
-114
-1
-72
87
103
43
46
-85
-4
-13
-25
-126
-9
-108
112
1
98
-127
110
43
-67
55
-99
110
68
-122
-34
-21
-128
33
-72
-128
-20
18
31
-9
-77
-82
-32
58
62
-114
74
110
-59
11
91
53
73
44
57
-51
-7
-29
-113
-123
-83
-56
56
-10
89
48
-91
112
-114
107
-9
-113
-25
-99
-2
-64
96
-53
-101
114
-69
-37
78
-123
95
-23
-21
2
-56
-109
21
-75
-10
-32
90
-127
84
-8
-123
-123
33
-7
127
88
-119
2
124
6
-117
21
-84
-41
77
-71
42
-125
116
-115
93
117
52
20
-116
34
-89
17
-94
-41
-116
-67
-56
111
115
-7
56
-67
-18
-57
94
-123
-57
-95
-103
-46
-73
86
-115
-20
-22
61
-84
-15
-64
-109
83
-32
96
38
-100
102
97
-76
77
56
118
81
-82
-6
-73
-120
-114
-33
-36
49
-69
-53
-14
34
24
-27
-100
-20
103
-55
-92
21
34
-110
54
-65
-15
-15
-101
81
-67
59
-120
-36
66
105
-38
-45
-16
-65
54
-88
121
35
-78
24
-71
-115
-88
99
116
-59
-5
-58
114
-41
-49
117
3
40
18
-76
-59
102
65
44
42
94
-72
90
-116
29
68
91
58
-13
12
29
36
-9
-124
7
124
33
3
24
100
-115
64
34
77
108
109
84
85
-13
-50
-64
18
66
97
67
83
36
-54
-47
-53
-114
125
125
-44
121
-6
92
-104
-66
-125
20
125
-13
98
-72
30
16
11
-122
57
7
-15
3
75
-28
-78
-43
-90
29
-75
43
-100
85
115
-86
-54
-64
-22
-60
-102
-39
-89
-24
32
82
-105
26
-10
-95
25
-88
6
32
88
-64
-90
110
44
104
2
18
53
3
80
97
-55
95
-49
-45
-18
-122
38
23
-99
38
-128
36
-58
10
52
104
-14
60
105
51
-104
78
-66
49
-80
-55
-53
-117
68
-97
-13
84
-82
-92
17
-11
-8
-5
69
-51
-43
-46
59
12
82
43
110
94
-62
-51
-72
-41
2
79
59
104
-57
-53
63
-55
25
-8
-38
-72
0
60
51
-36
44
87
43
87
-45
63
-63
64
2
-104
-30
111
-123
99
-84
-49
41
-92
-41
21
-78
46
92
-31
-62
52
45
104
16
-16
-23
-98
20
-97
79
18
-47
-23
-1
-36
-32
117
-38
-33
73
65
-57
119
-14
38
38
59
86
-22
112
-108
-69
-84
58
-118
-66
-27
-11
-128
45
73
-113
-20
-83
10
-106
66
-80
-84
-88
-22
105
-38
-2
-39
-54
50
53
-31
-19
127
109
116
-110
123
-66
-12
-55
-45
7
21
116
81
28
11
0
-67
-108
-23
70
-36
1
-83
-63
116
-125
-127
-73
-67
64
-113
-92
61
-38
74
-17
41
2
-68
54
-26
49
-25
-124
91
119
-83
40
-89
109
2
45
-121
57
-3
-125
5
39
-77
-124
48
-69
95
-122
-8
-78
28
-61
-80
-112
-9
-117
19
112
-104
7
52
113
0
-68
-75
112
31
-55
-12
84
-78
24
114
-74
-12
89
-121
-125
-12
109
-98
76
22
-125
-67
83
-107
-56
18
-126
-5
-20
105
121
-14
-122
90
-54
-104
-1
18
67
73
-77
-34
109
91
79
96
85
-50
47
-34
-83
-54
13
53
117
-14
-116
-81
-48
56
-2
45
119
84
-18
1
-37
-99
-78
0
-97
51
-72
113
60
55
-26
113
3
-52
-83
-89
-49
-116
-109
14
-24
3
-123
-11
84
64
-78
-66
34
-63
-126
1
109
36
-8
121
28
76
-37
87
-83
-121
125
127
40
-83
-13
98
45
-89
119
57
-22
34
-95
-22
-74
47
36
-33
-69
107
-65
66
119
66
-123
-124
11
-34
-100
-104
65
71
43
78
-76
-108
96
-1
-23
-112
43
126
-26
-21
112
-1
123
120
-124
-62
-92
83
6
-114
-68
-84
-53
-36
-13
-127
-89
-59
118
72
-124
119
-8
80
96
-38
15
12
98
-28
104
34
28
-29
106
-107
-44
66
-123
82
40
85
-111
12
120
52
75
-62
106
-42
6
3
102
-45
21
14
-82
40
21
7
43
126
89
40
9
103
74
32
-48
73
85
74
43
97
-45
24
57
5
117
-29
-71
5
-49
81
-42
-93
60
-49
-61
-115
17
-48
61
-104
89
84
30
-62
73
38
81
-5
-118
-101
-106
-45
67
-37
-65
-71
97
42
-37
-81
-37
126
-46
-58
21
107
74
25
-90
66
107
-1
117
-82
-77
74
-14
-92
39
-80
37
109
-67
81
98
-62
118
95
-34
47
-123
-33
-59
-24
12
69
-88
-2
45
84
-25
65
105
33
14
-54
-35
73
127
-87
-75
-79
-6
-27
-35
87
-7
-67
30
24
57
-32
-76
55
-25
-59
58
91
37
71
78
-33
101
-60
-97
-93
51
34
82
10
100
-96
-93
76
125
-22
125
-68
117
125
19
-81
-31
-26
-10
93
-83
-123
-52
45
67
112
-42
-19
3
-93
-63
90
36
-112
-30
-126
-52
-125
-111
48
-14
31
110
-114
-35
-67
-36
45
-7
-63
125
32
-122
-122
44
-33
58
-45
9
62
86
39
-40
83
53
-71
97
-116
75
-76
15
-42
-14
-69
112
-31
-87
81
-56
-45
31
-98
84
96
101
117
118
70
-118
92
-44
107
52
-2
83
7
-96
29
-89
51
-47
-37
57
-104
-105
127
8
-119
57
-64
-52
-62
66
4
91
-14
-96
-90
-28
-31
35
90
75
-6
60
-88
85
-85
-128
6
7
74
77
-57
-127
-18
-54
32
-91
36
-20
98
92
-66
17
8
-116
45
64
100
109
-20
38
-107
108
-5
119
4
-74
49
-74
13
-87
-38
38
-77
0
-117
-128
37
42
-110
-41
-88
-1
-102
116
96
-125
101
53
-80
-88
-97
-104
48
14
-52
-84
-112
110
75
-126
107
123
-82
12
-45
-113
-109
-88
113
-94
116
114
-87
24
-108
68
112
110
62
-9
41
73
82
-79
-90
-63
116
-87
88
9
67
-75
-103
20
49
126
38
-112
41
-126
-125
37
-104
-8
4
51
-45
-104
-121
66
20
71
37
-108
32
75
-6
-69
8
76
-16
-19
123
-44
105
-12
-118
-100
71
-12
107
-25
-99
54
-128
3
-48
-4
-1
66
-105
114
68
12
14
39
109
123
-42
-35
-82
-83
47
-55
-71
-122
-12
107
29
55
-81
-21
-64
-48
-102
-82
52
123
-117
106
83
77
107
115
28
-35
-106
1
86
-35
-62
-92
62
-98
50
44
117
36
-34
64
118
45
-44
-2
-57
10
53
-35
90
91
-91
-72
-3
14
76
45
60
43
95
27
-46
124
-124
-105
-25
13
0
-104
-5
-55
120
18
-84
65
-87
-7
67
118
90
45
-56
-44
-60
40
64
-41
40
-128
54
-57
-28
56
71
68
34
-53
-74
-70
80
57
63
-55
31
53
111
51
-104
60
-49
-104
13
-123
108
67
-32
83
-124
-62
17
70
-33
-46
-34
-99
72
-119
54
97
-84
-31
47
42
-5
-70
18
49
-51
96
-82
-56
21
-14
116
125
2
-56
45
18
-51
-25
30
103
86
-118
117
62
0
-40
119
26
32
77
81
78
89
53
-1
64
-8
-96
-88
-89
97
68
111
-76
74
-4
108
-111
-65
109
-5
-63
-11
-75
-76
53
22
-108
-109
-58
28
-31
79
44
-56
40
106
-77
86
-2
-45
-64
-69
-90
-57
8
-95
-94
94
-125
-30
-18
45
-9
100
113
-73
-96
-63
119
44
31
122
108
-85
82
105
-23
-12
-100
-79
39
-26
51
-65
42
75
-44
-70
-5
-53
-20
28
-103
60
95
11
54
74
117
81
-103
70
52
37
44
-83
96
71
-72
90
106
-9
22
70
29
-102
-81
21
-11
-49
-31
114
-128
13
113
-46
95
-110
-24
-42
61
-18
38
-68
-13
10
12
114
-66
75
115
-112
-112
-74
77
14
-65
42
112
61
-30
6
-43
-55
-17
-79
1
97
4
31
94
94
-118
-50
-17
20
93
86
-16
-110
-49
-32
2
-6
-121
-125
13
-25
-122
-9
-26
-125
24
-11
-65
36
-83
-85
-110
36
-128
86
-83
54
-44
84
-48
-104
-71
18
32
-91
-9
113
76
-115
-64
126
74
47
-108
-15
5
18
53
64
22
-32
117
-52
72
-83
-91
74
-2
-98
-13
-16
22
39
-91
122
37
123
-114
114
59
70
-104
36
93
24
-85
109
-52
-107
-45
-69
-77
93
125
-66
-109
-77
-121
-116
-83
-104
58
110
11
91
-104
14
7
2
-37
99
-66
-116
-108
23
-76
96
-76
-88
-15
70
-82
101
4
70
-66
-54
69
117
-121
-64
-102
-43
86
-108
58
-62
-25
-35
27
-113
-113
112
-60
-113
20
-88
-83
24
122
-83
110
-57
109
-22
-128
126
51
2
36
36
-114
-9
-31
82
97
-83
82
105
54
-96
2
53
13
78
103
20
-113
126
-109
-84
-127
18
-77
114
-70
10
19
-114
91
-90
-117
117
20
31
48
90
-6
101
7
-105
114
111
-6
5
-37
103
-48
86
64
107
-11
13
-6
4
43
112
10
-50
69
126
101
87
-84
-97
15
79
75
-33
22
117
124
105
-40
-106
-50
-51
47
-12
60
-113
-50
27
98
108
81
35
42
-44
-82
106
8
35
21
-16
-6
76
8
-52
-93
111
90
-31
20
78
115
-55
-12
-27
-113
-110
-115
53
-43
-113
-31
15
63
70
-47
91
68
72
-45
-70
99
125
80
42
-116
-122
-94
27
-67
54
11
-68
13
-35
-18
48
99
-10
-49
16
-53
-83
38
-24
-96
-21
10
98
21
29
103
42
87
-115
47
11
89
-2
70
35
-76
109
-41
94
-7
92
124
70
-99
24
-11
15
102
-81
-107
90
111
-76
10
37
-105
31
-114
56
-104
-62
-111
-112
-124
124
-83
127
-48
-100
62
-75
-101
108
-98
-78
-44
-6
109
-93
107
62
58
-116
111
52
-73
-49
-95
127
62
73
-79
47
-66
101
38
